0.0008714997672276386 -0.0025137363352461597 0.006084017923116339 0.007590745380836485 -0.007794503887058917 0.002848106990592807 -0.0039041686771801552 0.006293873966238267 -0.008343968564591677 0.0007556649907866069 0.004269445376883842 0.0033286194463430507 -0.00944951866391788 0.007989086468700482 -0.005253289916658819 -0.007945027670580538 -0.008735442071907589 -0.004055312780083662 0.0009268465379727031 0.008396539774864186 -0.004807987868660304 -0.0012983266589986723 0.0037810015005158674 0.005589297380037925 0.003543231002740524 0.004382931288842469 0.002327814128711919 0.0013616946838700857 0.009329591113002479 0.0047149323899641216 -0.005520245540149178 -0.001937060835265226 -0.004313279631889315 0.007238565516465309 0.006396320864629773 -0.003600020333065686 -0.0010817199602355405 0.004362144488950524 0.006629469874860948 0.009730951036979593 0.0009723343644515454 0.004278326073233498 0.001987470805064274 -0.0010637950192369326 0.008302550353470507 -0.006002755943511509 1.9994515758023704e-05 -0.00028280159787357796 0.001366545579896206 0.007031496109071304 -0.00269865364361932 -0.007402151269136806 -0.007615380356412871 0.0052895446673941245 -0.006169862085836647 0.0018003085028309614 0.001243805086374337 0.00020913381947781744 -0.0015175229009820705 -0.004900505020875681 -0.0014629649028447805 0.002868566504557763 -0.0062498505904807905 -0.0009448037972452621 -0.0015848897000983568 -0.008856601982979578 -0.007571928971439537 0.009333901144645761 -0.004439642766568182 0.004615084850583411 0.005462497649128591 -0.008391558517890545 -0.004489711709410263 0.009323200544890742 -0.00834076603188586 -0.0018596439272629255 0.005607373329155969 0.003985977832915962 -0.0038398512726025326 0.008395082980138068 -0.006312776407884184 -0.006805573442462738 -0.0010403851807087375 -0.0006191787571087314 0.004934007541210216 -0.0014053079636354663 -0.008100733798165954 -0.007296295627795848 -0.004915854489718508 -0.009155663959081501 0.002236480484145306 0.009907670623763928 -0.005416174895522014 0.007313782241996624 -0.004661038047766557 0.009370234566138393 -0.0010514656357554705 0.002883184196476511 -0.00926723518178468 -0.006379121670145571 0.00813270256623838 -0.006228849441086195 -0.00635664631960549 -0.006628699563213312 -0.006372361666076885 -0.0060374696599591075 -0.008197634476353162 0.00237526480547417 0.004734106055859359 -0.007339817381729457 -0.009866259568241123 0.0006522302675427642 0.006521399504500114 0.004272074244890988 -0.009048245081293656 0.00892728403066559 0.003306051324539497 -0.0009664589433861261 -0.0015439655117533337 -0.008351200445980327 0.0055084214829829396 -0.005374376400884606 -0.0067484171147490215 -0.0038326622608231657 0.007054354097619677 -0.007370189602559201 -0.0038216232642226174 0.0012544085802033283 -0.006185675572523948 0.009255919119136624 -0.0029936680051628126 0.00031538714467455216 -0.004452701617755128 0.0016177309781748427 -0.009578725941919308 0.0018966646841641639 0.003389394094400722 0.005394650009895989 0.004207165086646942 0.0062123762958492 -0.006316455459429221 -0.007450468526284773 0.004760664363074233 -0.008870560318564133 0.0058019017134347105 -0.0005193612806733312 -0.0009926018814032204 -0.0060309396011067155 -0.0011000028140623602 -0.0056040299118500485 