0.015870994494825506 -0.012333717182062725 -0.0015797143262959179 -0.0038823898688209323 0.0028535705825996328 0.00047952106547775647 -0.007302516227148577 0.005355196670249613 0.01606136566200312 0.00338974766941681 0.010357162643566124 -0.011112345514596176 0.007693264682483481 -0.0017267237624203878 0.0035981365732683022 0.016678169545906625 -0.005128518235183736 -0.004194938691111622 0.004423010842096425 0.005835996301833434 0.010480697522183655 0.0016648113832978427 0.010457815977237125 0.011541083699432327 -0.007086092096466458 0.006900852832108276 0.005064759117415414 0.003186678715930704 0.010961754355901408 0.0011530878835656314 0.006149500219786771 0.008198692981215493 0.007592607579022941 -0.005715103619672035 0.002175747283382159 0.004209811288516108 0.007192407811013802 0.00019590429708814787 -0.011061772972761761 -0.010628307217461015 -0.003450379027288006 0.0023707051006946755 -0.004314806868470576 -0.001819844984578301 -0.009107681648248583 -0.009056724009694572 -0.0043721923175488115 -0.004796967167115048 -0.0010073901458119326 -0.007310955315822285 0.00039095169082347585 0.0051990168843634305 -0.006314625633396144 0.004454085040795963 0.0009540502950182411 0.0011122223054419304 0.00948440407414092 0.004534314836992132 0.0034944272869195537 -0.00640384911534124 -0.0008380827775431186 0.010633742302322188 -0.0023980793467766387 -0.003379624045854986 0.0035602083543837116 -0.007167924589766634 0.00469437989506932 -0.0009784762207242247 -0.0007072368847355666 -0.0076339552876853005 0.004133117285736594 0.000848538691339368 -0.006245464567712106 -0.014368873799538242 0.003937776059287219 -0.020531494589890932 0.009850621017343079 0.007257168784765952 0.008489524054395967 -0.002893886202789838 0.013273170016923961 0.00218431465335208 -0.005443536760290069 0.0015241917734291888 -0.0026286913253178172 -0.004344267550734325 -0.004504278287371442 -0.004128786627172725 0.00999015765181817 0.0038785710631787282 -0.002773446484115663 -0.0014674866115431113 -0.0012392733419598547 0.006885486059107224 -0.010269337825595977 -0.0006205015878312013 0.0007341972103421922 0.009203749323193164 -0.011756433201895468 0.010589189319418407 -0.0016339325984071667 0.009642716892875816 0.0036872193956203375 0.0036461634740963494 0.0030344525910424454 -0.00813090920803921 -0.0073787766731737425 0.004269358548932232 0.0026308815610927845 -0.0045949381105632485 0.010248611552457059 -0.009628308045999064 -0.0023495698934066496 -0.007873356022436741 -0.004223468384050693 -7.598232908694107e-05 0.009330237017572143 -0.004110313242763255 -0.018726363781268286 0.010982931563521923 0.006040146379746467 0.008764260377080734 -0.004957933869354504 0.011331793728288443 -0.006152390781610509 0.0051617528417008856 0.002437287874539358 0.0024253745314884037 0.00030526729892267 0.008947975738330057 -0.0015024893817186758 -0.007918381646993253 0.0020697976376778237 -0.00825422511504635 0.008962913707729565 0.0007513366180801554 0.0028680268837404706 0.004380253107893953 0.0035251998783824875 0.00615876086583091 -0.010727194279059578 0.0032334510334376286 -0.002487939184218858 0.004738401979177039 0.0034400260753893034 -0.0035309389816887676 0.008354640318836218 0.009367845774186275 -0.0050555122234444035 -0.002823488266212329 -0.007761010980993635 0.0029489679338531656 0.0110424769841452 0.008470428968890664 0.010250051369041918 -0.004160053129332962 0.0033293849214241786 -0.007698334456433077 0.0042326266053285206 7.840386195111767e-05 -0.00035409298223313204 -0.002849935385563076 -0.009147243618708575 -0.010746453651994406 -0.0013852313016557453 -0.019133233885307285 0.011700309299107592 0.011132918765168497 -0.005031789695576299 -0.0020561224475056966 0.011090909575780015 0.008336815531872661 0.0032548305628666467 0.008352993753314815 -0.012963436234257556 0.008329500367068665 0.005405546398312213 -0.00903674386842558 -0.0034157767495441543 0.0011598997700406155 0.0070065985952262695 0.00743558082458468 -0.00013440198530401332 0.005259632557208981 -0.0014240703435584175 -0.012520462243542682 0.005625613388035529 -0.002777383526329109 0.0006240107409087257 0.006078922905213922 0.0132057688873656 0.007075536178006608 0.008602468208440045 -0.009806865241084229 -0.002760051820822881 0.0017402229330346507 0.009675897425085097 -0.008861840322511522 -0.004832816990543008 0.006131043112857892 0.0097471323692687 -0.020465639824369036 -0.004456799674058652 -0.003278157064950166 0.00371665365994314 0.005642379120075709 0.0037335563136123057 -0.0011895302215924233 0.005709015296369205 0.008917160278863441 0.0021388099988716236 -0.0013544327406194482 0.0036107574106083334 -0.013631166563967371 -0.010190424377996436 8.208458325680093e-05 0.0029082481960339456 -0.011792011006450399 0.008937575070477993 -0.011067289858052018 0.0013509676083137468 2.703193407824984e-05 -0.0008507147211785037 -0.0018802488796357236 0.003927764483413707 -0.006197643425624424 -0.001653635455355855 0.007154278395882019 -0.004714201680386078 0.0008791465128405337 0.00016626594981057142 0.0007605349124474565 -0.003929393651572797 0.0069760603728885135 -0.005644247699754904 -0.0020193150860892115 -9.390095530741795e-05 0.010455162926802911 -0.0016320297884731974 -0.0023223916829758547 0.018868046354878622 -0.02034650880907239 0.009431341776588505 0.005596829012371995 -0.0069649458958530724 0.0074852949130664774 0.002710218307577314 0.0011232340738064745 0.008418571856166271 0.0015014779801904325 0.008327273485527753 0.004694532399462804 -0.0122462835746777 0.008350380534300084 -0.015520374198655014 -0.0018066395712348442 0.0006457887529002375 -0.005222662432701062 0.0017261524707968877 -0.00700455950348645 0.0034184625452880714 0.0027249116867461716 -0.0034803384090038463 0.01597815886129523 0.0062492479270878296 -0.005562705078401802 0.0020831734039976455 -0.0062845953096727965 0.007473532449911979 -0.0063625513507110975 -0.003730187981530298 -0.004439642069652671 -0.00013614444726235393 0.0007178352909764276 0.006272147238774136 -0.00011161037006755282 -0.006408382194717344 0.00882816377873638 0.0050737139738834675 -0.009477277336943535 0.010042826404996812 -0.005523253722170298 0.006014776077763386 -0.010310247017063559 -0.004949029229079206 0.009386402728037245 -0.006024543638112573 -0.010569643438216822 0.0017342199398035748 0.004401776867003926 0.00669294922700554 0.005226624836416422 -0.00039440467505161405 0.006525919100150993 -0.010374744888462711 -0.01205029912240059 0.0047880164599075365 -0.00735212262694604 0.008150468050832775 -0.001807722024652534 0.007260148448751585 0.009016752249735973 -0.0026195594942390807 -0.003628294308861608 0.0028051144072350083 0.00103510964150636 0.0009019700922671287 0.0015491499634408894 -0.0014033604725258704 -0.002677611425732458 -0.002819931829334114 0.012302601902554335 -0.0022945314501272075 -0.005462567433068637 -0.00724864154586114 -0.010534423118854327 0.010116564484477184 -0.003132468855774239 -0.0031919320298559135 -0.007699493198121842 0.01381671420714836 -0.0082857749458688 0.006313944676438683 0.0025981968516760384 0.006847133277490302 0.002684190634860533 0.0013271768606858835 0.003548194239536944 0.0021835761307332146 7.45994817695417e-05 -0.008038310495981027 0.007238990354163827 -0.005439856923079864 -0.0063903623143852315 -0.004618668188445988 -0.004184523358395536 0.0067510325087232655 -0.009866283932694451 -0.007027013543052231 -0.000884733367291863 -0.01106922323831527 -0.009180346034880207 -0.00011222768229587226 0.011878325244433004 -0.0017340319986547152 0.007622150080908803 0.003881654105962532 -0.010954151244915812 0.003280886097304767 -0.0035392494807492832 0.004583943403205326 0.007419424265270603 -0.0031538537851922848 0.015217691816110239 -0.0005816125790619774 0.003430212909828291 0.0057029285033517434 0.006091467153738317 0.0031259719651848144 0.006382694162013206 -0.0027255108717234044 -0.004348642116444697 0.0049977597226916635 -0.007229926434133192 -0.0007850771070701524 0.003831342517461957 0.0001477667352910081 -0.00804538603258794 -0.005639723188599753 -0.006747270992340212 -0.0015697169880336025 -0.0081622143840542 -0.0026914037086007746 -0.0061159996862521085 -0.008837656243716194 -0.01197442055551948 -0.008476707829490102 -0.004287334413731144 0.001178578867887889 -0.006786566543975098 -0.0017584266342083952 -0.006642260585751936 0.003697797930668772 0.00021223948373059147 0.013224796626833984 -0.01664748112288269 0.0021426923751591783 0.006112217735174017 -0.0018522996787559457 0.011033280580742457 0.0019739218973190685 0.007050111481638889 -0.002546510241790867 -0.0075536456451543955 -0.004949691712279087 -0.00774261155011023 -0.0005532821235152438 -0.0023843303563961947 -0.01007422367442323 0.0005255136430362184 -0.013566218104755752 0.007929416391758357 -0.007123973492581209 -0.01090698578828173 0.007300628011458147 0.0030088794781675163 0.0037079766640426663 -0.006343344052247018 0.005818186462647779 -0.0020971944107030386 0.011301334115898487 0.0005797669306112517 -0.0062904361274532085 -0.008590658012359625 -0.004240470167379621 -0.0049671900116944855 0.0026960810047036254 -0.005711625347091072 -0.008332958018095221 0.0021349298464682603 0.003301735170054204 0.0033147380365168367 -0.0037503037183957335 0.004939412200643229 -0.004115386760978726 0.01446571344902097 -0.012673639167983407 0.0038732489980888817 -0.0011557637507755777 -0.0018902808975603735 -0.009164454424381088 0.00898520666155792 -0.007773575523781728 -0.008751746521476355 -0.008073119469104582 0.009834977392022 0.005345056810178419 0.0013741317525491432 0.00907603636650404 -0.0063361883371545625 0.009813244391269378 -0.002628156025770156 0.0065934569919913425 0.007916422668760855 -0.006442272438372329 -0.006145998342315885 -0.008788145884568692 -0.005115217976045749 0.004338708069236797 -0.008407182081607543 0.001126858302103447 -0.007767515874041673 -0.010625115469044865 8.428853920758685e-05 0.003110273076612054 -0.00429017237429608 -0.00766374571720334 0.008281121716244297 -0.011806348512632313 -0.001215405341468136 0.01256366579503392 -0.005106545762191361 0.00034903800489812344 -0.012369611177287625 -0.0008554482502735465 -0.0008794194447630335 -0.0037615802158718 0.0042808717610528495 0.007925952092610607 0.0058920546331987615 -0.007377822678511584 0.008678605746192513 -0.006886086006368976 0.008149610983784583 -0.006273082230629883 0.03302098565197969 -0.009835506667425897 -0.0028910098020010254 -0.006597537842804638 0.008088832712272329 -0.025640520840386816 0.003060342078873328 -0.003946019155669831 0.014326788634624804 0.003587400373281255 0.010890088376844385 -0.007826155638145947 -0.0032918652462291275 -0.0014453943330329892 -0.008105950512708885 -0.008736069091796642 0.010328384742317741 0.0034593164022186395 0.008135332448208611 -0.0027492605669016414 -0.002117703103340798 -0.0051154226028954355 -0.003078320410430945 0.01159676625620616 -0.008713119963697709 -0.0032387813250474816 -0.004867430091924788 -0.0003680975824428794 0.006413014932687422 -0.01126103129810338 -0.0058956810074762955 0.005790616946166729 0.00844596304311371 -0.004736689138309229 -0.006557723973590701 0.007062306933273346 -0.007355982958307202 0.0006446063949427941 0.009534039662548871 -0.003942565700983834 -0.001580513906983318 -0.0002291343514435805 -0.0026531394833214394 -0.0018678690005514672 -0.009769629931499702 -0.005440141307545736 0.009159332975447812 0.0033482557662348456 -0.014087501510770392 -0.003122652925913428 2.26557704482588e-05 -0.002326206662904872 -0.0026756978368825935 0.011627918585547615 -0.004993749437112437 -0.026290520633109573 -0.003862938822255803 -0.005892076259897126 0.02037257713922792 -0.005694250687643683 0.00410445832953346 -0.004727561685236904 -0.003940828268317211 0.00399697834881254 0.008072754975808727 0.010556157813205097 -0.009835242147952181 0.005132015852023634 -0.006043320264635581 -0.0016756618888749517 -0.010588757803923338 0.011026245342427049 -0.009294899631394944 0.0009649271282398922 0.004684101151803735 0.0027105031762153244 -0.005561740284497584 -0.004644981843325667 0.0013315164095466891 -0.007385544483971504 -0.0054049524836019824 0.007616784834187621 0.0011943171236212006 -0.0027448101681913453 -0.005954997807103075 0.007285703182351677 0.001954149899109293 -0.0057328729758487065 -0.0015613608729855963 -0.0076048506440748636 -0.005945505747042762 0.010813181152008298 0.003835455025981909 0.013729517025409905 -0.00589823937198028 0.0011543466955970234 -0.0025559172097805337 0.004131901343325893 -0.009705912603521102 0.0007251751811705824 0.0012509130570657239 -0.0005249756623307158 -0.0012205602789600084 -0.005010859477473776 0.0006914542915043995 -0.0002948536570588972 -0.006231487989735617 0.006268275417943909 0.00048039921402304436 0.003487944282978761 -0.006359680086809069 0.00688285049280138 -0.009364038834392553 -0.0015914920625033184 0.003480946241011137 0.005780431713791075 -0.0016586348322389847 -0.005463240406075383 0.007116548317683188 0.004346181589269296 0.004071390893131066 0.006637775186010017 0.007419012312616876 -0.002449250533287794 0.007362899734165357 0.014807991985963644 -0.003607350479983932 -0.00743944394966139 0.008260367042279905 -0.004190435590315661 0.012510670698778514 -0.005740394216287226 -0.0005593893539755548 0.017765561668042825 -0.0013408117596938256 -0.008155453955264886 0.0002615583341307182 0.0033600059636129487 0.0026538015327166914 0.009648619195220774 0.0033488099200481977 -0.0030771647683299633 0.00922463684643576 -0.004822954931888279 -0.0020415244617039666 0.003452774169871132 -0.015466476656849656 0.006796745860381657 -0.005107586827218321 -0.0028603492546686983 0.011924942213901158 0.004116986337098215 0.006376168739011574 -0.011085592969574174 -0.007576035676033299 0.00453698998048778 0.0028824087252579443 0.005972209087775698 0.01170890348688425 0.006678365970608937 -0.0019975580502589155 0.008566932977611779 0.006269744725644865 -0.00811509831895708 -0.004611809594727035 0.007268235325937559 -0.0060463725313211845 0.002257276623849876 -0.008928776760469388 0.001098383652756813 0.00877579584738445 0.0030532669032035577 0.000952912424656529 -0.012075906517906389 0.00209358828905629 0.009777332073877295 -0.0060569897326924 4.6616877437707983e-05 -0.004925953978520271 -0.0001461873428784409 0.004394126717630539 -0.004764191997286479 -0.007984048820761052 -0.00576311853059895 -0.0033589672884586368 -0.006398572054327176 -0.0010183830607006976 0.0012285652116609104 -0.0011697382528841416 -0.005826928020586041 0.009952585798917285 -0.0003144310164378386 -0.006144437646748029 -0.011490740318531817 -0.0002961222389657313 -0.006257083955728278 0.006241476693764418 0.0103722103592949 -0.007215933037449121 0.008691425751117659 -0.0016519586892148658 0.0030736680281538923 0.0005280419332143674 0.0016746763598720865 0.007625310099006051 -0.013116900276636494 -0.004599496734350973 0.0001366041486851053 0.0010498675825076796 0.001420272175528088 0.0047790231202381826 0.005357075844765212 0.0037866152703203313 -0.006407043468096549 -0.00884768924069091 -0.009690448244220672 -0.002099924454796265 -0.00571121505020808 -0.007285717854621505 0.004773385806916048 0.0012874182016737012 0.004962570966917524 -0.005911484104829034 0.005050785400212574 0.0036851443154654663 -0.009305765821598932 -0.001588179255551127 0.001988111735097015 0.009193234432557202 0.002110465023313728 -0.017268657564204773 0.0027111014559286065 -0.002263022066944519 0.003152667058817796 -0.0007593838143312791 -0.00973150375458938 0.018501494242264438 0.0007952193440806817 -0.0077705169743586934 0.003797817982654458 0.0019691243631154774 0.022129296349124382 0.009002880267739849 -0.014023460552181672 0.0010465275530863558 -0.0021027404677661037 0.005147955444410949 0.011098008231095195 0.0016541181174692333 0.012030489388802192 -0.011725139304833649 0.01723795663951797 -0.008492741396989271 -0.00961692506609423 -0.0028696483799110976 0.008173879864771064 0.0031483161126868403 0.0065990446202173186 0.004345996852370533 0.008600931939057574 0.0024177068130661495 -0.00748506690565432 0.005033341994273703 0.004996925726530831 0.00033237852886806234 -0.015212091993554912 -0.0012869384691913646 0.010115097402066136 -0.007813345381133499 -0.0034579260072979895 0.005806264422297761 0.008548462800482097 0.005391518442338127 0.0012786245825226544 -0.0032074405502325785 -0.014836868301648128 0.005105438636266589 0.004958990248052036 0.012338607413984171 -0.005359936296600343 0.001799599860969748 0.005221892879776933 0.004550460060215092 0.005030712786337322 -0.0066865723601997815 0.0013329179006490361 -0.015403063757994016 0.003010167720878276 0.016509652963572187 0.0034080035660081875 0.0027592084607807065 0.004816703196766387 -0.01132160822685534 -0.0016888358501599358 0.0007973570854624084 0.02018964612636957 -0.008251911185579382 -0.011090686300500816 -0.01671977795497765 0.0014187037045756226 -0.0018278410735211043 0.008790703936678603 -0.0046553533533680025 8.918351778622801e-05 0.0002253481260689952 -0.007947075668194407 0.0016377325681436875 0.006536959681091334 0.0014018577353502077 0.009729338137388913 -0.004581097439437551 0.0004549801627874876 -0.0035794078876092155 -0.00037629815119195333 -0.007672479684634303 0.007002956598647445 -0.0009797550777995174 -0.011091372511732396 -0.0045755298855418335 -0.005547229251834863 0.012458221103799318 0.0058223714352028935 -0.006213210184742105 -0.0038824605714976607 0.003443886944263907 0.00016581913182403508 -0.008634727267329594 0.001646564303958714 0.004971600458830665 0.0106467915665304 -0.0021673297252515146 -0.0021405988949069975 -0.002429197593794246 0.0014219538399427361 0.004470138585669597 0.006449067334479564 -0.010412180824208165 0.009866453896981773 0.007522437633906659 0.004361568899234599 0.003989174695416151 0.0036244179158640183 0.010082439425258041 0.0056432956272779505 -0.009733380185174811 -0.004856833897491213 0.009550943043373455 0.008419433851198662 0.0014760616008873402 -0.0019421322942889093 -0.008084767288171328 0.007793688394811449 0.002075112488793663 0.0014934211113315726 -0.004087711281068043 0.003379737433343427 -0.0037370989079324917 0.000548407834256946 -0.001770025618656032 -0.0053672152513126025 0.00219765964496642 -0.009456151566751198 -0.00520498062336292 0.0038578975136414066 0.004617447739560856 -0.012809722036111006 0.00012782322388241044 0.013007991737895828 -0.0035603693154876094 0.013800077503697472 0.005013764525579906 -0.0014854743287986167 0.005887933510121805 -0.007715621996158816 -0.008234429704021459 -0.010344148787759253 -0.005262487137617124 0.006459961156798336 0.002522032748709379 0.015181803595520814 0.017369054913941123 -0.0012215496258597175 0.006360389856496967 -0.009518903447446587 -0.013193683810439717 -0.010366590147784852 0.004459322520617064 0.011213125490014965 -0.0013660888701019296 0.013965751499184087 0.007226972022656161 0.007828721268796713 0.0016676303420361984 0.004763666480544663 0.005795165590065961 -0.0138782439141471 -0.007377241629787521 -0.0053387380754403935 0.013380957165987781 0.00533940045985127 -0.01962310811947449 -0.0022560436258046773 0.004861704731455768 0.008141349105681173 0.010770381435738696 0.006592198218029152 -0.005977201086748473 -0.0075889824362883555 0.007229150271807804 -0.009132778164559091 0.007896802555775777 -0.005645848279862651 0.0037481161637586066 -0.003954018687971284 -0.008974598793488648 -0.011177868278376397 0.0033630373835173786 -0.010403623982702321 -0.003058607754308161 -0.009818761364326418 0.011897552064740708 0.008068919464568561 7.578824941213159e-05 -0.003566202319264594 0.0008970542380399189 -0.003749723505540285 -0.013556327880554527 0.0004566745911324411 0.0016359301246843371 0.008043078608992704 -0.0012254902469091527 0.0007756834218638599 -0.0053455582183233406 -0.012605424589295512 0.011218503267749978 0.006633543899155137 -0.0024442055930215057 -0.0066687213916863325 -0.00040917941508970823 -0.0033406017692935745 0.00987590197932837 -0.0038842622400769456 0.003433265459506774 0.00025687728557295637 -0.007429214905294901 -0.005049897950688834 -0.007913591825183159 -0.0014123473883101362 0.007693917131548232 0.001031474813127054 -0.01327749035396427 -0.003771087026743354 -0.0014556042797215052 0.006542049549469341 0.0023813253757884855 0.006046964018525736 0.0042595799162964436 0.0007936823920808037 -0.004021711817410574 0.0021208893181309816 0.0004261877447013964 0.004818530176256247 0.009390663320963319 0.007475586162283646 0.0013922981294409527 -0.007320850206698914 -0.0044885283300860465 -0.01094943616270436 0.012904646181389779 -0.0031103567611367724 -0.021790647008126197 -0.0062897636031067254 0.002230577775141587 0.01444366640670736 0.010326020203521245 0.002693019033926879 0.004256177608159816 0.007322102612547371 -0.004404896659501687 0.0025283583690321717 0.007484574571309996 0.002953286778689303 -0.008124084659678529 -0.0021690442248120645 0.008784369121745308 -0.004609734872590182 0.01604282374902138 -0.0055991120004367885 0.005859953479110397 -0.0075171417566377114 -0.001053706827572374 -0.0050309465623956835 0.00019166469346778927 -0.0004512492413519001 -0.001955979823394092 0.003936728110513114 0.0021988056437262453 -0.005484214638483348 -0.008702917006365333 0.007274791431481133 0.008905957348698262 -0.010144267444491688 0.010139642924545224 -0.004891735492848917 0.006774703358872057 0.009123089612468157 -0.002987845657493744 -0.0015796224301840114 -0.004141887040024379 -0.009752295499208866 -0.006008756422277941 0.0006119353600095403 0.002139831487556845 0.0005064401717609707 -0.007951410979330619 0.005654261277953404 0.004424371953503105 -0.005517373249461994 0.006172943097087694 0.007277205582242456 -0.00845040457679602 0.008773302487882821 0.006212184089251565 -0.006014052024415881 0.0050597461589284255 -0.003167963054224661 0.00030900502448410534 -0.0045100683788621195 0.00288695729049445 -0.011536046506899721 -0.007160616990614597 0.006587505064104039 0.006855595210845742 0.006451950990069451 -0.011842987676608041 0.016394867573506076 -0.006005962609590076 -0.0014980204095832478 -0.0020592288530281253 -0.011878593322769103 -0.007808612744430723 0.005695036091618372 -0.0015390679760074535 0.0034314246809855242 -0.005715711339747121 -0.005765485458830076 -0.003912048920963046 -0.004597630886412514 0.007881749140489227 -0.007070409270919566 -0.007016428085020875 0.012259905867990192 0.004824332361536647 0.002964746111184071 -0.00594260296400733 -0.0066245447462312665 0.007351360421499205 0.006407980941416401 -0.009161074544389004 0.002827586754647259 -0.030378592233963116 0.01955839913674046 0.01169407121911755 -0.004062902351716573 0.0005835725732163355 -0.011677749538398292 -0.0026185632485463102 0.010991517178623542 0.0007856220159746985 0.0030031483455358176 -0.0027145673653617215 0.017076244795980702 0.00523851955875695 0.013490821780752593 0.005583941900964615 -0.026606796566758923 0.020672137468514814 0.0036433261541399145 0.00019250122579330563 -0.002072517832976879 -0.0031779502213915255 0.005281072081745208 -0.008101628917358827 0.0015925795956089096 -0.006794609117493594 -0.006729631242374155 2.3724020964685993e-05 0.00844621741822896 -0.005061500698398139 -0.009099838082396252 0.018924936271400076 0.011655301843094953 0.0003140519743427539 -0.01772801608227704 0.010757092711929183 -0.0073304926883104105 0.0019177025256736464 -0.005526417643193811 -0.0018164925038874848 0.0019561940377521864 0.003227049050751776 -0.0003211467588437964 -0.001703563955466582 -0.0044712991505689 0.0009034717333663882 -0.0013972588865248262 0.0012492607548440632 0.0011009873598375858 0.004973187123617358 -0.008247493310390227 -0.01907624540465669 0.008656309532003206 0.0032010362999004825 0.0037728227575444862 -0.006945990581705032 0.005696764205492418 -0.0017934664334576852 0.004087238423433703 0.006270082006624935 -0.006240234650115997 0.006127173221375228 0.010365159564799949 0.005714969501318361 0.0027818651249897682 -0.009591481481673526 0.00433914668547234 -0.0029245422990791074 0.002126161890388999 -0.010330636290008627 -0.00822484231702486 0.003996003491641499 -0.009915909468287637 -0.0031733098993076895 -0.012114103358963358 0.007985081599762979 0.001842628775044864 0.0044258205442755175 -0.0066508293247662985 0.010189579673655845 -0.0002308146268018069 0.0067444853728686055 -0.003277386595790746 0.0038300032439146786 -0.0020581680621701115 -0.00894773417878804 -0.0030926298702499315 -0.0018749924251868194 0.009079680599718525 0.0031488957376848764 0.008422476185892645 0.004574987357560124 -0.0037450301457029956 -0.003641818505596034 -0.0031497826094129475 9.88799096140272e-05 -0.0038540237425319776 0.009198422512562416 -0.0027633350722803766 0.0018238756135974098 0.0022209901059528467 -0.001371786025347509 -0.0037842245914405737 -0.0028072573732732236 0.0004804189650672345 -0.012817030354222134 0.0008175656879879696 -0.010822524252162093 -0.002003918495705206 0.010283341370198209 -0.007173212731094826 3.031646459907651e-05 -0.0035260770887863622 0.004802521319225333 0.008271551000821756 -0.01275055091053389 0.0026928904982163413 0.012074530969380947 -0.006946735650370074 -0.005632323167964248 0.0026329878152778576 -0.007809607228689003 0.000349345987058096 -0.003341293751806428 0.004959539709772001 -0.0029282061505377967 0.00034953076988370726 -0.0004264680217365966 -0.0003345731672732892 -0.012925837428768376 0.0037871821120085422 -0.010290126220509326 0.005028248373932081 -0.009006204206240808 0.011094810039682849 -0.006140075586177652 -0.0016137581272097884 -0.00526055834687383 0.006186747902625758 -0.011950527619549718 -0.0026690459653215654 0.002422075903092974 -0.003995560673093229 0.004620783550704118 0.0012501288453405596 -0.008419204154246195 0.002406797945795918 0.00450950858345856 0.00559348481194733 0.004004989097666316 0.008432998733946859 -0.00625086538661387 0.0036917903345508253 -0.0048300629707193786 -0.005937784761932583 0.007813588107677695 -0.0007907688102812655 0.011511350458973396 -0.0006807903307894366 -0.008048697471897176 -0.004554500782506532 -0.0013422102891801576 0.003771244068984727 0.0011965450378325717 0.0035233080679082274 0.005140092200878104 -0.01125308886847213 0.004104088592600615 0.004716010315671004 0.008484015590891812 -0.004923372487472414 0.004684067577428927 0.0033482497409285227 0.0022188084019101025 -0.0033665350700333545 0.003834748267368556 -0.0072778268735760035 0.005657271536637928 -0.004806514896891227 -0.0008144302973288862 0.009100481827774098 -0.006004979867746571 -0.008542205407864826 0.0066831693818941 0.0036914410448744685 0.004275653117294786 -0.009633415095005846 0.005146368024652906 0.011400330792892648 -0.00681114096819332 0.0019180143599343538 -0.003793252685327505 0.005238337869776993 0.0056438816975906 0.011511085487753068 -0.010610816265772429 -0.009178392876397214 -0.0017155225668737115 -0.006626138181144407 -0.0016123274459676803 -0.004776224879008853 0.0036666221230370537 -0.005916028294447361 -0.0009330115623446795 0.0024787110459991756 0.0012371358765926276 0.005546920087096719 -0.00966725210913084 0.0012185704587118255 -0.00015019150409255843 0.004414294894627604 0.009094083782415097 -0.0035330124133747254 -0.003930304207182901 0.00034014241898339516 0.005347323492148584 -0.0009005992442143074 0.006354653881358199 0.011910579953506317 0.0008643537409541536 0.0005779670304369973 0.0049794232692594 -0.0038712164440297646 -0.0013103856446729971 -0.003223068551750311 0.002099407014685134 0.00036236603656531613 -0.006968521376914771 -0.0044106766827488155 -0.007576838228020241 -0.00044516943593511123 0.002287055185679951 -0.002298093964904086 0.004085355675390031 0.008029296235408408 -0.0037229741861729546 0.010038706241035653 -0.005977548278631102 -0.002002984787684689 0.010962966712512956 -0.004154422244484103 0.013181147841532273 -0.01337824513734035 0.0017826672762967797 -0.004987149432620901 -0.002383711819040326 -0.01429814834578353 0.01626797158785327 -0.0004005355729834129 -0.005183016551537752 -0.0030352944952857 -0.006082067975299167 0.0034466504858358653 0.006361547312849083 0.008910877144803132 -0.008315347991215541 -0.005969153663007915 0.016194666712894244 -0.0046051069873890875 0.005540309044234348 -0.008304480333411511 0.010332523276926622 0.00783293127649507 0.0008690168947089815 0.007634454709249323 0.0017868683065620742 -0.008994436677936736 -0.007673797871501153 0.0021602640577908865 -0.005358930994232368 0.0020326506345733054 0.0032689698898669293 0.00021604165996552487 -6.0319945180414604e-05 -0.006080353076397192 0.00888267961298429 0.001239389359485124 0.004390735425881233 0.0006820334659801432 0.001006006575498894 -0.00017352233395216612 -0.004678915749431434 0.00028046890753158154 0.008955414492005879 -0.00015679903057826854 0.008495539717447181 -0.012918185382461712 0.0005841286170862604 0.0010035783460366097 -4.6874449511540646e-05 -0.008290293452647698 0.005981134270952606 0.003296965283091741 -0.005812029050755436 -0.008061849690024709 -0.007279393164208611 0.012042632363772017 -0.0009047870445913436 0.0058429842599196325 -0.0017990728351998022 0.0029129892620735633 -0.00987329068208574 0.009338397707203792 -0.003430079768595108 0.012725610195668785 0.002592642963831467 -0.0015207433924949209 0.0015529953123880609 -0.008232890550997738 0.004719724817657244 -0.006342705800010187 -0.005176496062940062 6.087768244588864e-05 0.007676729783627424 -0.005323018962432293 0.00273805862314726 0.012935243787412978 0.005637562096286956 -0.009840018798803106 0.0024142604325997938 -0.007650492751301978 -0.003995007637082382 0.0012101115626870027 0.007386356674390287 0.003247533523808561 0.015017998547510661 0.0049507269383618005 -0.012995521253879795 0.002549439013335894 0.010045021983349006 0.007421200409978965 0.0035725146389634444 -0.004016336139344634 0.0076835475554929205 0.0018140582537382176 0.007752821315425292 -0.007254544067719291 0.008187607876275788 -0.0017311935804089043 0.01022623439847403 0.005396948951452445 -0.002771745151210076 0.005613913947818345 0.005434016227564923 0.00013475079919233335 0.012315628603325201 -0.0028186094327430503 -0.006944976084888775 -0.002011252645772643 0.010380595065444791 -0.0002357396257055089 -0.011862883155137139 0.01394174688155159 -0.012476119462289572 0.014819768453645521 -0.008230693913925502 0.0015985481736031605 -0.019904872524959198 -0.0008433870390770826 0.018782419949257282 0.008903147027911342 -0.019177102855294417 0.0028123625823187216 0.006356702459521561 -0.004581442166590416 0.00947758190875347 0.0033153139229589253 0.005544828263731398 -0.006866646085696551 0.002323932805063575 -0.0006533600877449828 -0.01551059768656595 -0.00016379128833771215 0.00856371348368758 -0.0023412273976024175 0.006714402447861558 -0.005217721040506785 0.0043051725682724945 -0.007103029825748511 0.009093610328843905 0.009140789268989612 0.01478044624142853 -0.023333979123819015 -0.009404187988321403 0.002004526515200808 0.005896218722254434 0.001957447030413873 -0.005744495122346443 -0.006150390195259438 -0.004519101899796931 0.0008058308561563504 0.00998308780286778 -0.0062865168616164325 0.00841931108700631 -0.003675208881884385 -0.01144872616674158 -1.253464137489506e-05 -0.0062924029925666486 -0.0026641295688327837 -0.0007892850814677592 0.010213215601884944 0.0013331107100456852 0.00818773380962564 0.0011806974576495455 0.0037738999393166685 -0.005119400219200754 0.010371844397925736 0.00489139600726228 0.0031716313430380097 0.01354849868289725 -0.0029749070443984464 0.004946431612161216 -0.008217562698745186 -0.003294484527197499 0.004239968808265563 -0.005691329384616246 0.0005795821682154348 0.007404919301080996 0.0071777486739181846 0.00022316001574312552 0.0038827545477916423 -0.01700471090659746 0.023387903958350255 0.009700785649093118 -0.012473291564069358 -0.003286865066473987 0.014021177257624216 -0.01092526139597956 0.0006899251435731118 0.0019105359988507672 0.009102010588134158 -0.005076716595116244 0.0011097805299560902 0.0019061103995212112 0.0016540402785972497 0.011680101820959158 -0.0071705673181949175 0.01977037696106549 -0.011178190789566706 0.010679018090246972 0.004770873966379666 -0.0002614329057153239 0.010139253304628669 -0.0006714094719127014 -0.014268168262950742 0.0007325906743815575 0.0020201190434165086 -0.002146502098907634 0.0030067811095063485 -0.0019222023669680155 0.003442133278831666 0.010912561946722934 -0.006332658935299266 -0.005578952853749927 0.0023634602877287527 0.007676562047564548 -0.016285136964125608 -0.0013508558280777051 -0.002780243391500326 -0.005796356286734911 0.0026808880449647097 0.0027155484283840586 -0.004744830448056851 0.003764902355240444 -0.006634344229349464 -0.0043370005246114165 -0.0017025416255201423 -0.000174097122086363 0.003899795298647567 0.007211805545858498 -0.002509233501204915 -0.0013955178911091628 -0.004145265820526132 -0.002380497951935542 -0.0028194517351328176 0.002044281090461786 -0.0037417472904237685 0.0016663555953665352 -0.0015513261621038082 0.0004471547591477992 0.0019643672498916853 0.001690033417047051 -0.002110166003219007 -0.005689355675281739 -0.010613690439448514 0.010765399616590052 0.005262618657896169 0.0035177488096264377 0.005982853087025636 0.00930860617709162 -0.01255278486334772 -0.0009639329191128852 -0.0040662477078191855 -0.005102003325601808 -0.006695639805994372 0.0025651577645209385 0.002256595859074422 0.007835633139132629 0.008512257911800212 -0.005586080390278072 0.0019769618346017204 -0.003586326079887648 0.014411060656071924 0.009423351121687814 -0.0140364704873214 -0.007485221992912078 0.007334358037426363 0.004821076838327969 0.007814183883861682 0.0002759041557968949 -0.004284234366573605 0.004985452361158349 0.0025221006170726076 0.0008604311205272437 0.0003560929559106229 0.0026394887146113117 0.011680030873286689 0.00019568390620970915 0.004817845776338902 0.002322140312391077 0.0019779010636635876 -0.012771686574686431 0.004427277501540627 0.0006380959362756968 0.0030942901151156405 0.012330182213676032 -0.012006468553550816 0.007188349182332306 0.006223046752446621 -0.002441042884979189 0.002671071228449048 0.0022865089473879446 -0.006883522201282026 -0.0015726140890922524 -0.0056434009700485985 0.008134305353488214 0.001712206588239813 0.007048124706545056 0.003517660641987883 -0.001366506198618974 -0.001342808738799409 -0.006278233196181718 0.0017792896766918105 0.010157178171567442 0.004330693551328573 0.011294289340875311 -0.0002942666527153273 -0.012564415739078762 0.008772531775865478 0.00040335026752460817 -0.0007256131694516009 -0.0098810247617667 0.005349653350201433 0.009915443699997596 -0.0033276156615392144 -0.0012477263204276235 0.004424795286670421 0.009744851506888875 0.003925743431000137 -0.014748454273999548 -0.00848765407326233 0.005964104089468748 -0.010550110515675969 -0.0033671140201027502 0.005067445173584035 -0.003915356832153454 0.005308605584583866 -0.007530595146441984 0.0035735507541528673 0.0012281197567168395 0.002391271358990753 0.0028905712109903 -0.0007880497858792695 0.002062435394276407 -0.004726965385722108 -0.00898800053663364 -0.004074764690008401 0.01011611098463695 -0.0066234177097317755 -0.003676174651309585 -0.00798203228674979 0.004850914389302579 0.004193626317993788 0.002553022769876868 -0.00036534665659239537 -0.001372311850604637 -0.005058477765495903 -7.334596013507698e-05 -0.0015113154754588013 3.068469116364385e-06 -0.004281329732318503 -0.009948261479049226 -0.0017436994541040033 -0.0019229536562594973 0.01603863217196157 -0.004724157272039477 -0.006522279270924956 0.00964495189397163 -0.0038815412228045063 0.008330532486354536 0.0027153244319292323 -0.001414395305629407 0.0056444123906667955 0.010715060104619329 -0.00613116034853904 0.001706420589192793 0.0010812440887842138 0.007231698850676538 -0.0013997037473305856 -0.012192308445115147 -0.005657902766046387 -0.004678402125571302 0.006053324366089089 0.0011181143290870678 0.009758343809241805 -0.011835043278437742 -0.0027243351285567586 -0.004413787708109935 0.003192074721436631 -0.007036581528829356 -0.002705228067581644 -0.001999789181153878 0.0045345713421558 0.005251620397308081 0.009339718888979196 0.002556923867317607 -0.010304746408617917 0.0010363217853294085 0.006138629658400193 0.009855890764244774 0.008167187797990324 0.005444279266257449 -0.008697888352447933 0.0053419210915356015 -0.009824344763733457 0.003042636574109784 0.00498756107257659 -0.012625146843303335 0.005257200299224033 -0.01469752620545754 -0.0025295781256397054 0.002676297359576001 -0.009626426628461363 -0.0065419245169872796 -0.00351011106028467 0.008300708043862019 -0.005388925801240861 0.004806657785872017 0.013563924282609373 -0.00042317546807769935 -0.0027790573124325912 0.007658017740707714 0.0020366898438664446 0.0028305370237129046 -0.00844429650405072 -0.00041628307793746663 0.01392068227625319 -0.0040709105864973226 -0.0029014285357867615 -0.00786510548613983 -0.0044895035081397895 -0.001240352342776689 0.00030978952800478745 -0.0066916627464839555 -0.0076628731888671725 -0.0013833324727038035 -0.0015966335302503919 -8.290591526939931e-05 -0.012273320534481913 0.011616698003114028 0.004172462610025988 0.0015276919875815637 -0.0020652500416578003 0.006273733450578304 -0.0007384237982707874 0.001250190649322267 0.013183628622303259 0.0008193980476180806 -0.0033792061374515792 -0.012212705549022627 -0.00034363572505410287 -0.007996104173452664 -0.0031635630591415097 0.0067604629948148165 -0.010968271003898977 0.006594014051927883 -0.007371359200124781 -0.0005262953550418356 -0.006079499388785361 0.008101661134792668 -0.004508734973576797 0.002947424454789658 0.003133037837077691 -0.011179657474588104 -0.0015519840040554287 0.005780400130928023 -0.0019192920315217819 0.006539243834786227 -0.007640740054700328 0.0016454517219354312 0.0002332071024354242 0.006514365209321809 0.006588656128105223 -0.003928881778634667 0.004749112122014906 -0.0016368988569263096 0.010701809163109047 0.0044832497767210155 -0.007043583086830545 0.006481264267542429 -0.00022359783354633243 -0.0021421716332449105 -0.008805302520743512 0.0031487216311568 0.011265835362818657 -0.005800605206033142 0.011393344426344572 0.0022216989402054853 -0.004534748453371335 -0.013326798124772877 0.011601548122021684 -0.006806352309813961 0.00020118620553226494 0.005603712270669349 0.004308199454497163 0.0011285924682582175 -0.004182311224422149 -0.003491093698410843 0.009066027139218707 -0.003908354918504251 0.0021440837844457395 -0.010831016181337432 0.0023405415227251833 0.006315700956975463 0.0013439439516178594 -0.006636987183189645 0.008508174322194731 -0.006741848197550975 -0.0031908425846982167 0.0022901016026559036 -0.0025387977876419067 -0.0020847148885108804 0.004833850275409636 0.002466722759265727 0.008497715680198107 0.00455118110353251 -0.011426711365681349 -0.009373112151022652 -0.0021141476133638435 -0.0011452190778081775 -0.0002645708611053325 -0.0009192008236534919 0.008022544559533728 0.0016647685111409749 0.004720534087216986 0.009727617471612977 0.002475194875450114 0.0013212629371018019 -0.01250556503908003 0.0034967699905902047 -0.005636317622673912 0.004015888011871716 0.003642500294197418 0.002651273579970307 0.007375205379513909 0.008898503549815669 0.008088055622760468 -0.008149510910132586 0.001101557968940228 0.0014662913902381133 -0.004824876085472525 -0.004407426258129722 0.008352850413746494 0.0111099662002079 -0.0006165349667121597 0.008409002789980037 -0.00040103955321294757 0.004694996741813409 -0.007482893343431254 0.001405060820403517 -0.003506185192041312 -0.002853878391141774 0.010474052830520705 -0.0024277884339113055 -0.0003632627044089018 0.010810996757046349 0.0034082261082524316 0.012775371883866807 -0.002352801914324124 -0.003697347011228674 -0.0059588368636538285 0.0045523182458361575 -0.0014648228102854494 0.002985633772960197 0.006342300611426083 -0.0009006910681992645 0.006990363062784876 0.0006855021663117664 -0.005036654921440783 0.01117594820272097 0.004681804361870016 0.022016458216444 -0.01760158327157014 0.008940854555728916 -0.0014401205628288543 -0.008850545468335875 0.010554808331068713 -0.00643318519985504 0.004521976670953954 0.0011343080842601922 0.0047927400647991844 -0.013450106069771652 0.009095810334833036 0.006123343105510111 0.00012028679505452996 -0.0013178240798988829 0.018660741234560865 -0.0037588278537183557 0.005404054645649323 0.006573772822976416 -0.0033921762506142206 0.004298205684927696 -0.0004055389801896483 -0.008301568363233938 -0.007897248403018515 0.01233472389940756 0.0006920214465811964 0.005094404982254298 -0.0008742662642904879 0.0015001653310722778 -0.010389091706909997 -0.0020885383722264975 -0.007552636942458318 0.001054993672680704 -0.007185813756954254 -0.004630937385309473 0.0031127827650058596 0.0050125462538206395 -0.009600707694357048 -0.0005121865997883249 0.002397141543800654 -0.002365533727127734 0.003809374609706037 0.0012241295126829155 -0.009419687340692859 0.0007845506066682184 -0.007603754341795282 0.008314601219848568 0.0065002794931418445 -0.0026857570037966223 0.002963863730152652 0.0033505803816105606 -0.011190251648093778 -0.005537603869520695 0.01059176651964838 0.009683325345720223 -0.011961159865604372 0.006136656182469996 0.006589410953894125 -0.0024183174288465227 0.006541331867712298 -0.00020124876958484616 -0.008625364773856583 -0.007142573599119625 0.006773832521569804 0.010771666383710883 0.0029317335918582444 -0.0038436361600574054 0.0009968355831352445 0.012300740616061852 0.00553443829520307 -0.0030116552901047933 0.0016636283462511151 -0.011833016918525383 0.011220597988947072 -0.0122668767775548 -0.0067889183359055826 -0.004683407075316605 0.006454517937338297 0.0042831208513638775 0.002800477397293427 0.004821212549858789 0.0033880936518431355 0.009734015817046424 -0.00875536500342256 0.012512808089687312 0.0009902043772034355 -0.013695883909396673 0.004787058614029188 0.002496726019571792 -0.011677277758748862 -0.0004097733524194342 0.014734329771798617 -0.0037645367436776734 -0.005622494239028967 0.0017510075794952486 -0.004456940680334679 -0.0028537694351848304 0.002493535186794238 -0.00019530817495445521 0.0025650800010803125 -0.011292089949420313 -0.0003951429278487786 0.0061458050167762105 -0.00555215164787037 0.01378706101328591 -0.004333290069599184 0.00513609287369101 0.00120572893724783 0.003524672579280437 -0.010067385788985935 0.00027638638244301426 0.003305943649688549 -0.000415237633566546 -0.00898608062398308 -0.008009668021205818 0.00215962201876406 0.0001261109050106049 -0.005746288854654645 0.008279134996938185 0.0052008746696771595 -0.009425955311534963 0.00029249498760342436 0.0002281889272653398 0.0012247190935989795 -0.006485892384410087 -0.004114859717124995 0.00810838245909162 -0.006444032157380757 -0.00112538829014631 0.007878530936146636 -0.00942380053390063 0.004954073833014831 0.012002698556179041 -0.009093845719968255 0.010130729089403432 -0.0030461115583903004 0.001018216828260464 -0.006140995557325974 0.00730575283112832 -0.0027021647347771774 0.027958492122765445 0.00027419895278980313 -0.0018129406373877102 -0.015830645244720547 0.006407949122121538 0.00477126079160845 -0.006258870121106132 -0.009211541553504093 -0.009817313650537274 -0.009443127506563684 -0.003638767598262515 0.004813744268901506 -0.003047406224249705 -0.001511049818444547 0.0073011657152307705 0.0009432607374160038 -0.0028760197143613674 0.0014240379728688679 -0.0018760450837391753 -0.0003368180367809482 0.010327247039099041 -0.0022495285105606014 -0.004346040269064564 0.011236049431564872 -0.00459309246295697 -0.002954860460008946 0.00518753681002854 0.007119234265904726 0.00938230149726178 -0.0036173372173028723 0.00837939575573541 -0.0058025081973599275 -0.00466228236474352 -0.0001152549679135674 -0.006146867934665397 0.013831342513793038 -0.00804679600654379 -0.009251771806998885 -0.006579137956190673 -0.005848898032557271 -0.0034074495618938157 -0.01235222912508381 0.002520996865264773 0.014708061219765155 -0.0021692879510867673 0.002160585560617518 0.0048784838134998555 0.002102133608940105 -0.0033874314047491936 0.01223932475451289 0.01005034993215895 -0.0018233289371382445 0.0007770971287933936 -0.005086968013387909 -0.0033187154171743566 -0.006561001587182395 -0.00039066092725914965 0.0049996326871476334 0.0073659326896917 -0.0036154264673260894 -0.010778388855410465 0.01436489907018649 0.009913557464396785 -0.00010495694899020263 0.0048678934506142 -0.00943839242676607 0.008128524235866293 -0.0022841302867624706 -0.0017672086355888168 0.007328298523576765 0.003924688039564158 0.0035614241864852904 -0.005339204648072887 0.00406711832299517 -0.004184502445039552 0.000702403588210405 0.006906332582786253 0.0077322160547637344 -0.0048223957516348006 -0.013832400059156848 0.004411485490266916 -0.011647335316598976 -0.009711175105693953 0.006383173373580608 -0.0015694800897707456 0.02004912916353671 -0.005934662198711791 -0.0011860634414487758 -0.0016360560343395539 -0.01078734936314942 0.0008368882949228066 -0.0005826648977887795 0.006691215314925198 -0.010509588748568855 0.00020652756509837009 0.010853609158903852 -0.004987378203866645 -0.010512186456437712 -0.007095852713034074 0.0025079936326035377 -0.0063934905555990025 -0.013230364989206685 -0.0024836787293492364 -0.010028599718974318 0.01387615775246145 0.0254529565342792 -0.004792478829929488 0.005559872255651268 -0.01368058966121239 0.005687535201151477 -0.011688579666766606 0.007535185499904229 0.008028037474971678 -0.0026068855681380346 -0.0033893189909754338 0.006644725288736717 0.01502174650540021 0.00445550969818033 -0.006949780948002444 0.0030944423991782475 0.0031044416220926316 -0.012203864631476631 0.0057374467032686996 -0.009554068885310912 0.0032152543236626616 0.014474544477964089 -0.01372912048537525 -0.0009767851215469671 -0.013940145434485032 0.0013028450128534023 0.0024361276521239856 -0.00035140386414883866 -0.005721217082332393 -0.013928882942539333 0.010533235094821632 0.0026751586179754646 -0.006873578749336496 -0.007266175263069282 0.004778222054763354 -0.003251089275395783 0.012308859151679013 -0.014965895079415767 0.0007974347836861961 -0.011236505052718683 0.0026828407345522876 0.009392960232432135 -0.007777575101007664 -0.0005204383199463019 0.0047033563865793975 -0.0160851781829295 -0.0009004032755536855 -0.014898728691327155 0.0021065369527741027 0.00119391238085206 0.006389938214928957 -0.0002975313658700384 -0.010522273695447995 0.005175983456027324 -0.005556047323641342 -0.0037257989317765372 -0.008742840634857661 -0.00946442761345015 -0.006891598427954612 -0.0009569891163418852 -0.01009605910893721 0.0087640998197108 0.004057454898271886 0.006749949735260835 0.007830621238429595 0.006441087803315258 -0.014529998416380549 0.010777132889470275 4.2772762157867345e-05 -0.0036847114572387154 0.005397170509113054 -0.002577846946888719 0.00858280276641751 -0.006681408565388108 0.007157986684020908 -0.000793959197113058 0.002945072586723274 -0.0007127384619523068 -0.004750162173722648 0.002543235122981334 -0.005380373908332256 -0.0023129177987923507 -0.0015569922626810615 -0.006126976481660351 -0.001067821788928256 -0.004698750924829957 0.005648824399036773 -0.005628933266619437 -0.010469342015456962 0.0012385998461628325 -0.010965388284086488 -0.0021869370147628137 0.006315281899013326 -0.005343916660125644 -0.010434483347807756 0.0005953739369739912 0.001927513380876138 0.004935340103973583 0.00789477499087959 0.0029296614596295463 0.0016850213736938886 -0.014911567847910631 0.0026813188222263927 -0.0035097405953185825 0.005345894668328155 0.001990207680547022 0.0051263513296692 0.00793083485420881 0.00024461076402908797 -0.0014821886786852685 -0.0003235056347257732 -0.007494979344288991 -0.007785293918913224 0.004870347614394171 -0.00102070337103153 0.009517828149946833 0.0006203652403113048 -0.0011267269335396826 0.006957196604030565 0.006331117748707537 0.009796119056642051 0.004396215374857639 -0.003515009579652561 0.0006544201514333246 0.0036847599750915133 0.0052979976757261595 -0.001058347370436411 0.004778107310846463 -0.004583521313717645 0.0006759239007811689 -0.004422805937109805 -0.011700552746608575 -0.0022118946887410484 0.008991643332049708 -1.2930330786551226e-05 0.00030160727648460736 -0.006702277115247822 0.00404558071739614 -0.0023826011836973453 -0.0021876486966736267 -0.009590205898537055 0.003450640280502172 -0.006687606763664748 0.0024437590823643473 0.003205213249816182 0.006415475760038906 0.007942005558629735 0.0009900811872711234 -0.006794157427971789 0.0012140377899494098 0.0005719978310295904 -0.011126041391625043 0.010547157435616857 -0.00568466640525833 -0.0025711979798644265 0.008200019276645251 -0.006737111220204436 -0.0009891430481751594 0.0043508632404726045 -0.004782055649100423 0.007530774090275751 0.008282564304029235 -0.001017516874189687 0.003997671115693867 0.008620605688837575 -0.003205580596835578 -0.009313274632373964 -0.003863889847379028 -0.0031655822435410004 -0.006651800501254033 0.0107012369455826 -0.013918977559650488 0.005753145673650302 4.870941818800434e-05 0.0028566310015906535 0.0037263870229805427 -0.0026206901417927825 -0.006122871382872328 -0.005301487560998225 0.0007687875081164927 0.004763669157630963 -0.007634097206116511 0.0069812298160790084 0.00720559522297422 -0.002177377152004831 0.008037369479215113 -0.0002718316296502855 -0.004017093491873415 -0.0037282567332818746 -0.005727363862113952 0.0049085334003767574 0.005960216997494557 0.0068276341575850665 0.008715413265311202 -5.3773810340387255e-06 0.006595102589337286 0.001634828477091408 0.008680291519377974 -0.0010953264917010449 0.006240865597362538 -0.0017217249842672714 0.004858363302705441 0.008150104592316361 -0.0009791518271281344 -0.004549838388446196 -0.008025811023327873 -0.01551084748051125 -0.006755670508424765 -0.006102642319978168 0.024541248756138476 0.00359086713480641 0.0010092867257586143 0.007961172372411595 -0.010511419321711539 0.004922677198239282 -0.006423501042225108 -0.019641240527546174 0.002388261933889701 0.0070879872397613805 0.01273023820521918 0.00032083119104442664 0.0006886239487947732 0.006701265145880319 -0.004515982119016441 0.008301226460024494 0.0014356598012849684 0.02907537171787983 0.001864908750122956 -0.006271666289844333 0.0023172940658430716 0.0014561420928266915 -0.01042019514137586 0.0028235393899970884 -0.003659838048542403 -0.003343696428428052 -0.0028476420335364293 -0.010669119730828774 0.0004475229534164932 -0.0010292742370568227 0.006418200921689597 0.00457853669201325 0.0038644049971776886 -0.001528352382214498 0.005176603819172943 -0.006194585513585567 -0.007242334412806513 -0.009751594720840355 0.0006297469423284677 0.005193111823322147 -0.010458454406596856 -0.00021695971801919891 0.003079890752566782 0.009838573523099135 -0.006145846797973754 -0.007478463650602073 0.001086989177554801 -0.011940873805417664 0.009361905749324164 0.0044160330851611826 0.009416736903055658 -0.0016440316858535177 -0.004478041299045837 0.0062146666131661175 0.006824522820248123 0.0014217324509020923 0.000429718730117189 0.004278902262119345 -0.0002117093624529359 -0.0066906984622010345 0.0029231135426975325 0.001236682976230948 0.011500110401628466 0.00404874690482159 -0.005264130101363744 0.0038529545457301425 -0.007966752414519 0.014872031435128073 -0.003518453525117943 -0.005380066530754409 -0.01272180482564489 -0.005013579774857392 0.00032590684756163377 -0.009379682085962331 -0.0001887441637884007 -0.005950596637044361 -0.003655465944466036 0.007902967947845148 0.011680043779134987 0.010676167723930064 -0.010038523802609719 0.0019015436820293385 0.0006859678147813022 -0.007220561748123515 -0.004184702446170033 -0.008291971519455828 0.007098883989454637 -0.014773220279754007 -0.004394977942783113 0.005521905095950546 0.00962006366926514 -0.010254869848109478 -0.0027833663586507573 -0.0029725182844535384 -0.0033988205461852232 -0.00047345539885556925 0.01198440084239492 0.011486619337337781 -0.0016415269654807513 -0.007089214502743194 0.0018837781892831304 -0.008153816068117782 -0.0070640793152357195 -0.007849014043760977 -0.008068392098764513 0.011343771088030788 -0.013567523802086697 -0.0021973611652250404 -0.004353334752743262 0.0010728734367815363 -0.008675651275923972 -0.0027889683256915546 -0.0010904643763675018 0.007368523643833336 0.004311681127661693 -0.0017232416362559485 0.003984616079650351 -0.009332851131485194 -0.01010816082120345 0.00522340535543859 0.00838042252737854 0.007864567425973865 0.010406739987514561 0.0027590586959542617 -0.007485293234751393 -0.0042786782710763135 -0.006832046286940427 -0.017059806419351592 0.0011582478283835346 0.0027188123466539696 -0.0037735250930856683 0.0010219076823267893 -0.003195603473085347 0.0057485290814268475 0.0026296378370506304 0.008515024492777587 0.0012269042728439556 -0.0008949271969955683 0.006238722998699904 -0.005569975339723276 0.002767652819143117 -0.0011189341203872555 -0.0032436249892065583 2.955617394041917e-05 -0.010248308441892343 0.007357591760982025 -0.0035821492137044796 -0.009584382470894007 -0.002009663435742186 0.0015251418125804314 -0.012423333670584086 0.004219610989921924 -0.006031135297195774 -0.007159206372385358 -0.00703696280482738 -0.006236847579418114 -0.00599269150132568 0.0010736850773898398 0.005346474126681664 -0.0003045964335902295 -0.0011169385671107735 0.010882109293947742 0.0020369557645956824 -0.009079082259011764 -0.0041242348164279895 0.0031823418433728603 -0.00424340617172113 -0.007281752223729872 -0.0025272072832725123 -0.0019046952602674453 -0.007651337198683986 -0.00011252978490922143 0.016565215196544168 -0.0016731750895176499 -0.009667750929726888 -0.006787500930552361 -0.007345796435383573 -0.008676061807981167 -0.00020514263878396952 0.006425366532423284 -0.010675675496333206 0.011835719436327018 0.010546242928873621 0.01537600693135133 0.009683115890734182 -0.02961366094679704 0.013234724938987481 0.0009196250232201921 -0.008768745687026982 -0.00765196154991153 0.006239743092190914 -0.014629979276296643 -0.008713583778538857 0.0039568781927197885 -0.0017166707781706668 0.0021773274829894763 0.006298599237682604 0.004607470629995307 0.0023737380533268553 -0.00041160931986314135 0.009685491018979479 -0.010202979749411195 -0.013038232866690652 -9.266580579452057e-05 0.000741926577078681 0.0023612153171861565 0.005092541794679458 -0.009730893357608659 0.0025341333681691697 -0.005760273588121551 0.0024229051843005626 -0.00023983726100045504 -0.009495290851161488 0.008924623641515644 -0.004522660807925314 -0.003322855335328299 -0.0084656329065617 0.010588003945716377 0.004208231246925225 -0.009411409693855823 0.005594635680168824 -0.0035744377354507357 0.005544862449153076 -0.011803708427524505 0.001642576450081061 0.0057777867091965305 0.0035722846970665106 0.010114885216250652 0.007011395923902314 0.004354060249425146 0.012182761961700539 -0.0057046311220579835 -0.009353738465545066 0.002545365122615436 -0.003241746090431728 -0.004412632839952437 0.0018859561412875672 -0.013693613063453831 -0.0014329324904029854 -0.005138953805153546 0.0013976426934820695 0.010275681642790363 -0.0029975050325701767 0.003939539972734205 0.0019014597999922904 0.005423981524422465 0.004444562803292004 0.010026587938496942 0.00165826694825601 -0.006234022819857794 -0.003623055533860047 0.004858999470942388 -0.006315584119385181 -0.00721572920623874 -0.004754814098500255 0.003330731347019782 0.00653727809241422 0.011086254631073815 0.0031684030332809923 0.005364682681916711 -0.011038604536451387 -0.0032660337455308196 0.007822711471214156 0.006467154290985823 -0.004119205234206227 -0.012560004777336441 0.00924628341809674 0.015564915942743602 -0.007378650865063163 -0.0024953342536415154 -2.044207687733877e-05 -0.00018462171048609386 -0.010297100857773772 0.02193081078602676 0.0003359371129580262 -0.00679842869952089 0.007787223196869501 -0.011556219459070113 -0.0007444460797756051 -0.004748108190700103 0.004915452085624438 0.0022501419720070246 0.0042827985037816865 -0.00179396936383924 -0.0005916355808725705 0.007839987277236544 -0.005477539120461223 -0.004713254276068123 9.85051961754057e-05 0.00034740717588488705 -0.0008309619104178738 -0.006900321648485129 0.001878698604890415 0.005551930942780145 0.0025772374283349964 -0.00552118863720294 -0.00210081995664481 0.030756269135453932 -0.020796390990255532 0.0011659784909855025 -0.001251401591559628 -0.0054839827521045645 -0.005484164231796364 0.0007513920537854752 0.011946886759482083 0.002721422441484699 0.013851761196208097 -0.0131695677348951 0.012004557433433642 -0.0019507514787927586 0.015498701037362428 0.0009627687831855238 -0.001562599003653757 -0.0026689969090082782 -0.0005761919864700462 0.003989896026126943 -8.043062745415764e-05 0.027395549614999057 -0.002709447739168218 -0.009839358631917048 -0.005596897545805043 -0.0031144160004794516 -0.008801563364221353 0.0038984862876863466 -0.004408549531334697 0.0044789003546832195 0.008257599137295096 -0.0002992054596196943 -0.006236510755033566 0.010865400163710903 -0.004174563986650973 0.011745173909826555 -0.005012362369139557 -0.00575168546642198 -0.001725749912494909 -0.006057424565995583 0.006686692387970245 0.0013250532420510705 -0.0044525028454508574 0.0009418910909124159 0.013456203815192743 -0.0066830778725540056 -0.0010705415236943112 -0.006121355168337741 -0.0004215291156085111 -0.00042758459817714297 0.0008437636298752425 -0.010885642516838866 0.012280420795923466 0.008250737168888767 -0.007873716058706843 0.001514469213080956 0.00798245527655886 -0.0015331407731078532 0.0028589671992969297 0.001161161651567992 0.002636069032783139 -0.010966298575839285 -0.0022249186016447342 -0.008873975143383301 0.0008962461602569487 -0.0008384277826107797 0.006905989604233782 0.0036991723711853803 0.0025208756542531045 -0.0012864362759000066 -0.0061568381868497115 -0.012021575435679822 0.012497528574776652 0.0022458727952358406 0.008387759711839773 -0.008563544264599866 -0.015008320251876126 -0.004772663205152752 0.007947894197232115 0.005823173449017034 -0.0011890357445597424 -0.0022791892778233594 -0.005681154423987485 -0.004223952954722911 -0.005930032999265553 -0.009963225152147577 -0.006060279083143158 -0.0071849153213304475 0.0091683123500186 -0.007649326116806348 0.010669515693787499 -0.026933196360694658 -0.011893536876132217 0.0038348731869351934 0.024879594858400085 6.923322148290728e-05 -0.0041888471789878175 -0.001956764514721509 -0.011752801892357282 0.025230386990014952 -0.004494461564894595 -0.0061737646696736455 0.0027313009450242736 0.0004470048394624532 0.012747330733508911 0.0022698007106396394 -0.005254309903272298 0.006435337857672163 0.003095114851664124 0.011747402251161271 -0.0023255435495379627 0.00023106923908624346 0.00046060501050003064 0.007205573373607726 0.003267385727537434 -0.0007301326269638929 -0.014039416603478239 0.006403728019175091 -0.000935151881700543 -0.0055385604382685435 0.008447744760150642 -0.015487687667439184 -0.000822938772839531 0.010818670314996002 -0.0022309808579087935 -0.004145721070562618 -0.012230137835249148 -0.0014064480954372976 -0.0014338627347321043 0.010249874920873196 0.005399508346950096 0.007583179017415813 -0.004045639248892079 0.0008102316057202444 -0.009425350491447606 0.0033424490422574323 0.016758734418816177 0.004248652813524074 -0.00420777882101168 0.003542800074159326 -0.006148662479011868 0.00976054922605455 0.0034485062371061564 -0.007482059437104012 0.003978440098891828 -0.008166472496263524 0.0026590486737148953 -0.008043911388137828 -0.010649612546608846 0.0007641213990829225 -0.005935691308467295 0.006930035395029444 -0.0058067244853935536 0.001800611771184613 0.0008108605514227567 -0.0030486674698450337 -0.017868978430051426 -0.009051164793424382 -0.000449958324601416 0.021632564695521373 -0.005846225186932082 -0.010736974650370396 0.001366819542857179 0.005664716836706681 0.0029694461058527204 0.00635126884908268 0.006670222402275085 0.0044233740252241065 0.0047596738117071154 0.006230911465702101 0.0045676881695785616 0.0005930676083904594 0.010520555202865432 -0.004309583196139302 -0.009348298769220371 0.003521434551393053 -0.008230472228600126 -0.004458256041230996 0.0069012488685794 0.006520919208200941 -0.0002088989865061624 0.008701669771254673 -0.005257692374353401 0.0040632711523315036 -0.0077730354110674095 -0.003959180189769566 -0.0147023504765048 -0.0004989445432264512 -0.002666302932381114 0.003718822126151294 -0.00506755052853796 -0.008795091480607649 0.009183512139045062 -0.008541262460489729 0.010280007136911951 0.007615660373407161 -0.007198746774314542 0.000880577979534602 0.00543155260109658 -0.005023461535692877 0.007186782709285036 0.011645579390759804 -0.00286728095210661 -0.004730651104115691 -0.007670413121118081 0.004440419041789964 -0.0073544693837406016 -0.008816338904734657 -0.0046292632130844336 -0.007732075548074652 0.006096044188590087 -0.0010335664034704026 0.005439407117948761 0.0024633182491913823 0.0014322099516740176 -0.0036202201238575943 -0.0011125392360239366 0.0033936877610545686 -0.0004387012853839955 -0.012410928253048886 0.008359925759833698 0.013248209186365335 -0.009107381014741945 -0.007167688169493106 0.0032756138893656763 0.010583003987556835 0.013040441283883075 0.0034138294502993913 -0.004346475366894832 -0.006882035416416774 -0.0018404247016954233 0.005064795402670609 -0.0017687739660639235 -0.0035820732526950457 -0.0016851256677818908 -0.001272789145829748 -0.006523258416185265 -0.007900493264092878 0.009427227706282664 0.01723761964516674 -0.00574307045725529 0.005484881990813856 0.006714936210784987 0.005548223764518767 0.003004782846509608 -0.001982629038615588 0.012020467887096042 0.004178992892920153 0.009224511185610584 -0.000155667854910764 -0.002122719437192634 0.0001853396340379226 0.005437094502711122 -0.005488678517801354 -0.010343125924664605 0.006166101644569125 -0.004084872539025809 -0.010497140176577416 -4.781232382962813e-05 0.0009077182792493524 0.009372963918507882 -0.0019646357235876474 -0.014021296834095816 0.010393595272300887 0.0033819009122771416 0.0022652381630112223 -0.00033000136317379276 0.005629270235622748 -0.009005627678404135 -0.003442839924942099 0.0014212662814174772 0.007700891158272336 0.001946955063796268 0.0068393433580892 0.00123873326372638 0.005746016592432114 -0.0009587977792899633 0.006931941792521859 -0.010286019768374177 0.005291011754478948 -0.013316497367901973 0.03563232914747019 0.004063270393972714 0.00321214591902385 -0.03226309494768257 -0.008001342840818023 0.012475111447398525 -0.011965843950117657 0.005762623104877535 0.004125838356955696 0.00468461128095521 -0.006986487285000235 -0.0030288782672080326 -0.004418040059171846 0.008400241462535603 0.007830556776672623 0.001981335179235384 0.0014711057814727718 -0.004221163283620496 -0.0009106948140972474 0.003828774897856761 -0.0006428849396059284 0.007039156657476062 0.000991927478074761 -0.0013345907827634462 0.00145160227623324 0.0002758225753264688 0.0018660342427937585 -0.005244398220678254 -0.003809732630598549 -0.009180075778570404 -0.0011630998198912555 0.006884834921899132 0.00012359567847467656 0.0018899230277235413 0.012918177745519175 -0.0031532777955309266 -0.00918026572172598 -0.005614917050404798 -0.004884675573381461 0.014129960892473079 -0.006904164623691552 -0.002933923344656089 0.0063935061071794174 0.00432229145538061 0.0037344509857865095 -0.011439436232555712 -0.005482218359276287 -0.001691381754337337 0.013513101900161261 0.01001271943383991 -0.005662300195381336 0.007072160833044149 -0.007021607969529425 0.014157929366882352 0.0007146476511245488 0.008625028722182437 -0.006483450181986806 0.003894274649982515 -0.015241784930773026 0.005581371407162153 0.0076275819783812515 -0.0003959852022270908 0.0007253299844253363 -0.01477460772882039 -0.0007009202441582202 -0.007290664295494842 0.0029088345678260326 0.001403866831181844 0.0007350725239493219 0.013857475311162033 -0.005394910250657818 0.0037384673685548243 -0.007213706059835466 -0.0028061214004663918 -0.010310056981985675 -0.0002272404921556156 0.0025945824259086935 -0.006424494699040102 0.0006706590294359839 -0.001051360050030297 -0.008671690768373612 0.010367948589634043 0.011937374442317223 -0.006797393680620781 0.0013432562807575278 0.019338150462867888 -0.0067672453356935275 -0.0027463425949198084 0.00902342531574876 -0.003901983307873077 0.006989208732473145 0.0031946232320130383 0.009453474482344385 -0.0004246112931391846 0.0006599815814593729 0.0015921624932339975 -0.008039713564239536 0.005669136186269816 -0.007748570035408461 -0.00016662044591586435 -0.0037416992022844897 -0.012564637763406114 0.009378038248336178 -0.0025472082626273903 -0.007730721292735651 0.0040687668296293025 0.0008480957851375572 0.004900134505901307 -0.007176340972425117 -0.00254249248081338 -0.016538963977118314 0.007321440604166233 0.0010808455258124923 0.008842611682704006 -0.0051592602430563135 -0.0011694467805330143 0.004662128438369026 -0.004081265810123948 0.007955575899226137 0.0014526592102582254 0.00471768934400454 -0.005060609333571387 0.003550690447083963 0.0003310778493141687 0.010432358055573535 0.00161252307893513 0.003775852625220285 0.004681022779634696 0.005683452996043181 -0.00229482168254857 0.010217934057953069 -0.004085128921223002 -0.009413349349270279 -0.00790521927631868 0.0013632771261485803 -0.009091183116004037 -0.0059659977875966535 0.0044157734012622235 0.007398842962385547 0.0020473974528819688 -0.004731386269343911 -0.013851961965125587 0.002706744881384802 0.0020347903691230033 -0.0016471295859671058 -0.008912554770199853 -0.006564990128675109 0.005580881126131861 0.005076587350269242 -0.002911541046122678 -0.001004796361627106 0.0014842343941079371 0.0038239100734903846 0.009334208913353348 -0.0017108467129155704 0.007402716706115963 0.0009485292922094446 -0.005274930324685857 -0.0038664083433298914 0.006754429202212678 -0.0052885566622358545 0.010211573364790338 -0.003726956879768022 -0.0030573447099086363 0.014119678967524005 0.00418180143311819 -0.01716861744443696 6.898788964987011e-06 0.0029772932865522626 0.00756343880398256 -0.00416877753123703 -0.0009979065092286703 0.0013411499718309202 -0.006724793941104403 0.008825155092411859 -0.010304618672856203 0.004285265477994318 -0.0019025452236155374 -0.0024092409411530357 4.851906005964402e-05 0.007098306218224345 -0.007475823630301418 0.004067092219533393 0.0073573986646250054 -0.005450172814440682 0.011112730884140129 0.007850291578017747 -0.007471826534587115 -0.007649671055216555 0.0023405997888645827 0.0022441552263459744 0.007971996924640248 -0.004448129537831698 -0.00020986152367120505 -0.011855674914544312 0.005499059772318584 -0.0009893358348988808 0.00029767319075445854 -0.008350097316065253 -0.0016115511467964044 -4.311750361987859e-05 -0.0027833037347211147 0.0027438713194370985 -0.0034016813477174114 -0.011728075621345582 0.008795105304299578 -0.005530153828079545 -0.006174766342831442 -0.005570707098650799 -0.0017992851347163666 0.00037837346129524993 0.004838451412139995 -0.007782077306137427 -0.0011733536663670915 -0.00352757566912444 0.009297988907231432 -0.008619734203955032 -0.006303119512267915 -0.00023310450635851096 0.006489633955459014 0.010158410354825505 0.009536360090534537 0.0018529841018012153 -0.010536701285974451 -0.0060327391160431435 0.0023300068883789415 -0.004534301023545933 -0.0017646185248113577 -0.0011558298121471463 0.00031554638766834875 0.00533820456778245 8.055730233675162e-05 -0.009113671375310141 -0.004886697420697117 0.002950623511082859 0.00033818594794600366 -0.006147547579128448 0.007573266382844335 -0.009315204714409678 -0.0019745916662375577 0.005719716200968375 0.0023525269681744366 -0.000601274546930919 0.001798346920968323 0.0057036361707434756 -0.0029414271931121226 -0.0016959834368264614 0.005883367547468773 -0.005592564790322392 0.014589243932962822 0.000755034738484285 0.0027052825971778933 -0.005911811974798748 -4.713964548519395e-05 0.004255446073480128 -0.0060616808858054115 -0.009640346213141717 -0.0070890296435464645 -0.00033478810840480047 -0.006241150027160135 0.010557664926765785 -0.0032836851234914906 -0.004168394130850233 0.005924702615777256 -0.00404492667750128 0.011846548662703934 -0.008588415551457005 -0.005024851713564707 0.001307777774062551 -0.0027042094210949206 0.0006572923666098493 0.0012361188124911909 -0.0011345644317937308 0.0004967445738993934 -0.004583464588338375 0.005339699673429851 -0.0054931680033701675 -0.006221596994668295 -0.010473555553402809 0.005107378161271567 0.007373699534822761 0.00409300380013388 0.0010691915746147 0.00437141076805583 -0.004228064627531761 -0.01352451657497833 -0.002966687013390426 0.007737883707075431 -0.01503460427654224 0.007534385436561265 -0.011956417344166732 0.00906098016627522 -0.009735283913788525 -0.001091616895401368 -0.003959458796159637 -0.01548767303826855 0.0049419764267223205 0.007900835988326978 0.0023047184277017155 -0.0014571942226770764 0.012618104398701901 -0.004894082465926592 -0.008894566616774489 -0.012648958156973974 0.0028190332607861187 0.02021434855910799 0.004207935318460917 -0.007708170979534617 -0.004745610313074717 0.008550057627908662 -0.01609503928739695 -0.0009177467151236915 0.008715598418565495 -0.011708789972893723 0.0017260318014741616 -0.014567675218111129 0.0072344955136070125 -0.004987878520295286 -0.0018827454660235296 0.005473715416287909 -0.0003728050608691227 0.00870089109167292 0.008788344049165384 -0.005558532800567602 -0.008056632422154535 -0.003994455093590939 0.006703378100383288 0.006899293666874385 0.00033674448740431725 0.0012269848145027712 -0.010037786481984464 0.013148821619153065 0.0008591071393669544 -0.0004528186455682314 -0.005110104883602256 -0.009987901569245616 -0.002019463488843848 0.006356484717170799 0.0034140067630696698 0.0073199416841268315 0.015409893655410295 -0.0024348985810967896 0.005672627009033454 -0.01695885884008608 0.007359327216252427 -0.00018828299816284118 -0.0034824357003292407 -0.0035232484773522837 -0.006997611624541181 -0.001948425082619177 0.006031489737514388 0.004503507875483039 -0.00010088376099215051 -0.0009681383361925284 -0.004327519054010047 -0.01181952358430445 -0.0011212519113767154 -0.00034452290142107157 -0.006538311255732947 0.0001314288360573262 0.004788641591357055 -0.007367453766103834 -0.005016782585213571 -0.009693482538407933 -0.0019450393270892318 -0.013997595390535954 -0.0013995568563711846 -0.00027949095545581556 0.006671317879490586 0.006553986520779416 0.009168634842449685 -0.0011607568611542458 -0.004423392820201519 -0.01392743269675641 0.01172327325931987 -0.00047313528483116773 -0.0018541837612276236 -0.002391174353096858 0.01068984026448492 -0.007023020121747036 -0.0008205651122902694 -0.011759259781859759 -0.0005802643753770586 -0.010385835236468957 0.014418277915522113 -0.005370491987588405 -0.0031995290151115244 0.007488326130872491 -0.01088998381464814 -0.005606883287676746 0.015246275365034537 -0.01134710524552069 -0.0033209925974811904 -0.009202242295760488 0.0020622874298754246 0.0019759337282683463 0.0070789582057325835 0.0031038432303863565 -0.005313023981800521 -0.0021175792863830254 -0.0071673021673478105 0.005105510521973557 0.0073340200362613005 0.004449863363266167 -0.0035665772803997464 -0.01658989428511095 0.012815158269804009 -0.006093281009701183 0.005544671967884329 0.0021108442456189143 -0.002084775636923358 0.008008341551799905 -0.006297007259150006 0.009282638876881194 0.007680807680762115 0.011791753682391652 -0.0008270726826714045 0.0025129758593586005 0.002797292202241094 0.0029255523590173346 0.014209305493441033 -0.01489030551434921 -0.0069865373726851416 -0.000999203832780723 -0.007033141845740655 -0.003270590317274481 0.0029447561794073668 0.009704096557391373 -0.018492472381281416 0.00784827877105573 -0.0017159501208738458 -0.003071233244132114 0.0066652508780838055 0.007497260514866366 -0.002905858313366469 -0.008022411483045475 -0.0030474065789147576 0.005327397503625043 -0.00019023615563673634 -0.0012845201718968153 -0.003265571553892473 0.0037904937584264755 -0.0024107808876344633 -0.004834547168724691 -0.006050527678673002 0.004194781042837671 0.0013439981288028509 0.00038325517841128096 0.002899683526897682 -0.008644344227085432 0.00374478635454397 -0.010565621846673421 0.013448115192964162 0.005820016752743632 0.001352205151166244 -0.001942540623878624 -0.00833640443432806 -0.00961054999491564 -0.0045926563946397155 -0.009956388908298761 0.006010158536254908 0.005369321077304467 0.006458274800957835 0.00268546711407809 0.012661407733036345 -0.007379957836106256 -0.004572711880659996 0.003955417275198137 -0.008241707326497058 0.008228768014138865 -0.0015112835712917248 0.011253930797223448 0.004891568673715579 0.007394060814336889 -0.0027103971606016425 -0.0037999385991270285 0.0010116927510281308 0.0027276304888329086 0.0010927266171142525 0.011221258074827866 0.004412547526253147 -0.010677315056804 -0.002147734412531885 0.00982888819598652 -0.009342186070070336 -0.004187894058999144 0.0016477529577780588 -0.00181374644930449 0.01613605659059684 -0.004755995187531548 0.006237152096260513 0.0010695233983649076 0.0010440862902806635 0.002378749391572229 -0.01004743883747886 0.014860817131378927 -0.00735543788400298 -0.002976468026683617 -0.0014919086245539946 -0.0054972797896550235 -0.014679544230759803 -0.009311353154699607 0.009536552732132879 -0.008291303777971793 0.009994712955014584 0.010289043097309679 -0.0038223324791483767 -0.0042270956707251475 -0.004782746150565778 -0.009206808114393634 -0.0050433376686332835 0.0032807741494937682 -0.0016464877655105444 0.005528189691302238 0.008246196823906897 0.013117821975715375 0.005671075860738381 0.008564278190175493 0.002825680482951846 0.009464380482176751 -0.0005463095830339691 -0.00021060298265139645 0.008110734703444072 -0.008042424923503483 0.00863524371880745 -0.0012410996049389937 0.001664492325990184 -0.00673640269950018 -0.00543650250770827 0.003095525978900273 -0.005595473626543882 0.009696694144556794 0.00047737165795249005 -0.0009667885233401807 0.007601755306091091 -0.006960894732232655 -0.0009989168356221844 -0.0006982589504448124 0.01049092319500713 7.871297324393756e-05 0.004479091648681491 0.0003153993775548829 -0.006716918573466338 0.004186451562098114 -0.0025721109300512776 -0.0036016548124955436 -0.002115276933367984 0.006298863231870015 -0.0054604973140471545 -0.00806281665469196 0.0016875342616818928 -0.004806809323059182 0.002428313672289927 0.008336400759791595 0.006237099189971971 -0.019287795657829232 0.003763763220629174 0.007720676099564977 0.005554239974177704 -0.002989857282673611 0.004594062982413281 -0.006817958990342433 0.010597287540890166 -6.916851703686708e-05 -0.006854405710418813 -0.012987666510280929 0.00474024076299659 0.005671166961791197 0.009836750734118941 0.01058845413635293 -0.013118750016168558 0.008294616272174163 -0.005577475059261259 -0.003642349660839566 0.012355862111733873 0.0002290331795321176 0.010112378873953325 0.007263862670988363 0.007263718081714113 0.009126016772950742 0.011876917265498456 -0.014912996689046719 -0.002829432851906751 0.0014671202570210543 0.010302895335758044 -0.0030895050607838252 -0.014090483958661143 -0.0034599012940475598 -0.013833016343655436 -0.002043986580645925 -0.003652482037062582 -0.011201739755074179 0.0009016576324570349 -0.013474001928265504 0.0014420007838436845 -0.0007671851710032264 0.0007401566022793712 0.007526806942031837 -0.0001846570076328494 0.007884504142816013 0.0013512053788537156 0.009421492739179154 0.005752725181350916 0.0056709901930168255 -0.0073287394699610596 -0.010785554528772164 0.002721592309944324 -0.002445136594915848 0.004359290771884972 -0.010595773662931098 0.0032909976962125246 -0.005184165899468309 -0.008279127202258001 -0.011970983203500799 -0.011406719913855633 0.00572897076622125 0.0055481885550833715 -0.0019085318146877506 -0.003964469516368462 0.0031014805417751584 -0.004444805790894871 -0.0024265597675254495 -0.005253782995281356 -0.008910553902710802 -0.010212906485451891 -0.008504856013365123 0.001143420679617085 -0.0027376641788104377 -0.003208824303301436 -0.0038459812648168686 0.002022762223805227 -0.007683529241081943 0.0004933569193280248 0.0011819260692642994 -0.003291906704343317 -0.0033809329983968722 0.02013536575682129 -0.004970028045618536 -0.010907300454160503 -0.015496792722217977 0.008182875573400564 -0.009692002771402091 -0.0027852953599411 -0.006783692885043395 0.0036799618751830647 -0.002467603943677836 0.0085102532479443 0.003953184174391784 0.0016478137505349225 0.0041513015193025155 -0.004007044756616051 0.005908983042523305 -0.0008226771898351881 -0.0051718518251531774 0.0015964984321446304 -0.004571075330901329 -0.007243328391731498 -0.004272815289005891 -0.01014363663512315 0.005472568149184626 0.006104038425491545 0.021373243891636497 -0.010010302674053818 -0.005979400489488784 0.0026606727786236887 -0.0071039488437379325 -0.00830051192798283 0.0019485820586642247 0.005708992967661802 0.007045309498700296 0.005648840241896366 0.0074206028692617694 -0.001043960228197227 0.0023263649148314944 0.001388797877352078 0.0005544045754032039 -0.0019998407078332973 -0.002671414483412665 0.0042567489288308676 -0.0010891442954660778 0.0030117181491717123 -0.006868051194447038 -0.01240224379743574 0.011089888034762576 -0.00499478178518196 0.010565389300932752 -0.001892266067315637 -0.00887440007837911 0.008744373260001284 0.0021415233644054674 0.004717445192706784 0.004774329864003749 0.004427491259531475 0.0013605669581791594 -0.00594992300787711 0.002388779300657639 0.0066422088634967 0.007315649979149982 -0.0039009357473539126 -0.0013914244681697157 -0.009318138587736148 0.0028503539010285503 -0.0013393496091405285 -0.0034863500938535456 -0.013175884777398505 0.010273716077329926 -0.0006165357072862475 -0.010537648946219598 -3.850853095073675e-05 -0.0023403826105246905 0.0030990911138203104 0.0004482640090662291 -0.006154009320440988 0.003862440749885232 -0.004916258845428504 0.005671628472336114 0.003980706494756896 -0.00027109516406389827 0.0038437695717326126 0.007135969585706844 0.013807065806834709 0.0025635648779908774 -0.008424330866699503 0.011704182086513536 -0.007712055688586127 0.0011668826368552406 -0.0055559809169716205 0.0032859378101118084 0.0003795701894560822 0.007496937843873035 0.0001692606982969583 0.00434499653602502 -0.0048127178788949015 0.00402212079040283 -0.013650504484334117 -0.017650967042043577 0.007925227683603115 0.00980515276678544 -0.0059568645899052124 -0.004664089235164973 0.009437613431057892 -0.0007712307204748668 -0.008074545658121091 0.004912242529103101 0.0028772107250541685 -0.014380223409342318 -0.002409044582362481 0.00020779624115211228 -0.0022426404425661337 0.0016031882392661284 0.0021743797668687674 -0.010253950521807035 -0.00670075531918693 0.011414963754971199 0.0039037295243913167 0.012565387922239638 0.002754161235677931 0.003086892360556874 -0.0029723852181313425 -0.00029623808280263404 0.014504472218912288 -0.009593656920428094 0.005441490539998615 0.0031791376891669525 0.0059789777782144424 0.015936274288846995 -0.0195331397057621 0.003681478795358939 0.012437184013851337 0.00019697821547187658 0.010888819628748004 -0.005697011187055309 -0.010086391989481077 0.006163530327531654 -0.004424600267979133 -0.002256046486641189 -0.004306672321745755 -0.00553203264841047 -0.006251324051060304 0.0055322421555841685 -0.006581423878117708 -0.016750429834407533 0.0057239807407017725 0.01592155942687728 -0.005173500600243009 0.007440288284589863 0.00042370759106148415 6.664683840993627e-06 0.004882049707996001 -0.008980308942257776 0.01163799699646355 -0.0072315147185977756 -0.0009002439502906355 0.0027673765954548796 -0.012264139179070287 0.01731151938451551 0.005273986678186265 -0.006919363410999378 -0.0037049373312885952 -0.012390531718743141 0.0013196723110470239 0.009666278633260882 0.00402902475047156 -0.005066346043300578 0.011381140526621626 -0.004680827436773414 2.6246726791642175e-05 -0.0012165293288615357 0.0034354921707179862 -0.0016175992605062962 0.011771349776748243 -0.00852976709823974 -0.0019810545912456734 0.004541562723606988 -0.004624274146291939 0.003436495632525376 -0.00695517799496792 0.002653908265535916 0.004499995493458003 0.00577674822167284 -0.001647074767044422 -0.006530841155219434 -0.0033661760124674887 -0.0023626191033393465 -0.015344991779301497 0.0044681265174581625 0.013010354599781686 0.0030486363532323192 -0.014130125165471736 0.004710963601721249 0.005646984008106971 0.0007923603852439461 0.0014001826597769453 -0.001766936334227045 -0.008477717619451331 -0.008739858593296197 -0.012875653620475025 -0.005765085427050522 0.004607515815103779 0.009540285990198316 0.006141519400404883 0.006883348210632816 -0.006969257406427987 0.0043821284772950836 0.0032084901458203064 0.0008353666370540657 -0.005356216714011325 -0.005084615066465185 0.005065410462915466 -0.006589192401704194 0.0022970309693604246 -0.0028923204059692464 -0.0065155075328878365 -0.002997989998640576 -0.006994272464170506 0.009542647679309898 -0.002984381760797796 -0.00017554972157257694 -0.013384622190228866 -0.002406834704952172 0.02188875146142071 -0.0013814563133547238 0.003224756234066938 -0.005172420485784256 -0.012755827897023432 -0.0058752350117731245 0.0034293186968274852 -0.00044120245907539225 0.007489776823515372 -0.007304630082427601 0.00484159465436004 -0.005185762934869799 -0.007508540968037388 0.002750524309278038 0.009190327820958358 -0.018036758850673955 0.02730080231115424 0.0033278111219052484 -0.0014266650428201703 -0.0048105577541101814 0.004032801533460492 0.009640463879234904 0.0035314600774990277 0.004138829577517422 -0.003253863642113601 0.0018750628209138144 -0.0008308170503994466 -0.010153898226706459 -0.006577426267695369 -0.007571788821454821 0.007248872335799515 0.005267580694678861 0.006963984756634389 0.00554139409083909 0.0036019398225927294 0.0009563915675572096 0.005252757296571211 0.005153348707663019 -0.0032474696273384267 0.005481227952182479 0.0035170862830794626 -0.012555163200985778 -0.0022735392043571412 -0.013249382411136146 0.0008626590518574783 -0.0069638145563908176 -0.0014728310668078249 -0.007514786956259547 0.00924598825739454 0.0034025029802734375 -0.0006838466086919419 0.0002624669121509838 -0.013134453382246357 0.0017204463841164982 -0.002677668290895108 0.006677924862510166 0.0013238850312037348 0.01063237185599797 -0.008301178534643223 0.011485746862925642 -0.011262560587895447 0.005176093309044181 -0.0071879366732452085 0.006867095208551672 0.007807562125478884 -0.0030129794240593114 0.00599004512416091 0.008239347587459972 -0.006568290300983774 0.0042764991978687565 -0.001938301733882744 -0.02750022531796047 0.001805714601435772 0.015619785362865263 -0.006658542655549822 -0.009516318111488566 -0.0029085429717874583 0.001153394275645234 -0.0014648553511322575 -0.00987231995686359 -0.0011855996368503327 0.003642675951323101 -0.0003330408979793786 -0.005094169033391565 0.0054672747139477415 -0.009238558890854164 0.014353718266189126 0.004146514736548437 -0.005952983438790994 -0.004062783288657448 0.012220331001369773 -0.018354783225770097 -0.007701719820453306 0.009053595212294187 -0.008095058075813094 0.009264949760488259 -0.00036280500950392814 0.0032072743034891166 -0.004983594823125538 0.0030511905868038365 0.004051305912111339 -0.003602623711640894 0.007776003608913903 0.002934245342616636 -0.010549873946569097 0.01744078562483561 -0.004244285627066441 -0.009531844558599303 -0.004003854721676378 -0.008524884669101196 0.003828829046461076 0.005845766639528814 0.00622185530172737 0.0014353004089884573 -0.005781212207919154 -0.003711479142728667 0.0016915068667729396 0.0037531553133803345 -0.003890339988378171 -0.008791426444861012 -0.000528087573273935 -0.0015976684600972223 -0.004677066505583632 -0.00826687785074106 -0.005849346723944969 0.0065235274071859025 0.00526423287445442 -0.005808933344819212 -0.006888052305888121 -0.003771269119014627 0.014883659970124247 0.003580213414681106 -0.010039643009822859 -0.003057084220920587 0.003300213575219847 -0.00291605839597882 0.0007271451585936456 0.0042183227396209964 0.005445773419318164 0.009785489860190231 0.0024563907265681756 0.0054638903284489875 0.004488744154702538 0.0005881005164641063 0.0075003179641208225 -0.0049430131008321495 -0.005798773779147061 0.006186361177951128 0.005683632121949766 -0.0005374376348366868 0.008217079432884897 -0.006752006379789239 0.0019095106090414933 -0.0037645633312586367 0.0048251278324758316 -0.008132604753508224 0.0024304012604677255 0.010419426109571087 -0.004939624391435539 0.01038497399199919 -0.0060680022902597 -0.005472991421378595 -0.006957861005640867 -0.005923630802258694 -0.000298194703440096 0.021365204543797395 -0.009192509821645177 -0.0006174401634549609 -0.020509609076384477 0.002319597351816392 -0.008100104353954989 0.0031977405656347328 -0.0033201411545515746 -0.008069501020085695 0.0029596116480370906 -0.01050401023410417 0.014905769697367068 -0.004826194655862605 0.008339443242453623 0.009860973956321215 -0.0056146301114815755 -0.006645290333369704 0.007131199885783731 0.0028782421800884568 0.008197087501185764 -0.00888747934520114 -0.007180891891244202 0.011050211254651438 0.008354310311057904 0.0003693185911463027 -0.014397169235360215 -0.0037852282139582923 -0.009246107160366999 0.007611478020063007 0.01112511845063089 -0.031254829796106345 -0.008001931527055311 0.01221499975899484 0.03205439226843037 0.0040594433944369625 0.0029085052897716724 0.007346923551937266 0.006599407515793781 -0.007622049379204161 0.0009516531947859732 -0.0035365518173535067 -0.014067290308462058 0.0007747841407641022 0.007484356479418469 0.010621872528089797 -0.007352381172700408 -0.0032804777101126184 0.004063605099838819 0.0035444841658118873 0.0019079962119784564 0.008021605913349147 0.007151406779228437 -0.002987519471614211 -0.0058224207108636536 -0.004211485970162829 -0.007076206261792948 -0.00023951577806173417 -0.002468419282053423 -0.0026222737165565967 0.001422263236886569 0.005480306353050683 0.0036800241649066296 -0.00020020445169584056 -0.006662555185892093 0.001997639191504354 0.0027588073651979837 0.004203108453077946 -0.007323692739785977 0.0011681278745968968 -0.0051128483776067615 -0.008371269764730967 -0.004573100811975501 -0.005473999730619684 -0.007342879628448249 0.003493010052212526 0.013574901686969211 -0.01828665792416434 -0.0016285961446313797 -0.007463610906137363 0.005109768021336243 0.00035527274660611483 -0.001435023087542809 -0.0014762162887247579 0.007163079777096961 -0.0028913445527312953 0.006050997503720408 -0.014862577185384598 0.0006631820149133741 0.009846713017517836 0.0001292369469814506 -0.013653472177842572 0.014879910963510686 -0.0002489823171038373 -0.0023628522918469454 0.005742451129191437 0.0033050269604851077 0.004873742798836288 0.007899565099504261 -0.00998113536130022 0.008120410947465883 -0.008335839261504472 0.0030208395879822263 -0.0013642543043654496 0.00289063618405915 0.011076094306978927 0.0068065981375691215 0.0010355128281536103 0.005114946304223324 -0.01374712487092529 0.00413730060877271 -0.006861658360679156 0.008855479428264224 0.005592660492280651 -0.0035402173624552637 -0.005503401869612904 0.007608054236251577 0.0021541711232741733 0.0012912890226965724 -0.003008532226326423 -0.007242462782070839 0.0006369772199336298 0.0003382353498014312 0.00560204308457469 -0.007904883635272048 0.008354307965068758 0.00034981262465766426 -0.004717702442543763 0.0042456338501663925 0.0028550436866526256 0.0005270427232245623 0.002613078270161206 0.0072052921845447 -0.005365436518636161 -0.005045687841158524 0.002549609204235394 -0.0018774437158831849 -0.009220100958857625 0.0017142741994910285 -0.0005377843982807689 0.0010196458717983718 -0.007760648177136574 -0.014654277517714573 0.0067530893776967145 0.0040471172719012995 -0.009255454817704909 0.006213358767707466 0.005322614514493558 -0.0003905840673953058 0.004649874940134155 -0.0020847527134358356 -0.008596911425233592 0.005630465283476968 0.0015535691725737377 0.011518656457127336 0.0021753616588337135 -0.006754211756851306 0.00783910292261652 0.004954112098628278 0.0010487944562804965 -0.0010460127537244139 0.00561240827411865 -0.0005182786973629514 -0.005064837927016928 -0.008346309746768444 0.008736396240100341 -0.005036840901371744 0.005170248330945615 0.0008277213657326565 0.0023367442673403876 0.0029585863012786084 -0.0044298943600590114 -0.0059325822534045435 0.005829038053742513 -0.0054978724371005615 0.003813152007799287 -0.013051548039161934 -0.0017496724614035203 -8.518957045841198e-05 0.004051490397421266 0.006892864723914682 -0.012194375706823591 0.013436898393536173 0.001872137349291307 -0.009485153312879977 -0.008987648780249217 -0.010139996465847893 0.005296445165002846 0.0011026922926211788 0.0038393326797259175 -0.005876660679061073 -0.000244964934682849 -0.0006816066159940245 0.004740027298102235 -0.005249144429366396 -0.016053575096628695 -0.00038607350001632307 -0.008497784197628139 0.006355072957498842 -0.008397129257212308 -0.007697615257761237 -0.010404869024524237 0.004980786644854226 0.0004736191495508511 -0.0010765791349627016 0.010573353268527813 -0.007528466405520931 -0.0031359121657098454 0.010673768686801595 -0.007494135673676015 -0.0034287189179750617 -0.008627625406691994 0.0033515962230837356 0.0017929006865600688 -0.004298568379376495 -0.006026532028885421 0.0005986827191983984 -0.0016193264570740161 -0.009355866129387649 0.0009182719224815023 0.007473567601557921 0.017032937642736393 -0.0004857022267563088 0.0007288772591663141 0.008252470722318769 -0.009231025535702757 0.009515628750433464 -0.003263126104902012 -0.005899512527335491 -0.009267590449071977 0.010541337481627559 -0.008412195844273097 -0.0010308342480134902 0.007009405631544098 -0.0013322843251733448 -0.0007422091506345862 0.01366758716404771 -0.00633159828978574 0.004441073447885438 0.0109950161901373 -0.0031235692249946614 0.005027600487419675 -0.012593297467446569 0.004436725739956304 -0.001644625158492853 -0.001014289643298539 0.013947977567812209 -0.009203151863589373 0.005019815158876338 -0.0058939691365614295 0.0075919372122992025 0.001215376445024594 0.009124656147323967 -0.008058712159541492 0.006939731082706931 0.006740893506565006 0.010117315869144572 -0.012940040064216157 -0.006081007986572082 0.011184351685738947 -0.004488387064793034 -0.010114958051472537 0.007206525704899331 0.0027387638106533383 0.002623721271529675 -0.005003845048437187 -0.009566511295962513 0.0046944617019622735 0.005103419715352475 0.0007653716638144068 0.005357061714040654 0.006682938871476118 -0.022616520448848328 -0.0008082456877769107 0.01166546934476034 0.0006318588061031774 -0.000523609535896008 -0.0024214932771520186 -0.0030142622087076932 -0.006635707090785453 -0.0077716273363503015 0.00017345092028019766 -0.007197212194775287 -7.181775180822788e-05 -0.0033468250437585926 -0.0003991609886127173 -0.012016394476970749 -0.0031592882317777182 0.0038038335669884574 -0.00843161741258424 -0.0007542407271610421 0.0029841649922059425 -0.012605514968849433 0.010423399447838906 -0.0025547023591191544 0.007052328869865303 0.009839294431297597 -0.007274649222325331 -0.0023963582779827908 0.000339924622243306 0.00890374084799284 0.00013264851448140184 -0.0029320478851401982 -0.006440387150934361 -0.0018735750462421526 -0.005067786917528085 0.00434939816996956 -0.020369962106072295 0.005126397914122323 0.006037297785089976 -0.007187113709660625 0.005252261126864648 -0.008241938077840493 0.0028629167073174395 0.007255496132289558 -0.0025641803136911574 -0.011088142430074999 0.014525999609711165 0.006148591155332856 0.005750448748930152 -0.009413842037592848 -0.0046739961056785784 -0.009310293079813873 -0.0017986717148153512 0.004686491007438505 -1.631611428491886e-05 -0.022572064490649597 0.010435991359781686 0.006288258401085918 0.004400430267568761 -0.003989752096943121 0.001981100230369218 0.007337918566772612 -0.0036971512197873564 0.00017372067727802667 0.008029244873187165 -0.0005796773588724972 0.008271622354680175 -0.010615825175881603 0.00858338097983956 0.002581460526048016 0.003347328486478697 -3.7416756444902724e-05 -0.0035308165289665108 0.0015992328842413513 -0.002875670386736313 0.0072662839579528 -0.006640306114218721 -0.0024035485345904367 -5.343383743254776e-06 0.007331067958362116 -0.01212713693291343 0.0011911099553357117 -0.004896977510586337 0.0038855336227755412 -0.012560220403835129 -0.004513635313874899 0.0026251333587124616 0.0007415804535501215 0.0009348555995603059 -0.00023383024925905974 0.0003700390588464811 0.005828848632040451 0.00565852239883228 -0.008789999383027129 0.005128934267112244 -0.001995648365535259 -0.001329506862870788 -0.008898903286663982 -0.01698614485298318 -0.00851067816338025 -0.0045722848202469765 -0.006016952751294791 0.003373818445830782 0.008794657775655502 0.00760508274052434 -0.017600874703742376 0.010030077364654224 -0.012012676447263258 0.018440588874897877 -0.013500184282830542 -0.01352028010311193 -0.004114573663363532 -0.001758704498690746 -0.012485390884407435 0.01068974792865558 -0.0035629671599355164 0.016728584080613465 -0.0022773894615401753 -0.005471050043626393 0.005978053696582189 -0.013761100832406305 0.0051557221828601365 0.009959733860039758 -0.008525682185994917 0.0013124008024791992 -0.001640723862054071 0.0008902360855922114 0.00465230932074437 0.0016576509929644902 -1.0090419311541665e-05 0.014738489138349934 0.017317160688525658 -0.005558307460056646 -0.02440925974684252 -0.005723981197667493 0.004502015423411087 0.0009943278687130435 -0.0004272065355521492 -0.005590743090142476 -0.008869964242683822 0.01292105951081218 0.022062597293510473 -0.0069953851577025964 -0.028843997962793497 0.008413942890926762 -0.03138912150158297 0.016178715680551983 -0.005818010823315991 0.02355725783410761 -0.0034043835323118825 0.0012865351831900626 -0.004468862989823244 0.010168057928890977 0.0019089720041587177 0.016684392412217645 0.007510331374689214 -0.0015780179038724586 0.006067761227512072 0.0044802592036781936 -0.00375729269773001 -0.007630346927103709 0.011816016373878458 0.004169295598092261 -0.0014898015146438555 -0.0015057451275846717 -0.012242020997467481 0.011508450144392923 0.0013096063728277594 0.004395740246751075 -0.003201850818713288 0.006707730583506595 0.0038688194993179072 -0.000982711846631027 0.011681611809534696 -0.0006879550638785604 0.010613747554099471 -0.0059584167862427465 0.007299664976992126 -0.0005271145193362748 0.003920156158878217 0.012903943311489531 0.004965631180070671 -0.010272295712100313 0.002617220288732338 -0.002788154538326303 0.005335305770163635 0.0017539098398504484 0.005785141527599149 -0.0067348507035102255 -0.004131665386840367 -0.0010555386497240822 -0.0014664175906810987 -0.008981439340532908 -0.005860136404898971 -0.008090930368797636 -0.010628693027473192 0.009798429116469852 0.006231233710637488 0.00013672203674793942 0.0025557742109896717 0.003725777880402006 0.007241572899008177 0.006116558154866348 -0.007017389544245755 0.003958984914666674 0.005707668935221212 -0.0034782079115275393 0.0014739548543562639 0.004373196342599081 -0.007124299727356777 0.00626702294869481 -0.0075521255928914875 0.009375869816496013 0.0023092558676802125 0.004491137376080478 -0.0106533761059011 -0.005570892233360452 0.002088569936532307 0.0032588904788337187 -0.005821160453527341 -0.0046696516075326044 -0.0010114414959053967 -0.00458247312596521 0.009822522652593384 -0.005670956777559374 -0.008971497476662597 -0.0033187192708405704 0.0008199770501209263 0.0023854671047262117 0.0011086175588759539 0.009903503580703845 -0.009065101940169943 0.003008630775263227 -0.014092250592369321 0.005581817889249891 0.005183077861866559 -0.014609269711344745 -0.006598800985530658 -0.006161728753705306 -0.005424861163848057 0.005990433542278216 -0.00801012465744337 -0.005494194796126298 0.0075887447412174725 0.004445900313908595 -0.0031703304822907783 0.007142121492904266 -0.0018231043065426416 -0.0070931404577559585 0.004223350131524358 -0.0039548231798613945 0.009334193736809434 -0.0018603473147115886 -0.0009789382893171635 -0.001855148138259142 0.004672960464556273 0.0023191129821504165 -0.008282293231315158 -0.003782758173997301 -0.0016649106986072778 -0.007350451369412213 0.0016421774509790123 -0.0023622994220257433 -0.012234036092564982 0.00029202121702634503 -0.004301586412419978 0.009973214741475637 0.009238053889032547 -0.016954297448555835 0.0021963324616143132 0.0004841316341891345 -0.010239508730676658 -0.002659013751353114 -0.00046400495895824903 0.0014872861252796092 -0.006707874350386589 -0.00014506638070506476 -0.0045799490509585315 -0.00864597760093895 -0.005116429470722346 0.007164140506079931 -0.000916439744512241 0.0026284966618116586 0.0015229138544761384 -0.008961661676976825 0.01253004565189667 -0.01638422711872556 -0.0024694274518673744 -0.003632481788193806 0.0026549110630635824 0.009074695320609264 0.005187728088406873 -0.003647509229760525 -0.0032628823963405003 -0.0012311534293502739 0.00495677196772667 -0.006366969319750505 -0.008615907925759784 0.0005369022435353302 0.011017590696485797 0.005907464080129031 0.001349291430459809 -0.0020983899657123196 -0.0022994088308112876 0.00796488467470375 0.000961067611510333 0.008474034091107488 0.012132318076877738 -0.01061786149810754 0.01398444731271501 0.0028929531537456718 -0.000310976686851097 0.0013241762183086128 0.0022230082988160312 -0.011477928180638345 -0.004452082986483927 -0.0032958524422424507 -0.0008767059277577866 -0.000533112456711076 -0.0004486716455156977 0.005390731091560861 -0.0010833530256779895 -0.005108954110793771 -0.004742997762450678 -0.008517240031694694 -0.0005925142275958082 -0.010271126669874453 0.007219088939270666 0.00043859372890910596 -0.00601585528043666 -0.008714450628222981 0.0052533704604196055 -0.005360959683814306 0.0047001354140005025 -0.00683428088241901 -0.008020416322703882 0.0015058556234704814 0.0033269731609729867 -0.004406784334567739 0.005990224199828224 0.013349187893791258 0.004895260782342785 -0.0068624136204025014 -0.01824655189277125 -0.0011493711856046128 5.108969659343499e-05 0.004920799314574133 -0.008163976147043919 0.0027641572089845997 -0.011114510425523116 0.0021698033792125135 -0.007848658294280837 0.008758097704972543 0.0025110723072031085 -0.00036478851884482285 -0.012476026228979321 0.007623929528316709 -0.0017853501351022282 0.002389403446349738 0.009578324119179719 -0.001603992140757193 -0.00648718526692844 0.007655373054091681 0.0011020974146986728 0.004313100799432889 -0.00229645497034964 0.010675528471555912 -0.004068840331992854 0.006168179120773654 -0.011986483775068406 -0.0030821826147456703 0.00621679926806653 -0.009606288998908181 -0.004510550898096242 0.004589470595975135 0.008031785141564567 -0.0075171346542425715 -0.011487492729120603 0.010395063166570113 -0.014432926150965615 -0.009194725766737454 -0.008594263492756186 0.009547449160106589 -0.010431211419486806 -0.004760235151066712 -0.006697221229224782 -0.0025002352248258974 -0.0083766366838352 -0.0025490530454659304 0.0014245600332429738 0.0032008663347508513 -0.002878829062817682 -0.007800426102432242 -0.011757065508483329 0.002937007583384896 -0.0029140024447892546 0.002785494950133425 -0.0006969201372642952 -0.0022489930581691803 -0.0065758909543547845 0.0028847853453416324 0.010987139095426963 -0.007611062069128963 0.006669569793723883 1.2436945160626957e-05 0.0006900678461991816 -0.01837794200131797 -0.008144457882717174 0.0015680490350665815 -0.0005655234593323561 -0.001739199474982314 0.009435939389205327 0.008186791385475336 0.008953976557188513 0.010150764030080412 0.004974598909352332 0.006730977694416254 -0.00806494797404279 0.0014464440355999387 -0.008282392068877122 -0.002767878555076718 -0.008133078690401986 -0.0031037822831580506 -0.0028379322178758016 -6.159813735861236e-05 -0.00849482215015527 -0.009949537847371587 -0.006499053234430504 -0.006607818494378974 -0.0006111309217204231 -0.007173539527445276 -0.002678083812033923 0.0023122253950650794 0.008116474394115012 -0.0013908924739196116 -0.0018258748531850707 0.009792939048978745 