0.004400160527302497 -0.002466556527558972 0.00944558231646612 -0.005481559586239637 -0.00724075113387582 -0.0005136439217024516 0.004371195782096542 -0.007839632478456718 0.0058249258392021035 -0.0062180005586007095 -0.0007961351724076506 0.0002475556903472013 0.0028229888373024533 -0.0017112029070733593 -0.000621660771699277 0.002798167404102209 -0.008344527379586218 0.009407630103971621 -0.0034721603781882205 -0.004482008258563655 0.0006863484062497524 0.0022123086632737307 -0.004004150461962075 -0.0015308680677683095 0.0022877902355033976 -0.008925135620568332 0.004905561685716911 0.007031534048242671 0.0029270468839502455 -0.008518232361915408 0.006540731500819992 0.007511731870579663 -0.002152677790805562 -0.008457790327961187 0.00951982098261544 0.003239043524543168 0.006363629112063887 0.009631243313577653 0.0009147668948063601 -0.0006729760389863511 0.009827079412563557 0.007915471265381948 0.0086176507564892 0.0032986111916635513 -0.005440972465616914 -0.004516789055149453 0.001332468131591857 0.0023750815133633633 -0.007614219746721836 0.0027453352893267603 0.0007217818630348514 0.0038197587576758747 -0.004362775636259071 0.005982363592745404 -0.00558563757223209 0.006564220704658832 0.003584716051702186 0.0036800152714512088 0.00142519779793762 -0.007552967250980507 -0.000634843349035465 -0.005479724295845623 0.0077413951643114185 -0.003312002374593128 0.009621396862533061 -0.004808486831282955 0.007353489381321342 0.005947845603496494 0.0018701007593323986 0.008633456324996002 0.005116920282006398 0.006438888246216945 -0.006876562733412397 0.0023051690315463898 0.009870531965201228 0.00023699502874051023 0.006870491184194185 0.004680228397536653 -0.001032121141178616 0.0015777321308860885 -8.501327521674013e-05 0.007492040102215472 0.005562013286080636 0.009400825062046791 0.004975635887098312 0.0034183694780823455 0.0091773954116858 0.0076218800329925 0.005213546647147838 0.002105982546949549 0.009276461931036139 -0.00913054015183147 0.0024675769199338123 -0.005606144832606204 0.0032412683512271206 0.00889609113191076 -0.0074776355188336235 -0.006060147395035247 -0.00916552810185314 0.00044225352275012626 -0.002292234774202562 -0.005603976792455025 0.006982356041888573 0.004545442551341327 -0.004286918311425905 -0.0015754863459014803 0.00796654394178283 -0.00848319016194841 -0.0005915338433666872 0.003310904623264617 0.003220994546737431 0.0038024725434034363 -0.0049169277520825965 0.0024713042439033113 0.0065025373006391985 0.009365542916669961 0.0022753721258323475 -0.0063084732586018545 0.004891298779746818 0.0075413084944558045 -0.004326162415443837 -0.007842983777295871 0.0008369296889190452 -0.0009494582977869065 -0.0009488783785444547 0.006101279400684655 0.009372425036307938 0.009478430428596306 -0.003207632060574705 0.009914662891781946 -0.007985375374384856 -0.0066853320923941535 -0.006609015025269931 0.002270072017842866 -0.0008046027649383693 -0.0015122429176149567 0.004731620460420463 0.005248547808161929 0.00871441792391778 0.004293932973046954 0.0022353237493071276 0.0016642475836746648 -0.0008143155483570155 -0.007681633057324609 -0.0006606682000433409 0.0028967863438410756 -0.0050312970762143965 -0.00822036335179003 -0.007125555248782105 0.004450493335661738 -0.0056351573780667975 0.003677453195151179 -0.006999043131034267 0.006772323036299545 -0.007104244996860048 0.003503286442931847 -0.008498814461317974 0.008093178467225891 -0.0016673985430701813 -0.006924496645184144 -0.005064390027047579 -0.0038069433793058716 0.0009906892809746146 0.008605376665920565 0.0038697019215770383 0.000337611052867684 -0.004663530685413 -8.654987390374971e-05 0.006510392851499283 -0.008119518840230747 -0.0037890957077772146 0.007360038750014565 0.008246586204269461 0.0018952439620049423 -0.007694885622216574 0.0013514726439702238 -0.0037244161853484514 -0.006188364471046128 0.0002734969047723211 0.002062042428746351 -0.006494969198085931 -0.006001864051181907 0.004214413370062673 -0.008453466487058525 0.005082076339269999 0.005107409883566581 -0.00826442115003303 0.004999915488629776 0.0030234842129731147 0.006926647712890843 0.0016669587424741547 0.007025551041644226 -0.003304715654167416 -0.001648904416625907 -0.0013359261586417242 0.004598085313601223 -0.006687908313993038 0.0013294955165901994 -0.0019864405834776246 -0.005266068717793699 -0.00250933102566276 0.00026802437163573993 0.003270142478359682 0.009570692809234399 -0.006558673224873892 -0.008230756609303683 0.0020068960072890836 0.0013436544025686673 -0.003328859585190345 0.0009102982298530397 0.00867121467966899 -0.006048600564728363 -0.008677711669261045 0.005341013416882487 -0.0067725894053978575 -0.003953174780806537 -0.0034660533318331124 -0.006648859354556356 -0.004905285468606972 0.00852918754093661 -0.00942776730595099 0.005934939957455884 0.0031814385955199146 0.001231740269580079 -0.006947483332436373 0.003501401708835627 0.009802620370922615 0.009109402791741843 -0.0029680941211548944 -0.007831086629993258 0.0024015872974926505 0.0026797094579340697 -0.0036174147067589927 -0.0007439957222732316 0.008621753860025142 -0.008084601875985531 -0.00547821834476445 0.005275895385872713 0.004451975393780982 -0.009290727557580654 0.009442131380840801 0.009300811231310104 -0.0044116374138115045 -0.0010148533093064013 0.006834682646462484 0.0048490689693348014 -0.009311070438437256 -0.0018023238911704185 -0.009566920380890158 0.0015730298582867456 0.004557811592219596 -0.00377080138616203 0.004323666238705226 -0.00025135956122606523 0.004386298216928913 -0.00274727443737685 0.00383901135037632 -0.00994983462643636 -0.00048389553196388074 0.007280573902216673 -0.0008413236782593893 0.003740067833281511 -0.009346698335717728 -0.0051844753463135195 0.004426317740155899 0.004392338715632483 -0.0028383938967207747 -0.006826227958155344 -0.0015007557864884329 0.005954670750828195 0.0015944529275209746 0.008674454767582796 0.009163762791881152 -0.005539243375949589 -0.007532002634090491 -0.0019000822742538826 -0.009441759250475539 -0.0008326662336029522 -0.004604297364092358 -0.003569001170772055 -0.0013900220474915258 0.007029515392904381 -0.009505810181846035 -0.0006402872257924817 0.007665159981132192 -0.008242946763716522 -0.008298486639150353 -0.008045371720387691 -0.008531374792450808 -0.009973807403460613 -0.0012620326802848577 -0.002509708883470434 -0.007064467096712362 -0.002650211489758367 -0.0014477950861621798 0.008864787281295175 0.0038789336541395544 -0.008455186361757959 0.005959508757651709 -0.007657539737656034 0.00681411027214218 0.007875597597983832 0.007863949657002574 0.0017601233390802992 -0.0036438136226118623 0.009318227420910449 -0.0006099531635194062 -0.0011549611604616278 -0.0068461495213076925 -0.007935220028023712 0.005913266145949834 -0.002704400862632834 0.002992054135700346 -0.003303559346411 -0.0009051075848986127 -0.005701601098510425 0.0021952651421080875 0.006451853631899788 -0.005376838638331895 0.008839968387424462 -0.0006718829177129442 0.008931069552237018 0.0024653648878885832 0.008468283032315048 -0.008934414979315315 0.0025658857727922663 -0.001326009662796281 0.00106146955597986 0.0060294935556533275 -0.009732645023976423 -0.004225651988251562 0.002712580040922088 0.00725108013813963 -0.009350450213527714 -0.0002290796680262889 0.008441942531231433 -0.002241382155903438 0.0006964261832055913 0.007847710058751537 -0.0013548196231562646 0.007502478360052493 0.005867435779682321 0.007259784313561028 0.009304721285147899 -0.007903668816239726 -0.0012319083417128545 0.003865853633617602 -0.0024624651871829936 0.0005799357038442296 0.0026658338200604773 0.0017909567630428457 0.0038863979186825274 -0.007520868028621007 -0.008389662338713813 -0.005938646654865157 0.00902255926967623 0.0009691059452605535 -0.008616918062515487 0.001911276029305244 0.0016766737114147622 0.00975788011325448 0.009221032239403818 -0.00012101958050766796 -0.004569627651529231 -0.0013802778648209137 0.004067544116708699 0.0053546485516867675 -0.003542195928228389 0.0024710962347928404 -0.006257601240239079 -0.007422237957749371 -0.0073976424700998925 -0.0014723882601511435 -0.003008416896379278 0.0033796816706598443 0.009630645860315307 -0.00716241933161546 -0.007720759332989522 -0.009526692105138169 9.34094060279847e-05 -0.0035117662909183705 0.005698679439432195 0.000688817078437591 -0.006118643718502901 9.198718137502088e-05 0.00036482736537594984 -0.003177371200899579 0.009046432325495962 -0.009876760871322563 0.008372285870345523 -0.00795414037548765 0.005979322487337612 -0.004981417971361217 0.009457004241327295 -0.00845364305378914 -0.007551363201324153 -0.005277719990500707 -0.0008897809122961394 -0.008491228079382795 0.007979410869118 -0.002814474404473484 -0.009260559022392804 -0.008136662599659093 -0.00068492882760781 0.004979874981181284 -0.002729391476787737 0.0037766023747561224 -0.003988719721106176 0.005375022826843372 -0.009749888962587515 -0.0001885326731862879 0.009268116539026932 -0.00196343023255118 -0.00044644465378583346 -0.002881581310127326 0.00015277187448688515 -0.00939706627449108 -0.008676727461375553 0.00817660358998446 0.0024687239213044606 -0.006182133652207069 -0.006089799885148703 -0.004237826623795094 -0.0052999072762343925 0.0006442625164242537 0.004616102739089523 0.0029483029856118854 -0.007219691508308956 -0.00836957950693435 0.007060153143786071 -0.0006401674088285288 -0.006998639723406664 0.0027167416481029896 0.009319018942441743 -0.005753318110187695 0.001163170935416619 -0.0008204959659086734 -0.008459340097507213 -0.005301477669599877 -0.009102513237231175 0.003862379336072858 0.0041429196777291715 0.0052270810767046615 -0.003629660550737617 -0.004788486729595302 0.007780328115401072 0.0025321195658906757 -0.004415180110774253 0.005546812248298864 0.0036045647737276768 -0.004357786203636922 0.00041168493952628213 0.005646622882238024 -0.0017729416999857864 0.007357040514750371 -0.008442935244644805 -0.006195435911408567 0.008076536976285626 -0.004941415497713426 -0.006487001390503229 0.0021021778064443594 0.0032216909638558295 -0.000414633457427498 0.0014037843392239388 0.007097443985223035 -0.004513621424541932 0.005581569903409314 -0.006026029860138131 -0.0074339194923585 0.006702129740147859 0.00826738638969121 0.008533555744938309 -0.008715787039903151 0.007466219893682959 -0.0005608799904044531 0.0007310474240461978 -0.006229161284366694 -0.004650027176560716 -0.005940348230244439 -0.0037234709689666938 -0.00427704584160817 -0.007213886199105986 -0.0025636417526573195 -2.3570128797764656e-05 -0.0019235233774773965 0.006845621740636758 0.0030603010845517836 0.007820518751118598 0.0034057227737456005 -0.005191109213123293 -0.002757615943155505 -0.005632296923985929 -0.0011510199986671 0.003922102836865823 0.002244264813529009 0.008180061190528979 0.005397519855910643 0.0041008974709890594 0.002781229889227653 0.0020870457359395897 0.005716912339717913 -0.004928299357913188 0.007017330649758654 -0.006482563590224295 -0.0036302191056273216 0.0041082426994581926 0.0033816921940471364 -0.0052761674665766575 -0.007745631967445319 -0.007520922343209795 -0.00829090808589332 -0.007163277320569697 4.079307004588306e-05 -0.002636341763203101 0.007249008935678257 -0.007073701039919366 0.0014332499030485016 -0.0014433902204424934 -0.007370779860956756 -0.002578916588041693 0.0016823587236449427 0.00817389386947902 0.0078978317351457 0.0005120946398297563 -0.0021174629166757167 -0.00358989498224185 0.005252811160938736 0.008032011429929544 -0.0024919814588609725 -0.00027450058061403645 0.009139082989643462 0.0032916171936595486 -0.00768795479691708 -0.0018432506612585265 -0.008093634540624258 0.007852420611225546 -0.007326462736092261 3.179003336626317e-05 -0.0010638348401594225 0.00904406814534703 -0.006397066684694346 -0.00642718645815765 0.0022022779336552684 -0.0056167954362588545 -0.006481594532264823 -0.0052154312623658265 -0.0009937237455839801 0.0011675779486844291 -0.0028715236864901407 0.007480155310161574 0.008062012688813904 0.00221809647673947 0.009779030251273345 0.007509530001501433 -0.002241100406485505 -0.008838906776025389 0.008645523290679606 -0.009625216790137585 0.0029795886302172205 0.005246707047532757 -0.008551329971499233 -0.005462116856417791 0.00961397855779038 -0.005711859482617479 -0.0020497459680185477 -0.0023750752462892 -0.0029015850495313364 -0.004672103740696787 0.0033341322897528364 0.00048334779674536615 0.0008432306667011443 -0.008116805562115581 0.0025731924120288 -0.009742371417877796 0.0028699734831532653 0.007409902635489738 -0.006273352196645805 -0.004063266450229435 -0.002540928550761346 0.006123130946298275 -0.006377116153330342 0.004904442114692259 -0.004327517529654836 -0.008010521883662577 0.009392027710300932 -0.004286264019401238 -0.0007292721173968418 0.00575577624213988 -0.007260654929859847 -0.00926372462568231 0.001997226767338031 0.006817199941366479 -0.00572692236352798 -0.0024588934007006395 0.002329183730332904 -0.007903999609640958 -0.0063728064743439235 0.0036009864563454497 -0.002484378082763879 0.003273336062224694 -0.0011397038209654715 -0.0006789124410788109 0.009041235779268826 -0.009279075679281708 0.009146445592720877 -0.0004010207236173728 0.0004731932666114328 -0.004495290675139434 -0.007913137614305297 0.0013160913555151765 -0.008942426060427184 -0.004162782785561943 -0.009046235005710281 0.0056744994296186405 0.002943752039954544 0.009850092045646847 -0.00019659417109054757 0.003026198256706929 -0.008195194665533274 -0.007648506552657717 -0.003278823270836402 0.002053860457258208 -0.0049493832890312554 0.006915590074381776 0.008345361010603786 -0.009807081345024605 -0.009621809621123203 -0.0043854731500441654 -0.0033508633569908188 -0.002078476693416662 0.003692406438664992 -0.00681786415960548 0.005279401201223404 0.008347515342250719 -0.001060937247477271 0.001591659627316307 -0.006642627500732001 -0.005584847478172272 -0.005416662895087639 0.005929018319356773 -0.004497183395185318 -0.005092240717124641 0.009214724887272924 -0.0008008136469462596 -0.004495590607470188 0.0009575125787684661 0.0020338354088815236 -0.0030735512518950455 0.007580980072857674 0.007793088144313417 -0.003488172604982116 0.0032032098125226102 -0.007127091422409855 0.008321553749890435 0.004173547464050178 0.0024565659450036924 -0.007089174404908161 0.009146056442477167 0.00456360307153407 0.006020548168503443 -0.002664488970585541 0.00789704972020427 -0.00031344059744759477 0.007929864602825189 0.005580932684283857 -0.0002573361424357771 0.007006122031659746 -0.003979230519055639 -0.00909541864980413 0.004250978719533163 -0.005042439770411038 0.007414257372982137 0.005698615657656088 0.001817136150519429 -0.007571115575822514 -0.006944662845742924 0.00465041187654334 0.005045151854549625 -0.00753255848924308 -0.003916429327343225 0.0003128610983797117 -0.002269064083482795 0.00706047201280126 -0.009337421671474246 -0.004033100448682414 -0.00531717050900929 0.00866725673484473 -4.019406783231823e-05 -0.002246090351189405 -0.0028128968442956755 -0.0036667248381577243 0.0037064541155028934 -0.004173805013915781 -0.007908170220278777 -0.000155938455640256 0.00876131074665173 -0.002468103055144666 -0.008734118065436036 0.006838673160914051 -0.004573258178064414 0.0075672466980193556 0.00756409559487513 0.009007045574951944 -0.006776266796160775 0.0012889942314088503 -0.005358404918519096 -0.004260327761024316 0.006605461597913408 -0.009379487763694617 0.00856409453227164 -0.006470389082834179 0.007088619104600352 -0.003253115236581135 0.006244777987867834 -0.005977654535076919 0.0008465380825084055 -0.0064080232638501974 0.004555388100865818 -0.0028602936366195954 0.002328307213726401 -0.004841982473927098 -0.004597177256420837 -0.004823441835377123 0.00878148559703902 0.0024208773421958707 0.006885069089003765 0.006365497251382765 0.003814336959881249 0.00648303151663338 0.006577313806288799 0.000774779817354982 -0.0030725487016593214 -0.007147737888318009 -0.0010799723274455067 -0.002083684469839026 0.0012612853015948559 0.0023596705314486172 0.007212612698823119 -0.0017163686162962044 0.007902641031955452 -0.0034144137279906416 -0.005062377971204219 -0.0032509720592504166 0.001482525878879067 -0.006716208044446368 -0.0023584924493484016 -0.0035382515640500394 0.0029160147796353803 0.00841151781067753 -0.005946464863568368 0.007151167341203088 -0.004725983378360714 0.00600891803767665 0.008412188328216086 0.001618257194094112 0.009565742533331147 -0.00954929070525328 0.006148375194455087 -0.00576960952976197 -0.0009680191562059879 0.007918922104914601 -0.008918580317885798 -0.00415034899213135 0.0047364523499998715 -0.004840460784609408 -0.008390976276618245 0.003407657934835549 0.0016108511703648437 0.0020806399045507074 -0.0030242877225163988 -0.0027461708956591302 -0.0031995561432062412 0.008943602072471123 0.0005246016158101368 -0.009129465682203117 0.0004875480306280374 0.006769273153874213 0.007011155216627931 0.005839593854286089 -0.0012859105420692744 0.0044207801202699355 0.0006343591420282929 0.0009213160168113094 0.00736019915196578 -0.005618646935762152 0.0025533638704661743 -0.009090723839485025 -0.0003981686976524141 0.0010618820526684877 0.006231275345080658 0.00461404899383433 0.00475375186514764 0.0018049791897141558 -0.0015628058270462965 0.006324033221325848 0.002272886048459181 0.00841685832524748 -0.006532387975583136 0.0033169654162272383 0.004999355720754621 -0.0021589349440379758 -0.0050092677783898495 -0.005043560147291439 0.004808531952953559 0.0017443363338850298 -0.000645637521589448 -0.0033518930258730536 0.009830670392713526 0.0009492554136872437 -0.0031059868716502084 -0.008817853509757775 5.6465297627251304e-05 0.0024552673779592443 0.005974499629416723 0.009314051933471896 0.005981121570096627 -0.007864813616295768 0.007626436476982612 -0.0035850792249380835 5.8881501608957706e-05 0.0005904609937864482 -0.008535599059648985 -0.007761399788311512 0.0016183445833727345 -0.009565796947142604 -0.00753042484368041 -0.004596510318432894 4.4977968896157614e-05 -0.008190973112722431 0.0018950211795548417 0.008427537990050337 0.006822727585371344 -0.0014298825053153646 0.0011561369885185833 0.002901402372444281 -0.009076287306706555 -0.0017945317970380972 0.00487072585369583 -0.009271089375947084 0.0044307707244056835 -0.004871285292883299 0.004238618799985359 -0.0024937449296149805 0.004330483885827373 0.0040586314974837 0.004977304863917757 0.009144485222481074 0.003135474232806048 0.0032003392518425502 -0.001996962064435906 -0.007950036953908264 -0.00330751747252457 -0.006316303702064974 0.0009601709214547786 -0.008671708447605049 0.0028991097442642704 -0.0023969418137930344 -0.0027378634445192245 -0.005042114663295499 0.0015926271372335814 -0.009907654043179845 0.00745259458385439 -0.009504101733123188 0.0027026031891729113 0.0033764043050412192 0.00602772406419534 -0.007541581248723743 -0.0028820722545240393 0.0006485132766204885 -0.003478951442083036 0.00021524075035084939 0.00968206407154021 -0.0005946015565951226 -0.0030895075558335953 -0.0029877778582307205 0.009188291454959663 0.0058695810464195215 0.007568521970574551 -0.008369824528871719 -0.009829084189187993 -0.001934679938716712 0.009741044128252265 -0.0016131195438897072 0.009795844557421997 -0.005188844059477382 0.0034590883795519375 0.004873998731905162 -0.007000726371237101 -0.008708709875508536 0.006931091710130713 -0.004631784286733633 0.0052043224506988315 0.007871822233545002 -0.008363905137099581 -0.004098794427028845 -0.006402421678334087 -0.0027989312986803957 -0.008153163993902802 -0.003849759865654075 0.005935100532567282 -0.0032368002098220657 -0.0018838360712294926 0.006907049757008151 -0.0009667620782179472 -0.0028304232539078837 -0.0032191852711159433 0.007472584622655995 -0.003545760823894719 0.0016502085982989679 0.0008361702388111451 0.00867840264363367 -0.00029166809383646825 0.006998643448344348 0.009444863078927902 0.001632661817216257 -0.0046911432289572464 0.006041020496715755 -0.0008190893416474814 0.00376893669783418 -0.009700314350643566 -0.004029891565842594 0.006241825980673786 0.006004081240809965 -0.006080778058693821 -0.008308348651525221 0.0011763973300887437 0.007005474324774134 0.0039452160518177164 0.007941042811406158 0.003682492266593467 0.006847426593362819 -0.0022938269534558174 0.0023761820191418696 0.005395069863877942 0.004676379023120904 0.0006532688973936909 -0.001013161708787175 0.007881833126256411 -0.007080559903702364 -0.0021406858968284967 -0.00888364345971976 0.00797073542139228 0.0013431876367241257 -0.0031031364667289483 -0.004618991419505884 0.0003101204702420854 -0.0047165950189062425 0.0017991712195383116 0.006094267540429027 0.003360672231646331 -0.007931709670476315 0.005412135629875551 0.0029159244040347938 -0.009945133916645556 0.005600120593482369 0.0030721340914780446 -0.004650140395631095 -0.007362006953941811 -0.004193280096353556 -0.007227621893201393 -0.004558876565021499 0.004519911855591639 -0.005348607858197523 -0.0016583926352043872 0.009733597133516318 0.004631222963310765 -0.008834725833687029 -0.0023490503589588593 0.002120103863349654 0.0036080931478796735 -0.008868948135160808 -0.006194762844559319 -0.0032372520988401352 0.004050385513815407 -0.0004717544320838509 -0.007178386107098378 0.0036619158384833834 0.0028459557038679126 -0.004264309054464939 -0.003712585824273422 -0.009052141052108805 -0.004580263795310127 0.007339706482900115 -0.006464215795748973 -0.0034016038822858308 -0.0040914231274723776 -0.007733161832953098 0.005287445230059373 -0.0007643269016189697 -0.005977641408751684 0.006424408717058435 0.003761743146985767 -0.003020416667382047 -0.0015693725928821543 0.006417666715360667 0.002930011427908325 0.00927631648030578 -0.004465647632311011 -0.0035687202138088518 -0.00610309907740926 -0.004375151331036627 0.0015121727227161378 -0.0058910463927129356 0.009240398513018238 0.008116888547613324 0.008774178510325545 -0.0007862766673786339 -0.009409732474837 0.005510018400187786 0.009185398523589542 -0.0022090777422155462 0.007910772950983214 0.0017936865671513112 -0.00785777787627476 -0.0077234444794010825 -0.009025315335686792 0.0004052124739039806 0.008905191875004421 -0.0017513750325601762 -0.0061118799496684 0.006861903885139858 -0.0027785374588527745 -0.007528371543860795 0.009725554630891692 0.0046337425650309835 -0.006216498305655601 -0.005684747080987334 0.0023408280667321854 0.007607061455670848 7.482298383362958e-05 -0.002413987017033781 0.008123991154916065 -0.00851808996047732 -0.003069138468028654 -0.007897435515618117 0.0048394161063345376 0.006776481477413948 0.007278362917045459 0.0037018504591604332 -0.0037869308313502126 -0.0023138221532515817 -0.005590610159330016 0.0010290727360494425 -0.0039615584676427765 -0.003514155366925422 0.004225166741371392 0.005299047569921915 0.0058860281262342485 0.006702922984934833 0.00037260555338774863 0.0013393498049284452 0.004460230850975258 0.007689075798793183 0.003705632696455668 -0.0027581080949623197 0.0034320490759831308 0.008010024593120743 -0.009343766310805348 0.00945501530710085 0.0011081418211914065 -0.004991754694179951 0.009555210088261214 -0.002924502894631484 -0.0072842492164698625 0.0054642068178496934 -0.00810885158874223 0.007724748590514209 -0.00907430830083612 0.002482669320411893 0.009830206290776385 0.005826945200064626 -0.00035712226161205805 0.0009506177245049031 0.00030691568391975205 0.006174639179286177 0.000878122785141806 0.0020278114835345744 -0.008906561566379919 0.000991531123680743 0.00019627603157450213 0.002429383975511382 0.00030488719012722147 -0.004043679132126113 -0.007133589614823688 0.005465787458460254 -0.0020427057285221425 -0.007775683191434417 0.0085151152445629 0.007260366479192147 -0.005882336396186698 -0.0033551798733148196 -0.005706018319185176 -0.002327587649016272 0.006568662548320276 -0.0009980274553689217 0.00984399769633463 -0.007346352632558617 0.002035764796967909 0.00941639913348608 0.006264161075480711 0.009823033828253983 -0.009557097336819585 0.002587832783476008 0.0031034422100844217 -0.008092556257834916 -0.0033994714002170776 -0.00995622723651124 -0.004487732881156181 0.0017073076648546365 0.0023055255572871462 0.007861732306102898 0.008136892606152057 0.0063225921259170165 -9.540717686558689e-05 -0.0055460255911207335 -0.0021430167790316857 -0.008664437886147444 -0.007324506019348669 0.003020871287099318 -0.0012893859258586368 0.003503334010654946 0.00533488750399674 0.004119650223672649 -0.008488700704718076 0.0055489299428116475 -0.00032376201219964235 -0.007334378847694314 -0.0005444700092686675 0.00996256112589382 -0.0018930963894574632 0.002887313120140216 -0.004580827929819744 -0.008738522453536153 0.000665023121525072 -0.003250170146941187 0.0059987747854922824 0.008456696290951528 0.003337345876043292 -0.0036224365335049517 0.0061478306514986866 -0.006693622109973179 -0.003393308310714556 0.005853405843174434 -0.0013086974550683816 0.006366697264628093 -0.0023975320716180734 0.004207670867510012 -0.008134150598123611 0.0026439913813616316 -0.005285554301726527 -0.004282809946017481 0.0034316399530088856 0.007930034897795596 0.007864495650993114 0.003190800200203601 0.00012837456862482485 0.0031592041758497866 0.002756306942869189 -0.00858498956251246 -0.003366386999379911 0.002301946033346958 -0.0011854790784124585 -0.0037215435136861473 -0.0054075537984676235 -0.005301706400324402 0.004817767266623949 -0.008079830747902885 0.0038885409118316703 -0.000849925498766186 0.0002835516275490873 0.004389482367838836 -0.004763246946281254 0.009951940385841044 0.00411971730068782 0.0017587514326036086 -0.0049289249735867255 0.0058200248726371345 -0.006532437795827073 -0.008502363266318763 0.0036698951511353658 0.005103497934350087 -0.0022591779527625947 -0.003587364374952216 -0.009424451757164816 -0.006145213125549978 0.002182393896639436 0.009830777518849637 -0.0008792257750564365 -0.008467746996493828 3.8020614558638074e-05 0.007328474773219141 0.0019825023008948565 -0.005834036549885793 -0.0018617051910560112 0.0014689598927161047 0.0026490169338227454 -0.009699168326151785 -0.007907200117514328 0.0030439167144062623 0.0050209360683698585 -0.009805078434283332 -0.0025414213807688447 -0.0013532059548123348 0.009759675733929564 0.00763415135804721 0.008526658731201371 0.008941845690609447 0.007659448261401558 0.009352565230268143 0.008526341746232893 -0.008320503098508722 -0.005205532804228399 -0.009767278163623832 0.004364069759380562 -0.006171571429229281 0.0073819956091634945 0.00023458511176577788 0.006057304334395318 -0.006859952774661506 0.0035004385409937097 0.009192024948280383 0.0050344829560120315 0.004396001530675549 0.004297243364590636 -0.00952858962571156 0.005865087472837012 -0.0003563415131228858 -0.009870956585089692 -0.004625605969623774 0.008236919651983353 -0.004024365845232247 -0.00911582226224357 0.006359730694790957 0.0051698948522954005 0.0019215742516861777 0.0018591283050082529 0.006938147094844282 -0.008316318143324907 -0.004091408996499379 0.001259822068791907 -0.0018599275474664358 -0.006756308104234896 0.001514021983192568 -0.00204641414032029 0.002751552401511464 -0.00016977536266508247 -0.0005762393276409275 0.009556366277874933 0.004796970946679618 -5.575338438761589e-05 -0.007479938188864761 -0.0067829562004177914 -0.004543740068541618 -0.00771890183660085 0.008616308708476529 0.005736991777695285 -0.0018940653472509748 -0.007748370425550859 -0.0099259541359635 0.009190631152225173 -0.0017756918030157505 0.0021864142184311684 0.009171309323810122 -0.009274860412649258 0.001457919201851782 0.0029805115410024337 -0.004281309932003914 0.0023716960753228083 -0.006161933333650433 -0.0033414790204168137 -0.002472411197971032 -0.002109590195432356 1.0081614485513146e-05 -0.0042472255635307475 -0.005902499036801983 0.0050375675579389535 -0.001532581476548816 -0.00995540810151432 -0.009161363366965916 -0.0006021984378698254 0.0013205489188234994 0.009117687864650009 0.0018624725088905846 -0.0012810259451698797 -0.001455964293335386 0.008151953354969902 0.005800419824687408 -0.0017542302187104116 0.009869603359023262 0.007342215782822964 -0.004183261321755896 -0.007829228400863404 0.007538265276567325 -0.007237628930274709 0.004676812579008538 0.00555472593194513 -0.0015236918607249364 -0.00010767713155841394 -0.001602564210030008 0.00795200617338969 0.006253677211109839 -0.007493149646686483 -0.00837649305622712 -0.009968682489585856 -0.005512910878537458 0.0002558101668159833 0.005608419056984596 0.003601086463928753 0.001203222375190667 -0.0006229070907873939 -0.004985598489028311 -0.00874652509323072 -0.0073736390098291475 -0.002128358415502709 -0.00764564694295645 -0.005181528901547088 -0.006782480050844213 0.00047602367509026224 0.0015940617892270283 -0.008571454646717604 0.004931701695092407 -0.0065506414847398544 -0.0073162399936424795 0.0008375756989761011 0.0031515598979296594 0.0016348068902868 0.008558356196411437 -0.00837484995303965 -0.009854813329589016 -0.0032161615746691893 -0.0036148702537919 0.004128181883087447 0.0017218021149443905 0.0016965298365167625 -0.0031315744436799875 0.001957889993067929 0.008379379843105056 0.0034873443510542064 -0.009107059009920213 0.008787569139559347 0.0002658011518980735 -0.00598698797646208 -0.001842233875975003 -0.004109063387104475 0.006802237011766356 -0.0021189685621386036 -0.004682035339810129 -0.006073848408522553 0.00831550068985997 -0.0011927974575886274 0.0018403465162827627 0.0003738733251451021 0.007569066973063398 -0.006423693026422223 -0.00035947373551265503 -0.009624200188951248 0.006205003501287552 0.003753579042097697 0.005222790280579856 0.0097150409209353 -0.004974419567227903 -0.001087675185511304 0.006920106734739714 0.008308341440832276 -0.008135801048016804 0.00452890159538301 0.004900067237831823 -0.0009584514981324822 0.0015966293804672831 0.007557927387674858 -0.009687762673493628 -0.0037294265334840617 -0.006707614789322636 -0.0010560872669145085 0.0017913104883039814 0.009447969236763361 -0.006266601261185447 -0.008254398344719662 -0.0010430351693023216 0.0077685030081517375 -0.0026477964981109397 -0.009109139589782288 0.007160348266487841 0.003875959318695549 0.0018290567918960252 -0.00029076143417381024 -0.0048832654727701446 -0.007040626504713755 0.00045588593413222606 -0.006847840611560968 -0.00754843527120258 0.00018151825993783198 -0.0020820687747762044 0.004233071301142484 0.0013298063504598775 -0.00786616831402251 -0.006272715854199267 -0.0015417669181961753 0.0025493688507257084 0.0016570750755108277 0.002393235950493223 -0.0004136761758590547 0.005961181368583935 0.005592303788595767 0.0059768979076104106 0.006830107649036842 -0.0051391394736676425 -0.001420859947534974 0.0023294616246549472 -0.0022020446239476455 -0.0007960034691100806 0.004146216629390288 0.001715280737843227 -0.006074500421983287 -0.0008938645829072514 -0.009818952102354235 -0.0067699051972374006 0.007033720286362349 -0.006412411115323259 0.004762189995867453 -0.0007419905317497793 -0.007636701371247536 -0.007143164891650993 -0.0036580115624771483 0.003038298816623805 -0.008748809652148401 -0.001743677517135795 0.00909779062626115 0.006241300160381694 -0.009838570732961339 0.006011372161947354 -0.0014440688123652009 -0.009352175685708636 -0.0047675474323108 0.007675904248759453 0.0019171018496230655 0.007984181655510706 0.002324077376256466 -0.0020590460422600307 -0.0009616293694022122 0.008652327700853934 -0.006537580431157066 0.0023200623812305345 0.006730347890157204 -0.0037413478960028317 -0.0009436738508024085 0.00022957213423002547 0.00548996732328726 -0.008740353796915184 -0.0076162312682614 -0.002088755294486388 0.009241605336789903 0.005160929155369571 0.004493307494023695 -0.002522520063919331 -0.0012117060012165198 0.0014249903753472577 -0.0026635192278677503 0.008307667561471837 0.0005714241408963303 0.0009572985356797233 0.0026979357251569174 0.007208056701947555 -0.008636951835892689 -0.009476687181670445 -0.00784519561336709 0.007317122468629292 -0.007455325628124581 0.009598140488692298 0.0008442737515816992 -0.00619162137617821 0.008208516917216252 0.00737665903331307 0.008492945977906818 -0.0038013095845552437 -0.0025631791370250446 0.004716869780217634 0.003239820818101726 -0.009917070079344876 -0.0010152566904512213 -0.0009949116241450076 -0.007629640782041371 -0.002150902365774485 0.004393921016383204 -0.00044170388078526406 9.29774982090549e-05 0.006173592115742857 0.0032101835052156143 0.004498021840229302 0.007817269197139232 0.004808666823739996 0.0005082959648676621 -0.0062931998462214065 -0.004345825924247482 0.0015899790664310413 -0.001086766910344126 0.008082451816260711 0.00036918480031134134 -0.006990553291339716 -0.003709296647699014 -0.0002930314111877913 -0.0008248557546978938 0.0002022781172928735 0.00022787508731872755 -0.007825065140380425 0.004467590842357367 0.005131258864476462 0.009808188089109148 0.00413389811166889 0.003591817737403597 0.002790907939491643 0.0007877028629302077 -0.005963424053975348 -0.0058859757166108695 0.004363219874464691 -0.002547138252033323 0.00878989154353591 -0.004536500058405036 -0.001083268153031525 -0.0005247384887010383 -0.007074347999061226 0.003270391531653389 0.0018521693859595342 0.006407074270179483 -0.0023681186299621083 -0.002095803180331677 -0.003361028925107974 0.009664775416055283 0.006412595750413913 0.009182207807002499 -0.008405730290779736 -0.007053964027508731 0.009095949295124266 -0.007403846799799298 0.009436583504703973 0.008158466915902407 0.00967355328178098 0.0020861453769079313 -0.0016257844308324113 -0.002002693358998102 0.006964411472121438 0.0075502220366548915 -0.005290837233268406 -0.00828521522266086 0.0028884217731335073 0.005691263474558972 -0.0028289360501290144 -0.004931996050755203 -0.002594718608220319 -0.00649999430804977 -0.004534910472753202 -0.006088337902403745 -0.006753715120030897 -0.0027696074720984856 -0.009913656208263396 -0.006103977464883681 -0.006688847109343563 0.0010112177702511719 -0.006679626560554111 -0.007277394830426623 -0.006770060037298176 0.009826618510128214 -0.009076160523776754 -0.002566324484031859 0.0043168463719878945 -0.0003080310954708485 0.0021513916400079987 0.008356518246554217 0.005553735308134048 0.0020415039292037366 0.001936791478369138 -0.008165722842340175 -0.002702995755815096 -0.0005328609413721621 0.0050241361831811805 -0.004542576475661788 0.0019464743804780069 0.008978644492913813 -0.00473730949813552 0.0015045299047332077 0.003407424116117856 -0.003168563338618962 0.006640063701454894 -0.006182966923985007 0.008006980593086714 -0.0014105759720749369 -0.0006654639426127273 0.005995224841863647 -0.004821757176724184 0.005639670640394759 -0.003104682584242167 -0.005210786244502202 0.0027991953984469135 0.005071044623840636 -0.0040163235297225805 0.006282689567824988 -0.002725933078745202 0.00532365240793929 -0.006718566295400728 -3.0658025186106053e-06 0.007862007014670597 -0.0019118895433667977 -0.0005064984337957816 -0.005841559198927366 -0.0005642019498430153 0.0003743377671257403 -0.007724016224283952 0.005539131940074958 -0.0020052563715753507 0.0025933797854978888 2.6099236043526652e-05 -0.008333105843636383 0.005109869104356806 0.007305481907179693 0.00508787397131291 -0.0023654732780960443 0.0011040777063345188 0.0034503620554924737 0.0060057853709784195 0.007320399643991048 0.002124733865845732 -0.008679302038595847 -0.0025837256593354433 0.005547715489805599 0.0066983851285429465 -0.003712497124722578 0.001014723390021557 0.0046153685753333815 0.004206871274112978 0.006919243238809996 0.006607820671057701 -0.008295606122843826 0.008361596939946573 -0.00817509586342444 -0.007198664529404799 -0.0025702778104379617 0.0041947301956105874 0.0020312490320343966 -0.009186699295100078 0.00519213915889831 0.0026087206809741297 0.004741009920774419 -0.0014565531363220138 0.007359747612236645 -0.0032330678724079333 0.00775893918434562 -0.007132530091879399 0.0023854613887404463 0.00294414061426696 4.186171556552244e-05 -0.003799448337917781 0.004375792970290832 -0.0016127851368937848 -0.0038511046506202965 -0.0029700003842035973 -0.009058247529376064 0.0055066189397800745 0.005275539610496538 -0.00973330576643922 0.005035220738586189 -0.0075944320095673624 0.004009822035950059 0.005658366477463079 -0.0016050972110096002 -0.006020246256998297 -0.0045661253977203956 -0.003857267018859558 -0.0012303426884201357 -0.004237232491902059 -0.00533366322566244 0.006980834771480112 -0.005486337024608341 -0.0036518958716083086 -0.0006487185007514485 0.009523247878446306 0.004821349082478143 -0.0034179613010985625 0.005000737511491642 -0.0072494149368099395 0.004196935635105396 0.007143017597559658 -0.0027591941826124455 0.005565440052055637 -0.009041888698844858 -0.006948662059288971 0.008099807375150177 0.0027155682456509143 -0.0020998803541598197 0.006801678924104092 0.007670695731906393 -0.009649969378699124 -0.007769143095731619 -0.009061357985211089 -0.004806912916293173 -0.003357843355432155 0.005432307958065145 0.0035466759633049887 -0.008459533252609874 0.009044631849435733 0.006242740331365985 0.005303667381443248 -0.0005126782833062074 0.007717685622850972 -0.007021823384899249 -0.0025005271570153953 0.006710279823149172 -0.008046839169634102 0.00045295686169107355 -0.008176807491696228 0.000725021307737354 0.0031982004431629907 0.007756749416333855 -0.008190613630111454 0.0035952893169661163 0.0054551103222325575 0.007740910261263884 -0.002843151863989977 -0.004811702410879166 -0.0035491038906136606 -0.0016582648729469487 0.0002375167656235317 0.001398584108805851 0.0031769072104758586 -0.002825262218554561 0.002334799591374573 0.003559193386531408 0.006006714696348553 -0.003829024671805204 -0.009426536475348656 0.002278853020295601 0.004478858066456632 -0.00870095194621014 -0.005122536435610039 -0.0031857446769612222 0.006477918773272718 -0.0025589344626441492 0.004933514708869069 -0.009210078442163084 0.009071061782745254 0.004755291852325672 -0.00943676648242714 0.0016907033885860592 0.0033978517256329274 -0.0027006907168626417 -0.006378137032619211 0.0017272811504421785 0.004807503856308055 0.0071103924188927175 -0.009344299603714317 -0.005835657650899857 0.004042847751467373 0.008356054419462572 -0.001353038298909254 -0.0041316882888107 -0.0012192278049048058 -0.0027620364088250925 0.002046235891606076 0.0005099774648611357 -0.0025254323527655774 -0.0030815534771629774 0.0093293158205789 -0.008635549030654416 0.005813118554473836 -7.507975799162306e-05 -0.0034157585940507327 0.009537966984374308 -0.007205668441018309 -0.0016402880073785025 -0.0028973325067261626 -0.006129126276228478 -0.003935455258315599 0.00630879444881014 -1.7154941092613687e-05 -0.009630382676147369 0.008436972654372191 -0.004230738317526901 -0.002815763734649537 -0.006254277662904657 0.00642498228360633 -0.0076464938805483555 0.007793666311319813 0.00927418269780735 -0.0038247104541480883 -0.0015587869968037502 -0.003715075625976472 -0.00031909704019703576 0.004509258876305515 0.0017861613341826985 0.0005313862643225951 -0.006791542135836048 0.0009629494774507918 -0.0024818443454765384 0.004600326900942961 0.008030901411522141 -0.001260004670378411 0.00917369310053979 0.002816726989345779 -0.008528516000059928 0.0057818696419068925 0.00034780658754219283 -0.005030637732837595 -0.0028425174319969583 0.0017793001480701839 -0.0004772092118509423 0.002490276141698328 0.009591082171199096 0.008030242244345264 0.008892345988632618 -0.001016225823088475 -0.009746016378054246 0.0027947638829240538 -0.004973193232505597 -0.006779867682682555 0.007296953622569111 0.008139795968648238 0.0004671128065312242 0.006963495983151097 0.00737652834785669 0.00929746337008988 -0.007256782052984429 0.0029239465970091368 -0.0002898261405520318 0.0026794129226833715 0.008792489360701398 -0.0034370789315583926 -0.007501619018179897 -0.005938406981402018 -0.009992933992819631 0.0012211375435985383 -0.0016928974921310187 -0.008154091135820806 -0.0038478873958257623 -0.0018119475042417503 0.002997627185228542 -0.003767049719236193 0.006255079379149953 0.007932352388437437 0.006575229031895174 0.00024368235599174504 -0.0069003903549194855 -0.0013247632965832784 -0.009931544744667033 -0.0061804713845688575 0.0030195085798063893 0.0030139309429302492 0.001608855345002427 0.0047206066263556674 0.000935964981189974 0.004628121345498431 -0.009346095997661437 -0.0014089759794403585 -0.00023063156737417913 0.0022333195562280177 0.0021858639354384608 -0.007467647220678981 -0.009158828208558805 0.004112810728956069 -0.005094678856233072 -0.008046338512954512 -0.0035191914385580446 0.0024143209884591784 0.00024287577707487497 -0.0012377431562773152 0.0017092475413694793 -0.00867227207569395 -0.0007559946858900941 -0.005548706577051945 -0.0031745465409045324 -0.006961724607762714 -2.6839754265636784e-05 -0.0015208246799496665 -0.008001386676085827 0.009900097153909876 0.0021578755011594543 -0.007253823662254462 0.008444552341509292 0.00950920906795104 -0.003961532302712274 0.0062019969902777725 -0.000831500283648437 0.00735042247391283 -0.009299520976583538 0.007900749663211503 -0.005729709463592992 0.00811978258266897 -0.0036447693181377947 -0.00039708214471360047 -0.008960264761483087 -0.006081644160596724 0.003594928420134756 0.0052149058851965885 0.0064962364934018305 -0.006020572262337234 -0.004291805199911092 -0.00679588427609416 0.0001842499920232405 -0.00744748654323305 0.006775628352562088 0.00735747287426001 -0.0018973106473121719 -0.0004491174493566272 0.005812720781596186 0.008373031066930778 -0.00961874859972812 0.0030622295126317475 0.002405037264133641 -0.0005114751070108298 0.0015167017023803627 0.0064560722837878285 0.0030255026153630984 0.0006176784487517614 -0.008292647368905445 -9.979371987465027e-05 0.0014380219088580663 -0.007802314783254619 -0.00869300822350703 -0.0009087034841919021 0.00989048627331125 -0.0003695101188855368 0.00041993381388914786 -0.001102561865196923 -0.009980781241896637 0.00841172832133961 -0.0063347543345163865 0.004820547177601197 0.0037524654620475963 -0.009514854709227052 -0.003685111097976719 0.0015164936910138146 0.006300567361180969 0.008454911821885706 0.0026582434424326246 0.00731597956672961 0.009574776277104785 -0.003202173242557866 -0.0004899620914356386 0.0038105823322237397 0.004514583959439503 -0.0020411262874882492 -0.00569772418031683 -0.00558463077738423 -0.009622358980900194 -0.006165827827303781 -0.006984402590224736 0.0017166942463686264 -0.005966549438815329 0.0031865639505737776 0.005209980428267208 0.005179236299057241 -0.0015770225392495937 -0.007861490990709107 0.004835664723400652 0.009602432574157082 -0.003292976319441916 -0.00880567006229372 0.004874351094443785 0.0025682152749551216 -0.005384524038035085 0.008142697797622589 0.002498907060308593 0.009429587712601674 -0.008760492786099028 0.002218734104645707 -0.0011820424200842394 -0.003857314764113333 -0.007290902483345352 0.0043294197325812 -0.005427884229275722 0.0016874329081436532 -0.00191281403582832 -0.004712785674405251 -0.0008116819479146754 0.0036509489611607424 0.008035255489360018 0.00413004550771327 -0.008631477663975847 0.00791739830474497 -0.003727450591240444 0.0021368412594044827 -0.005496216475481042 0.005766068843634139 0.0068669619599459105 0.00866744113121482 0.006148970208904628 -0.003003747221423869 0.008390040161450998 -0.006041586915355111 0.003354625885464849 0.002882280283367955 -0.0021373057808253115 -0.006122624884879357 -0.007173809746325175 0.0033342666834921836 0.0018361262280660838 0.006046286750929568 -0.003697934926736684 0.003951161606491978 -0.007750585129523966 -0.008007243886839148 -0.007331706125043722 0.004067903189045844 -0.00019333605071924186 0.005939625269991819 -0.009027710755714813 -0.0037166833708583424 -0.005677638588801814 0.005822721911094094 -0.005671172562404421 -0.004219327702427307 -0.0021236079762773155 -0.003909854755782087 -0.0019377578549864358 -0.008087901330661451 0.0018597169117986877 -0.004322451424781402 0.0004650103704618505 -0.003321060796613356 -0.007979752212601514 0.007188293209487809 -0.005157143624607132 -0.0012207173606990987 -0.007074113014043029 -0.0052677772727311115 0.005780514444612224 0.007699629489616394 0.0028783181283556433 -0.005823761011373398 0.002668221481405695 -0.00934865107515882 0.005742240082811762 -0.006866372104568173 -0.0018420217120381065 0.0045972732586914596 -0.0026531257549957934 0.009423790295977329 -0.0009208706930215263 0.0027518886778419797 -0.0017086181586128228 -0.009990689731886673 -0.009077622538359838 -0.007721931062841027 0.002663807530959605 -0.00809845773691468 -0.003181189123978234 -0.002536508902894581 -0.006162543049405517 0.003103978043662454 0.005445815329823172 -0.007465167485575979 -0.004447293789121014 0.004952258777665718 0.006883277787406 -0.003947873864556122 0.0013821995645200147 -0.0038286710148461457 0.008734831758571307 0.008543669285291414 0.0028699791494620035 -0.004134258075755295 -0.006572599794402814 -0.0069479893685952645 0.006700265075381939 -0.008661499678355628 0.008516484475227551 0.003646341524224446 0.0010790671703770002 -0.007610217787057141 0.00011716473695605988 -0.006145036404146429 -0.003533691801737831 -0.008997160724994412 -0.006824930749476496 -0.000377246108077451 -0.007310426406788006 0.004334672686334076 -0.0035442200382831326 -0.005104489920171247 0.00970466366763559 -6.13348749866488e-05 0.00714802377460084 -0.007592238088070773 0.009845985149827851 -0.006539147483091799 0.002570459628496306 -0.008531877668531364 0.008187773193553604 0.002169016076954869 -0.0032368644333674434 0.00021100789050785933 0.0020180949653662485 -0.0006250015225426082 -0.0074508257753821035 -0.0011060497534810861 0.007102297555935907 0.0037009418978438697 0.0033388877819481473 -0.002020741305898825 0.00018503363656076008 0.008738898189135978 0.003052822617122794 0.0035265078596567797 -0.009911345192585144 0.005860927803819417 0.008574499496228653 0.003529185615695176 0.002262149688106379 0.009829253670517275 0.0012255612242401074 -0.00832595885497653 0.005461682820085658 0.0038844563474550366 0.00237768908965319 0.007890654232346516 -0.0011292686792042095 0.004345499084472831 -0.002063314944082781 0.0012112196722681694 -0.0018395042440520568 0.006462457992407208 0.00828158714761835 0.00855392988219278 1.0219237750082322e-06 0.008072059468577706 -0.003499538749808369 0.0027384763965840695 -0.0020848091733500235 0.0010845747619942503 -0.005614398087506354 0.003911065955445539 0.00821430400656615 0.001460999689023348 0.007284525065168664 0.0021463524399524727 0.005458909455121775 0.00863035216424988 0.0014328975681701748 -0.00980257669394121 0.004029782664622577 0.004954347644597177 -0.005948690686765623 0.003070344917308645 0.004546797558423918 -0.005276142964925916 -0.009958805847838604 0.0025377445574814982 0.006172436096637051 0.0068817132832294705 -0.002603683909859234 0.00211664564654788 0.00815862254906295 0.0011487149371061899 -0.004500385739881105 0.005667294184942247 0.00041955238122262824 -0.006273009845655897 0.0006865752276332335 0.001202965884203844 0.0077599175459620705 -0.005133811812579683 0.003089627029980349 0.0036539797757914987 -0.009457885027628827 0.006753214220702164 -0.006187483284343782 -0.0036394749817149543 -0.009528465290045262 0.00031780179758247526 0.009025069046595847 -0.0009208131132928416 -0.001424171106256835 0.007624131268636055 0.006737031150857121 0.001924679396604418 0.0006226974586767513 -0.009004803837514282 0.008451004119596544 -0.007560009012473501 -0.008193127694064821 0.004744360957550169 -0.0024854247977812664 -0.00015510740106021784 0.008464242427472254 0.004268276486890677 -0.00671291815984739 0.00675360164977039 0.00836791544327537 0.005643396857779615 -0.0017065771355330422 -0.004407370783103821 -0.003983609796983616 0.0037080202198043703 -0.008264138052912153 0.007894418735250147 0.0010325297863406375 -0.006756267681142125 -0.00029063359782607184 0.004188726658906062 -0.008169593079432417 0.000742285838785035 -0.002814557406614104 -0.00018810697239643286 6.667496295584101e-05 0.004850826292978375 0.007242346442598193 0.009346245053583268 -0.008618880511445088 0.0008364519474250414 0.009497458387091881 0.0031237854398731835 0.0021124137728660286 -0.008630050031928703 6.672778800913791e-05 0.008576048539910805 0.004045632994276585 0.007416214383057342 -0.008390707140959719 -0.003406121647462246 0.006950545966005537 0.007163160855238415 -0.0027513910641808904 0.0068071676508980935 9.941504011050026e-05 0.007732853382887305 -3.326412487562533e-05 -0.009643863536655146 0.009337285331111446 -0.006571766483721642 -0.009403740744901034 -0.009128471321204045 -0.005646604742197172 0.00254033548513497 -0.0058540568876138165 0.002099174791722034 -0.009282257021605138 0.005982904657503422 0.00020658832362469536 -0.003015303538485401 0.0013394107223160048 -0.0031424233761643758 0.009154236740270832 0.0018876493278357897 -0.0027688376744798874 0.0033209843787698895 0.007347455760396594 -0.009261821772868968 -0.0022683696413608187 -0.0036493126196068346 0.00920586304124397 -0.0017350954616049703 -0.006013468971355274 -0.004561216393102528 0.0033704998045834926 -0.004374039189889822 -0.0033897172957927223 -0.008936485486109575 0.0003103462460665972 -0.0002021098737166275 0.00753773173870465 -0.0019142354275522005 -0.00269161033323474 -0.004473936975228801 0.004901335152292692 0.009040581093067794 -0.009665062112359442 0.0016525493531614407 -0.009025012558936053 0.005331453138970772 0.008245563509692676 0.005421686260057283 -0.00900356133648836 -0.00601202364118679 -0.0018067132591875652 -0.00703604348532447 0.008833741349163546 -0.0009248850127752759 0.005121470601549952 -0.007091679270035909 -0.0064724413627305095 0.009152140393091505 -0.00021558741120824426 -0.007976333187861404 -0.0032894544520761775 -0.007613077547476448 0.0014093379952084123 0.0029802178909940566 0.003582226929321475 -0.004993525535626162 0.009530658178930717 0.00837795159854277 0.0026705740563362085 -0.002520384237988489 0.007334915064463926 -0.002962585202987889 -0.004673249449129628 -0.007428629222354766 0.008313465638616945 -0.006714082433528515 -0.0034016707846103887 -0.007028062505349155 0.006804727252631515 0.002569525969743339 -0.0010528166665447133 0.0020822937545800484 -0.005182491113505629 0.007529299689136041 -0.0063401359757424645 -0.008746588571178495 0.004819108092362322 0.0055011904787809224 0.0040152564633700785 -0.005620641472590051 -0.009218883565720391 7.10777327497334e-05 0.0044155136794270505 0.003603978936512953 -0.008052753390284821 -0.009164073001305404 -0.007091835693725639 -0.007836512195680887 -0.00015784936169280575 -0.007482726501271646 0.0014549165282291814 0.004400787413349738 -0.008660838216497347 -0.0007516651230874815 -0.005338603536828883 0.004794466560381244 0.004924829340739501 -0.0036423233099126253 0.004267302234117061 -0.008082646586521447 0.0035841924961569904 0.0075108164971625525 -0.008129461493925728 -0.009733712402874482 -0.008562291539259876 -0.003065665231253072 0.008342246108123763 0.008909278961210057 -0.00931952535464258 0.0062609620296004195 0.00041704125369176545 -0.007313704351529409 7.633538162726827e-05 0.005887863410476037 0.0003728342817287539 0.0033711332442495027 -0.008858682457343552 0.0052634935537985775 0.008056018705540754 0.0015515452197930064 0.003339299106310074 0.009276843719004937 -0.0031397875458119744 -0.0026945390410171898 0.0076029468808963396 0.006352949956025302 -0.000269181079105894 0.0028244272872792794 -0.009341864497945504 0.006065141984596451 0.00467991498372693 -0.006302065786471938 0.0003143881945493667 -0.0026264495471277826 0.007814941144827383 0.0019251676040253646 0.008477704448630689 0.009209010145405415 -0.005457995651497456 0.0008058241103634338 -0.0011155100766511803 0.006817519562383573 -0.007042089469162826 -0.0032102328319443645 0.006897366728463783 -0.005592776730480724 0.008145491194081584 0.004368468242671994 -0.008428365305854498 -0.00655176264979291 -0.0021937801175693147 -0.0010284692061839958 -0.008149536870260878 -0.003941418113165234 0.007682927595826122 0.00548346952522555 -0.009418825978167917 0.007185399025031415 0.005051384672526931 -0.0033022060523845154 -0.007726001279937184 -0.005107165657688346 0.0001254613984215322 0.00374653894544239 0.008642393561260344 -0.00040701708964082164 0.0013200683669600723 -0.00285646498661561 0.009396016593319545 0.002734483167360517 0.00588590678446428 -0.00044637095743067963 -0.009525570617002354 -0.0037755613469861535 -0.003211933153915072 -0.009711438437703033 0.009011786346980159 0.0072757400756652425 -0.0014213476097564189 -0.008357807724958205 -0.0022953763258131412 0.007415379659467569 -0.004754963964861192 0.00868685258765624 -3.290673868739519e-05 0.0054299502987560505 -0.004475019384623928 -0.008631584281371294 -0.0008725943684486717 -0.005799495200576501 -0.003616778905237002 -0.007308474241938581 0.009209882429375227 -0.0034745444191828503 -0.007190784528699786 -0.00961257751924105 0.0016352680583082944 -0.004499732715648523 -0.005988535896210075 0.009896996965091812 -0.002074846168177928 0.007223367311960315 0.007041660655740212 -0.0019190847391838007 0.009055068484051526 -0.005389493379313537 0.003834359579006635 0.009019474401417026 -0.00934509935630771 0.0061016536591419115 -0.00680100843803298 0.00972492172750109 -0.005007443505613392 -0.005445971644857033 0.007739643364075023 0.0005397885957029863 0.002778007033504948 0.008193184673328502 0.004251511057289031 -0.0017431383206108694 -0.0037725105355767476 -0.006512458426187577 0.007393708895877026 -0.004674295651208875 0.007679098385212307 -0.0020590036990786875 0.0017028507218352761 0.007395678818297115 -0.0023061957233859913 0.0050195097162870315 -0.0049881259705048244 0.005495549296433214 -0.0001184138841352541 -0.0014689519950860756 -0.0029059226654888585 -0.00460992649385106 -0.005738513286857787 -0.008932882219175311 -0.007479010747574724 -0.004867206033991878 -0.00877712972539913 0.004554751454777501 -0.003283624837532555 0.0075824272590589385 0.00853891673506532 -0.0058679203748341615 0.005807383014421056 0.005184763828056896 0.008551236681810728 0.0010336630953603834 -0.007814759993826637 0.007129251975648456 -0.006383376138171084 -0.006823002543285621 0.00021861298853978126 -0.00819454883295971 0.005358505981108319 -0.005282244316467133 -0.004095917356177969 -0.006979102142161608 0.008964519948724005 0.006405306874710101 0.001828826688959017 0.0006015064753837913 0.008684591306941969 0.008353393947747091 0.009631823377628778 0.008032349453167055 0.0016439821471835956 -0.008992035157434738 -0.008059164611425954 0.009030701158605563 0.0031457956769345014 0.004120915386425582 0.004273265168456214 -0.007704037115048066 -0.00039481516564803497 -0.0001588685407369131 -0.00662337416531395 -0.0027379054023278764 -0.0005718686057382839 -0.0019661097035043977 0.0026420851498495292 -0.00877201323551231 0.00458301778225151 -0.0012534377105214121 0.00295635042510751 0.006145833214997799 -0.00931413122762164 -0.006178982730033563 0.007689471944877001 -0.0007290285927128697 0.00810554118167294 0.0049038882307950015 0.009776198013778251 0.006813023933280505 0.008547003324160423 -0.0015925328218642943 0.0077086316289360374 -0.008787172948083215 -0.0033200258774732736 -0.0023927305479488157 0.006574342916846837 -0.0018510337809509395 -0.006135370883163536 -0.001408428146859016 0.0039434797074439885 -0.004112263486824077 0.0043794646960777 0.006931921406436016 0.009190981476283168 -0.005368981774371582 -0.003837217790793379 -0.006600334866322846 -0.005278493277977892 -0.0024055475009309582 -0.007224127731415182 -0.007912581447547511 0.0030810272155093604 0.002668285944613597 0.00025827509261694935 0.007249490047281105 -0.005929511783594417 -0.006302753260690781 -0.007272228906454174 -0.0029342456539701604 -0.0016176572057967319 0.0028658092469697888 0.0046820878574157735 0.004458342224596443 -0.008725469526553144 0.0026652814547482497 -0.004433477897487546 -0.00985568838655437 0.007442740270999169 -7.355620423670287e-05 0.007323269909563163 -0.005568070418111408 -0.004707862626776398 0.0008330351991254776 0.0003907375661078884 -0.004145937070821766 -0.005438617768058342 0.0026260743336493243 -0.0039279751931369745 -0.0030224676350124376 0.005593869497064334 -0.008695877778032856 -0.005326516293006387 -0.00953409248617231 0.00893916658763621 0.008304456911203772 0.007280800624517506 0.006493515592982781 0.009209608914168053 0.008910300982245626 -0.003313939339914815 0.009222102762113852 0.006276079468935105 -0.001194564384820367 -0.0017465262859519132 -0.009555277743711052 0.004387176726982866 -0.004076658147815395 0.006502184785011 -0.007992828891962867 -0.0002793144252009553 0.007753245025401706 0.0007813639198663291 -0.006268749113109933 0.003142194549186182 0.0019116813325779497 0.00949682809034298 -0.004406816992090929 -0.009457401370788977 0.004728077406090783 -0.0009109810010684213 -0.0023672056796313987 -0.0034229027244794506 0.003774702280484439 -0.0075797631091054 -0.0005776656196630411 -0.004470136258217515 -0.008751209193673249 0.007344415696648126 0.003041001129402152 0.008499751094670374 -0.00950131080649167 0.0024580876359787188 -0.006926700503582326 0.007437848342021288 0.007964618922706541 -0.009780913046429605 0.003962043919620642 0.005068275646608132 0.007364240747651895 -0.00256342453846963 0.002285190376530506 0.008675321309322961 0.00399422433146464 -0.006727082637619446 -0.0006348630703543415 0.005066065000084483 -0.0078031520698779435 -0.0034695548170287794 -0.005143988337763954 -0.0004403946308253314 0.008383269173750983 -0.004660208826357863 -0.009755246359757283 0.003985184602394817 -0.007406181745153631 -0.0002218281281530718 -0.0026702405855274633 0.008575090865460341 -0.002506252832869798 0.005436874254294191 0.0029824229737705 -0.006168320258548519 -0.0012972653894407563 -0.0008685803050831557 -0.002537021230564503 0.009141899398076922 0.0026659080341988155 0.007554777906184343 -0.004168163281463722 -0.009742535632006295 -0.0032081782727484964 0.00727638526683211 -0.0001759380045279757 0.006246134024667864 0.007611203971319697 0.0012669180132318207 -0.007095061195620156 -0.002909520644398371 0.0034715135051572206 -0.0013487007372859055 0.005961731755596963 -0.0023279690301734957 -0.00824252225294938 0.007812813958881846 -0.0033810661279251673 0.005830520186286691 0.006683724568368471 0.00036539842432820567 0.00665447201207524 -0.005342140259926194 0.0014636553878114716 0.008481593613028247 -0.002446636155779676 -0.005401719805522391 -0.0034889858497972595 0.00309258758482496 -0.0009272574386598662 0.0051243205778453045 -0.00372955962128559 -0.006239517621361086 -0.009174097778239257 0.0010840556759098181 -0.008141244634710726 0.0030234615943773354 -0.006698097526723783 0.007364462771111311 0.001975598614966491 0.002601680297280338 -0.008884478158956993 -0.0023103825462115228 0.00086194861490539 0.006613129425353069 -0.005053134628553799 0.00322610743002588 -0.002160463945309528 -0.0036702554941832654 -0.002827974858322582 -0.007255409444218383 -0.00336983709842964 -0.003907284705439569 -0.0007950956454194635 0.007139125610191066 -0.005007892837865358 0.001785438374152428 0.00302097368950454 0.003792670835509524 0.007291888351263159 0.001188165097837597 0.005974115152230947 -0.005902272719401136 -0.008143855053171592 0.002135744561427849 -0.004666489713807831 -0.0029234282881366713 -0.00824109545612965 -0.005854739224609256 0.0003190601778204523 -0.001636501699106039 0.0013764902891477485 -0.0071950567987508224 0.009025872897653034 -0.007641554597558036 0.0005331029052969508 -0.004699824496266534 -0.007768888735908214 0.003571061326164797 0.0018076875962946652 0.00811136708406175 -0.002870823367596988 -0.00102730680920958 0.0034244729062924435 0.0012043663288704449 0.00392609918339475 0.0006731338604151187 0.007370572715657735 0.00999037494187077 0.0066012652959303465 -0.0038584303556156207 -0.009786597830800244 0.005182737488955343 -0.005900131785958163 -0.007283640049535907 -0.0025082655956299507 0.000747203779226208 0.006248655139696637 -0.006906640408966054 -0.0015907828861904186 0.0055284550352069604 0.0002179138202426014 -0.0017875525802590712 -0.00841433143907582 0.00796863049138555 -0.002847491635397499 0.0009758662313345701 -0.00724209844626527 0.0006109181793777247 -0.007001440823465892 -0.00040896249840055056 0.001894626179585546 -0.003742346886034891 0.004393764002949961 -0.006966059572004844 0.0014345922185090097 0.0005262863819346947 0.0019309511486651186 0.006134474277027539 -0.0036189597575805735 0.0020984850059903182 0.009043217077726385 -0.0032828848929735213 -0.005235207349241371 0.004283381013547598 -0.008259239361281328 -0.0015013671452805827 0.005707699336894091 0.0011457717732914381 -0.0024821458735004255 -0.007617973428660183 0.0015252642043858278 -0.0016634500268312095 -0.0032912650898220975 0.002461858283769776 -0.008884609442305654 0.009713868478990485 -0.009589646953313113 0.003212331455416868 -0.006063171974233508 -0.007539553785679149 -0.0028971851639393933 -0.009662896915331527 -0.004147354966527037 0.007909315486142576 -0.0007528334900934169 0.0031412066284306553 -0.0017744624252435306 -0.001562646191344776 -0.005285976918908015 0.006761139459818698 0.009619340868150585 -0.0028863116593076986 0.0006939683139955809 0.0028308248038691787 0.0014018287564469007 0.0034418706040638923 0.007059245493301567 -0.00027122871933104274 0.0004738746205163475 -0.004913395568222858 0.003157540682088263 -0.008592150043614135 -0.0040277744712218545 0.00925859940712598 0.006268089991771185 -0.007255773393853491 0.0007249699382119723 0.0007834723619989711 0.0010168016528500495 -0.0009468215645206217 -0.00025198060792382473 0.0076671190113092435 0.005079954705503598 0.001978151528935693 -0.003967354229196316 0.0004928720957583614 -0.008951710927039749 0.007337549924556744 -0.00660750350018624 0.009141656074913901 -0.0012756516476325683 0.00739719462809601 -0.008357173839893735 -0.007923970084287729 0.009365950763032987 0.003286477235764895 -0.0005630974562999009 -0.004687094229525717 0.007546624991827148 -0.0036625638542536086 0.0011176060609118538 -0.005359890634503124 -0.0005535899841732708 0.009802569075396029 0.0032115039572327333 -0.0053114730364549395 -0.0041349642225133485 -0.0003320794270213305 0.006626987835101938 0.003912483802433506 -0.00950476859873482 -0.0031834101457960265 0.008139473361532886 -0.006872029578844054 -0.005084791920647816 0.002777983461137272 -0.0033566849554058174 0.0010087837839756926 0.0024666196993086455 -0.007540058967442709 0.000495381333493224 0.008997127606353185 0.004580218039163858 0.0026038968439289992 -0.004715366789177756 0.0024746868947971117 0.007379386561925003 -0.007335663449481773 0.005205154456047259 -0.005709322625589417 0.005197639802807378 -0.008450659650349128 0.0030789429436279877 -0.006311165611642388 -0.0033539681255238965 0.007431624343891422 0.0032933747199874134 0.002690687769390982 0.008382777761700681 -0.007828320834161982 -0.006600093188992482 -0.007175934047265202 0.0016812530801499862 -0.00897640873555709 -0.00501302205696821 -0.0018942175390591794 2.781884637254213e-05 -0.008988746482142203 -0.0011051320529598726 0.0005288389480789784 -0.0006319676370655555 0.0028246486670811914 0.0060737610946253375 0.0020869076051094355 0.005521359165349814 -0.0009198160126929218 0.008122473963476417 -0.009692569752935361 -0.007552614495913499 -0.002431982194143265 -0.0023994211501637544 -0.002722581861214211 0.006935987119794701 0.003905376382895301 0.002950538211055157 0.009964787916842055 0.0010605307016778639 0.0034923736389462934 0.00802799362676161 0.002705214805745048 -0.0027030969011318986 -0.0015188691854925666 0.008531538070520537 -0.0022620466060301967 -0.003911163226644226 0.0007897704950689463 -0.006729669498924198 -0.00019692146025327914 -0.008176767525041229 -0.008115222489617093 -0.006194817149663381 -0.0016671344244281322 -0.0008557691172847263 -0.004757839989113615 0.006066938696302633 0.001570494283425778 0.007473679842602216 5.092481602062514e-05 -0.008078412884488103 0.0005532494625739223 0.009559174368411956 -0.0038672628092304316 -0.006638935527793162 -0.0095497750758568 -0.0020611688770064036 -0.006604859512299828 0.0011831143725740331 0.008547136280279288 -0.003796267330192984 -0.0069276981283168506 -0.007164885660606498 -0.0024932365057169607 0.00742666522968609 0.006764932305388169 0.0014332488187011952 0.0033031576790242285 -0.005148593895852292 0.007494997493886232 -0.009463089278693411 0.009293348922577037 -0.006859225202133059 -0.0035886971232784197 0.003557042847691807 0.008758572934245283 0.0047564184118479205 0.005115436729276574 -0.002152761087519035 0.004699672908088148 -0.009543057910605845 -0.0027343285095888775 -0.0029848435541700562 0.0026475084847017803 -0.0008490341409368649 0.008835715013423067 -0.009079441279876088 -0.005533173189755054 -0.004457076320865281 -0.008776162910697237 0.009744508270666983 -0.0037830569819254454 -0.0007125477461117045 -0.006404307666485752 0.002968648950841311 -0.0026864906925905463 -0.007067124641812188 -0.007007885229211554 0.001910265562928632 -0.006518435938429754 0.004444023168572878 -0.008470109299933424 -0.0017469870028020001 -0.008225510989245897 0.0018231451300872274 -0.008130026501649443 -0.004144587425515311 -0.005844670591390262 -0.0067878874930761765 -0.004341723539594548 -0.009213572725822112 0.00656570472451422 -0.006593532727354066 -0.006364054698670208 0.003813814523026907 -0.008091624276665226 0.0007218897898497965 -0.007071200796411825 -0.00420377662818797 -0.003036745904233513 -0.005401014152303654 -0.005674981673798387 0.00024405914716751909 -0.0030809841248357304 -0.005442112528017742 -0.007103171627742984 -0.002326017826551086 0.006905209005798713 0.008454906580194163 -0.003926056014377115 0.007900504557674904 -0.003435653452293186 -0.002160274159666015 0.005410363778429007 0.002306795939248261 -0.009884875419799937 0.004507828467209894 -0.007456567849112428 -0.00035657932660118803 0.0014464458362666091 0.0003968971376928747 -0.002253221272710753 0.00588121572588641 -0.008776973559845682 -0.0017678854701910825 -0.008785310918497831 -0.004545454598198551 -0.003689050564398462 -0.009974996255973657 -0.004808501721021292 -0.002924638886974895 0.00491540160210769 -0.0022182992772777623 -0.0016320109676035404 -0.005449698543224508 -0.00965606791780203 0.004954786530624649 0.0017368487878059828 0.0034353703676447724 0.002921806123305731 0.006950210557542606 -0.005272522451057378 0.007013970982853451 -0.004620664264889405 -0.006587806398601825 -0.006147445777009597 0.009747723639029043 0.007584103335093481 0.0016368535467242533 -0.0030207023866512927 0.003982870256630059 3.3038476471845477e-05 -0.006544741137540107 0.005094332038820423 -0.0023179476033344673 -0.005858186562528454 -0.00667996215455976 0.0015275241886561885 -0.003296668225248516 -0.0067449160430338665 -0.005228327823473386 0.009758602356341064 -0.0076633450621302265 -0.0042073591252328015 0.008971858537608896 -0.007810615538109331 0.0011370930666325923 0.0011792081469933838 -0.006181555387047053 -0.002882271679821191 -0.008352285421131993 -0.005111987827419462 0.009674507982728503 -0.00043057338186814655 0.0005283716037976418 0.0050733934541110845 -0.008318583093816024 0.0025836266210944644 0.005440129092218016 -0.0044467265938698455 -0.005004378854384018 -0.0032231223703444957 -0.005121898428618155 0.0025999171089133542 0.009618545253176186 0.002853441582054401 0.0040542773925217705 0.0023216083563344196 -0.004922687194332776 0.0044953465480138295 0.002369414289070535 0.009194173023059459 0.0005425866236042215 -0.0009972637225681199 0.00862209158125902 -0.0014531681893975024 -0.007080596667889247 3.1289349377133444e-05 -0.004285248309561971 -0.005587988476253143 0.0034864806103378308 -0.009162610370903468 -0.007995944949729609 0.009469016715639928 -0.0010020067615991255 0.008675223681863483 0.005648161637198874 0.00442022387158345 -0.001925758290192918 -0.008929388546058513 0.0056459752033823935 -0.0026962456701051483 -0.0005402741133976978 -0.001644786540572974 0.00037926104355191954 0.005235811641740798 -0.0007564449862503039 -0.00010066829163458968 0.0017974595753641395 0.00673078447919997 -0.009927968728555107 -0.0037669017679177056 0.0016396724943948653 -0.003468700535189926 0.0009229941996212031 0.0034702785900963522 -0.005464820456505803 -0.004942911184687731 0.00010840462657821757 -0.006884132878013902 -0.0012639791357649793 0.002428928400482963 -0.0012064618011208457 -0.009968693547286203 0.0029427070184374245 0.0045607903480558275 -0.0016002232485488113 0.007923925510968743 0.004529394912838203 -0.007522480090977741 -0.005701597056631531 -0.005224291334191951 0.0006257905963081081 0.007114887528392672 0.0021211301472640973 -0.00045033089550774313 0.0008420526204628957 -0.0037094178549836147 0.004959736224690647 0.008344397239174893 0.004207650824619767 -0.008982041742576332 0.005018702655585568 -0.0038575807578503677 0.004930380267797192 0.0009566322036670977 -0.009223777379768719 -0.0043097357854737185 -0.008994912438928035 0.0029208996399888738 -0.00567777467750773 0.0007286071946766785 -0.006731384125511388 0.008336196879008976 -0.009197177891472287 -0.00538130382861882 -0.00676214574152638 -0.003853792362761799 -0.006979303024099912 0.005367112522731608 0.006084295800688923 -0.000794031174310832 -0.0002282054362473286 -0.007816905712535169 -0.00358940766075565 0.0037643063316309348 0.0010444178741880403 0.009067090630114532 -0.0008162458774943499 -0.003911439269143486 -0.00212066322918765 -0.004569266607413061 0.002133718534246964 -0.005544353262916677 -0.004294445808714849 -0.005449941619341842 -0.001924384872637814 0.006378025148912251 0.00711145876975054 -0.0074522612551063275 -0.0015958021063840148 -2.9648997763189952e-05 0.004811464718927894 0.009389676033954271 -0.007396899646091247 0.0015391692466668206 0.001963444254479741 0.005382646236840257 0.005764550880579951 0.003822515514490756 0.0004819659902185174 -0.008346930840512152 -0.0032306618209069996 -0.00824079962835101 0.0014018950615773702 0.005665669927145152 0.0012461654646853289 -0.004646109802085623 0.009417207147824203 -0.0004503436583205341 0.005874248972804032 0.006599299260843098 0.0024724897979045406 0.0016420077962085201 -0.006754409800389394 0.0006325616764964685 0.009862237550436892 -0.00775069022130513 -0.0001666321088086356 0.003302494460889949 -0.002599105161081876 0.004217305432160591 -0.009859514391034893 0.00709628470345341 -0.007063446132651202 -0.00452341742610993 0.009025343127786549 0.003275257093774679 -0.0042437736371765886 0.0010637945740760955 -0.0012502931844412882 0.009554891760994161 -0.0035005030981488773 -0.00539014933866099 -0.003912024918883781 0.00695507812674971 -0.0013921447475215044 0.0019974571244063596 -0.002429054339920411 -0.0035989280688109564 0.008057308313089937 0.00451102960917857 0.0007858860643945084 -0.0016950031440817852 -0.004810893040972326 0.003643162571715588 0.006920085374482974 0.004292238072105095 -0.0017565534042993502 -0.004092736539145607 -0.0018566301084397257 0.005292885848552198 -0.0065675767534343656 0.009746841845016231 -0.008779967346753183 0.0011883892379769279 0.003621175893069553 -0.009512381521646206 -0.004652420453587678 -0.0011729128420168017 -0.0059209876745563465 -0.006601133662102902 0.007461481518695306 -4.4784723660000816e-05 0.0010223206711680085 0.007498916872085705 0.00632303486406466 -0.0020415524287421445 0.0055611104505104356 -0.009891250689901144 -0.007502763578122871 0.00500811766427374 0.0056443586282003255 -0.004291592739100607 -0.009594981144242143 0.007356066062366615 0.004654650703544762 0.005637817895300034 -0.007998670334039575 -0.008033450281549384 0.0018946335837979698 -0.00514073686687476 -0.0057969242841952266 -0.0067278390891405745 -0.005032164329377396 -0.005802771961996182 0.0066934271583536185 -0.009519410945641339 -0.0026097121111851584 0.0037324700905640128 -0.0007714745510450823 -0.0033046125477752698 -0.00997087642607757 -0.008981502817708152 -0.00863015705932381 0.005654182494739727 -0.00973900306293122 -0.0024131052664542497 0.009493328945559277 0.0032958363054034073 0.005483939377486754 0.0022160611599132737 0.003220159795443404 -0.008164816005286162 0.005369666657127067 0.007532585793987459 0.00783653892894312 -0.0036119120712034426 -0.0020733132068455947 0.0051497107022410865 -0.0014434548913652995 -0.0031879861006303464 -0.006980531436729676 -0.004355989756395362 -0.00459304225998197 0.0013428430264637425 -0.006534129122366335 0.000588946143499575 -0.00967422634551993 -0.0073517073172837556 0.002895087821341546 0.0014819867860242295 -0.0033311145131278506 -0.001396081434099146 -0.0016359145645486062 0.007492932301615711 -0.004103034945897794 -0.002930765718354709 -0.004180762209006028 0.006969251147500551 -0.009075129655888164 -0.0060183476208855 -0.0015654762735237294 0.006715150858376042 0.0011124371480374044 -0.008714800668662502 0.00849792574953682 0.00974979528268812 -0.007980219951804266 0.0056420126279208924 0.004636629149348776 -0.0005328081781203337 -0.0031557125024496233 0.006118147218889725 0.008734651074050614 0.0003059246836282156 0.00311222776176189 0.0030535504381065046 0.002733142756304173 0.005704913465374559 -0.0057858361891140395 -0.002552275573505172 0.00015037771239053907 0.00021454734000839366 0.008079341602078688 -0.003781300569726474 -0.001133291314124903 -0.0015017027057951122 0.003735832606029752 -0.008672644112016566 0.004518926485890409 0.007804216974909113 -0.004800578592539621 0.006796051643008888 0.0032601631860399525 0.0016908693371561825 0.00848490626406107 0.006782658798172298 -0.006406343906560924 0.0016884556896818934 0.009014683402859087 -0.007742814428356049 -0.0019063483865118958 0.004655139173369153 0.001149672849377668 -0.004999872703398763 0.006929720824900261 0.0032144533713802208 -0.006731849310396303 -0.0006208868293401861 0.005432950099331842 0.006577927091122709 -0.006562607127478309 0.003030415853172614 0.002739571760164034 -0.007486118383454577 -0.0008682741310000533 0.009987009874729757 -0.008672391412433025 -0.0009069367981042204 0.007437331696267617 0.006383230718962246 0.005255950611429715 -0.00965809790273058 -0.008500073358303162 -0.00745297479819196 -0.0022505369275212187 -0.005837875256057141 0.0008960276888650039 -0.006612411493564192 0.00611362767069039 0.007431151546315724 -0.003896626789584792 -0.008961311751498533 -0.001838171583568667 -0.007747120619541555 0.007069710482980626 -0.0007345352601721561 0.0036784420931401246 0.006511300808823025 -0.00820166499085296 0.00626934459486536 -0.009856755876734798 -0.00772662080717962 0.007281526666173316 -0.00787809002371833 0.0043856723355911505 -0.00026378768892124267 -0.00478954841712047 0.009699002678288026 0.0076140203775876426 -0.007763953055435147 -0.007901980700433154 -0.006780767707842528 0.0051086227470251416 -0.006417517486037494 0.004134453746516234 -0.005108151666758565 0.009049736335639746 -0.0032204510311800404 -0.008537591637901886 -0.0013253931067775289 -0.00042343617496867596 0.003977535305579108 -0.006435972514799193 0.0004018104437110877 -0.0015237140718129451 0.0063769573295013125 -0.008823083296680922 0.005014890936898442 0.009158657973783126 -0.0075158315224976005 -0.005190353991262924 0.005952526450851271 -0.007284306266895171 -0.009877626358998701 0.00849240333802378 -0.0018663265671973843 -0.00295563617352343 -0.003822433461185424 -0.0021631030487230408 -0.00933253982058831 0.009932468107879818 -0.009331469600028133 0.008219710104920579 0.0032383971528246996 0.002497966052565734 0.0003422277482690722 -0.00857614808897324 -0.002231794234945175 0.0035030839882320784 -0.009383407357406438 0.004484468621626141 -0.0010047642749567449 0.0010546592998895397 0.0012991534044555948 -0.003499374507349531 -0.002905444753836719 0.00841185016931857 0.006129903428453981 0.005345360417263311 0.003008095182069164 0.007332787137810227 0.0023215867946566066 -0.007929848756196343 -0.006649551359566033 -0.007826301089393197 0.007247321206037419 0.009599485314556256 0.003639873606824145 0.0014846197605590458 0.0017291589311592553 -0.00762806733756364 -0.007607842943420404 -0.009786643818786956 0.0016372892640662707 -0.006503922706394915 0.0043276008883593835 -0.005141455152400749 -0.005425913363596491 0.0093056034364027 -0.005264061134441831 0.008265192694698388 0.009714132808443068 0.0010713797398735764 0.002370621094259751 -0.003810982841724684 0.0091500995434252 0.004327143039620292 -0.0003028905599258072 -0.009183995693157539 0.009903853552068438 -0.0024984549067011462 -0.006816397377163958 0.0035485412526694467 0.006503125463756516 0.004064240486789574 -0.008194003885232188 -0.000264104893757831 0.002701145296288572 0.0029635048311376106 -0.001328245985175707 0.009893472906472639 0.007256129300670303 -0.008965323924326994 -0.0015298648572126521 -0.005703034777497733 0.0007193177929710505 0.007925670706967152 -0.0049152534440270994 -0.0068008144549817785 -0.0037657079425904997 0.006465668465022419 0.002343873552591325 -0.00018949434002923753 -0.0023913935349240516 0.0038243810622488814 0.00037755490294331777 0.00713906144709278 -0.009545594494699338 0.00935752995770619 0.00549396211380259 0.008206906910931242 -0.001460883889091956 -0.0009507200278676357 0.006726156805605196 -0.009159620142962333 -0.006771514000342902 0.0008365705757819274 0.0014279065344313217 0.00903488177515663 -0.00092517877909358 0.005080724988678549 0.004587638714146181 -0.00972283757725479 -0.0052920302282319165 -0.0018947000887662296 -0.0065710426745428175 0.008598255504882609 -0.004276552701979939 -0.0076927825921630855 -0.00612563330973862 -0.006502683114864392 0.005927551095123594 -9.98981779512867e-06 0.008903718613976363 -0.002952166862100072 -0.0017672004580007467 0.00985700449710277 0.00013622989929916451 -0.009706618703642794 0.009870468845348269 -0.003300154323616535 -0.005802080446974702 0.002372346503027983 -0.006852042547960586 -0.0011369100401323242 -0.007893053468153999 0.008401840818824014 0.0009280978821393955 0.004910356249112496 -0.004862348005832627 -0.00026513077409864513 0.0013769498724135066 0.00728173298618459 -0.0017998791720555182 -0.0009297907803594765 0.0035330755151728507 -0.004177945797878373 0.004591047762838318 0.005987417569292769 0.007635663243398346 -0.0059295341864920295 -0.0064420343446561 -0.008045456635704796 -0.0019426327647992497 0.006341033681822856 -0.0006941923490186297 0.00015273540571121222 0.007989671176868085 -0.0008181411534530243 -0.008750597759572539 0.003984422384092865 -0.00035941784617671974 0.006918280104272827 -0.001489676409561179 -0.0006698445924358705 0.009205221345210983 -0.004492446834395372 -0.008739308608506698 -0.004198484363748018 0.007582351906337026 -0.008652528843371152 -0.009375033875982755 -0.002714311014096504 0.0032756030652930316 -0.0006641188922965058 -0.0025796944578218347 -0.004159768000330473 0.008334980985649798 0.0016181461038610317 -0.002940858045737518 0.004951133105298582 -0.0029809906991805617 0.003770329002461612 -0.009832516408998746 -0.003845986308064424 0.006276982001275874 -0.005494868035057894 -0.009339952085426389 -0.007870863054782618 -0.009456658912647518 7.656371182929861e-05 -0.005307360747601942 0.0063447766403340235 0.001859196150017733 -0.007562889429436717 -0.0010635319619037558 0.002319251828746269 -0.004197201297228357 0.006747680905264118 0.006927823553986476 0.003599707358308302 0.008893157332117553 -8.67971633866961e-05 0.0026231569747224275 -0.005810875981869461 -0.008493599775300375 -0.0016373906806515359 0.0042000857403028564 0.004808988503252849 0.001344672967551721 0.005057248121908376 -0.0016172043135013036 -0.00177583805484372 -0.006093772966689453 0.0035974136086320482 0.0045853134050277845 -0.009497982638148586 0.00492895920746135 -0.005826974111288157 0.006537257088780614 0.0013769654364274922 0.006971503754917481 -0.0023378815296011737 -0.008269804964263248 -0.007612538612506839 0.003801491039296487 0.0081687075586205 -0.00840201570427001 0.0017982583213638544 -0.003254699363626574 0.007200138458851391 -0.008840996380760231 -0.0060202425331651105 0.008829792623672351 0.007702518987621016 0.006817122465253471 -0.008417398489970472 0.009981870635652519 0.008906201430169102 0.0004899010773459552 -0.0005148912843009022 0.0011951421283197504 -0.0006516336275168722 0.006467989642806466 0.0018601417045430342 0.007209224475579984 0.006485361997322291 -0.0012708008711901312 0.008633688901644532 0.00885745828312035 -0.00845834715798538 -0.0020517600346941518 0.006257098974998642 -0.009370955020868892 -0.005672517648215947 0.006864266386494176 0.0047220035425636925 -0.002090189486878613 0.00958968859146002 -0.0029660787638528686 -0.004812962620531989 0.008354133009314134 0.007331091504148101 -0.0026279344587737084 0.004992429794904255 -0.009665601756487965 0.009588468071993097 0.0020895360003501534 0.009825639163830417 0.007401755774723679 -0.00012215261333691635 -0.008399740192914236 0.0008499355064517291 0.005752536885204445 -0.002199597450453801 -0.006581440001835533 -0.002484836388981884 0.008043811409929288 0.007551768137654938 0.002375187810430319 -0.0040937887726069785 0.0008196589671960724 0.009564265311610832 -0.004880883954700173 -0.009930336259786518 0.005616281796780009 -0.007847138385920611 -0.000797116450968454 0.006350779960315947 0.005845531593762018 0.007788346968290961 0.0072287310167861215 0.005969766782340154 -0.00012995460881673644 0.006007083903200516 -0.003913921537016869 0.002666734088942224 0.007911170652759836 0.0020100957648408694 0.004879899691672634 -0.008608134668777679 -0.0011715214676507463 0.007094011982923637 -0.0051544965841647935 0.00718583292327349 -0.0034146099924790164 0.0059933851642837 0.006856964967385746 -0.003002608275273002 -0.0024567073748973578 -0.0036457340147767383 0.005826773770560683 0.005644283482006329 -0.008496369688295187 0.006716754700684521 -0.009872422847849689 -0.008888078706704657 0.009631371848873327 -0.004531381055587569 -0.006574536962425026 -0.0021511373819454293 0.007252628606515965 0.0038960823361356336 -0.0023125853966726798 -0.00011603023267272965 -0.008137203696004808 -0.002666395659615248 -0.0020782977137752106 0.003979047895254608 -0.003309933519008255 -0.0023832126997230477 -0.0069119821562250335 0.007109801265573158 0.0007714578662262016 0.008384745182493587 -0.004568140560932972 0.00660003455257366 0.005049530718912332 0.001920281806588717 0.005126044095360794 -0.004604666018609085 -0.0004341084462230124 -0.0005733807196045809 -0.008856372537307443 0.009834788827368953 -0.009211301995410339 -0.0004000883607383019 -0.0011921004277219132 0.00332873289210402 0.002089124200624735 -0.007599987600656042 0.0016967723682522196 0.006616861625831699 0.0004714364543917625 -0.00647857275420269 -0.009026736433920868 -6.08641125263501e-06 -0.0033123063071702763 0.004333945041713791 -0.009895006782001508 0.0012147947281252857 -0.004894756567303014 0.005743226062258607 0.0032080592635934727 -0.008421663094926868 0.0015840388125280547 -0.005647139039641856 -0.008328738117161356 -0.009095382312504438 0.0033619808468741755 -0.0063782216609599976 -0.008828170856284184 -0.005778089787655434 0.009197122363900462 0.007881533009153464 0.004324240801259458 0.003160535134942714 -0.003261083344084181 0.001499608583826804 -0.0012013132284856634 0.005282827019355469 -0.0029171379191028704 0.007817159923625904 -0.0005779227159241392 -0.001716540629385038 0.008654279640239347 -0.00926888368238214 -0.00781497320404998 0.0025774416336471814 0.004156037148621776 0.0014652233011783703 -0.009213311956965968 0.007296164878618816 0.008825969753094185 -0.0007179298792103911 -0.00397183712269042 -0.00946983494850509 0.009623215699055934 0.003595930033710948 0.0013886312304787589 -0.00979307031290941 -0.00865626536160091 0.0009229416260776377 -0.006933605801739526 -0.001507778631559471 -0.0033777213201938118 0.009989070436386553 0.008431895585001058 -0.0028720045394897784 -0.0022672180784432203 -0.0014531775164298728 0.007382988634027468 -0.0009759518264946584 0.0054969954749316124 -0.0022128981548367645 0.006741221953271185 0.008111860413464912 0.001516620685779133 -0.0069479087242200685 -0.0024745381028333617 -0.0004004853370725009 0.0031239665813271884 0.008496764563790936 0.009389286278652863 0.006800246304886544 0.0066072255993122 0.0008810587653914452 0.0090099602794731 0.002870882889294435 0.0019697994732740722 -0.006873042674710961 -0.0015764801375486373 -0.00025135310682525107 0.0016082382359572708 0.007829866272028202 0.002328159432423307 -0.009500136097825535 -0.006125924481295673 -0.0033953742249616115 -0.007784743983339589 0.00629476582942687 0.00664149632817331 0.0024412085595133335 -0.008146099150456342 0.0008730303238201498 -0.006282175380487951 0.007050024738523819 -0.006393265031776043 -0.0014488336685836573 -0.004079507755127047 0.003735276775064562 0.005518960773110015 0.0048760137376537265 -0.0020151057713010383 -0.007018938036842743 -0.00542225973052195 0.0015505145266465382 0.006146204120550851 -0.004599664623067772 0.008983851178772954 0.009566559965408302 -0.0012243512882040286 0.0010041791322552545 -0.00888149739580639 0.007821675717072757 -0.00715136308543106 -0.006892497725854607 0.0067802964034961635 -0.006938372860080522 -0.0022255661359565785 -0.008783625240810788 -0.009536982104660262 -0.00405517765708233 0.0031683374918473565 0.004534876706989394 -0.006818001916733903 0.00011423200500050579 -0.00963228506472666 0.003035740919983671 -0.0095622491163461 5.196332129597109e-05 0.00850920379072965 0.0021490748844063493 0.004853387688602552 0.004750409692941946 0.003076787456984942 0.00571452013833664 0.00781365131857713 0.0007592408749581402 -0.007424072482985449 0.0038828476797882847 0.00027032387505228003 0.007931924476413181 0.00545700462450714 -0.0025314409374890623 0.007683601881566226 0.008920945476517428 -0.007164501017737452 -0.0017055664728079338 -0.009636109868694582 0.008615150051543447 -0.005586063068680405 0.005389164169242136 -0.003060548012166526 0.007416894616259764 -0.0028558625056060464 -0.0019055310802363109 -0.0053905186453274715 0.004102293611370676 -0.0055655497260188634 -0.005988501283939749 -0.0009115835780700507 -0.002757014387181387 0.008262476502172303 -0.00573592901915716 0.006480629719306215 -0.0004901997484900097 0.007033492340826184 0.008313630301601338 0.0051948446794607955 -0.0026798084368556798 -0.004405659746236557 -0.005642207974664626 -0.005132927817514894 -0.006476832803031509 0.005306912316414286 0.00460691932317407 0.00885906831391184 -0.0014322668480682022 0.002733208656480286 0.005821115402350275 0.009253007263373437 0.006714304590343395 0.005942415936365799 -0.005519418867759411 0.008448819423550238 -0.006239817867190105 -0.004498844788973659 -0.001296104558181941 0.007740201506723858 0.000784629762365761 0.006108489820485138 -0.0017109905178972658 0.005131101505725762 -0.006648636248009328 0.00764020785008126 -0.007690416215681664 -0.0006599739595987471 0.0042147626010465376 0.0011487626785867417 0.001371964785456115 -0.005150385105667356 -0.003938377045735804 -0.004695945103706618 -0.00944082256319657 -0.008652945069900577 -0.002108549805149065 0.0014395951077893591 -0.004692754087782278 -0.0071465662330251045 0.003305700221766239 -0.00543646057009582 0.0016161965737486808 -0.005758576762985395 -0.007734204651207308 0.002153839609062876 0.004711160358532172 -0.0008974755107756562 -0.0068793968937439255 -0.006711918291349974 0.0039003338323352725 0.00860628501332598 -0.0032407265107141604 0.0040337846363447324 -0.000691991119356021 -0.00945641041301305 0.004592954464888005 -0.008993076888107097 0.0027570126326789575 -0.006899313526279991 -0.0052995353795476305 0.001351951150684592 7.117100676480928e-05 -0.003974010839017321 -0.003442004294662811 0.0038182916702986444 -0.002292309526962368 0.005867811702848948 0.0025324660799069965 0.002535448816544727 0.008428022391798186 0.00040964310928649945 -0.004557517487937708 0.0028017202626119 -0.0039070880153538766 -0.008490081630761965 0.005513798341823166 0.006797913001740997 -0.006851033853589291 0.009904252559939852 -0.003981827784161303 0.002389468826932993 0.008754932989646998 -0.006322313874903542 0.0008676835648285912 0.0027635838680333553 0.003711005352519326 -0.006596031624899624 -0.002903140770766686 0.0019682883243911462 0.0032430567021452736 -0.0069531039509522575 -0.0016191356874718215 0.005994330221149298 -0.0021697147210218808 -0.00938756546199981 0.009113254369306783 0.001852679798035068 -0.00232484335890079 -0.0005768011216944653 0.0002788296459758158 0.004498458226836302 0.005597781025542804 -0.007121589024012833 -0.00819051870068433 0.005404080995082924 -0.005040816186065369 6.07231870681374e-06 -0.005979700890770115 -0.001545831612915615 -0.0012242546407904061 -0.0039630603036048505 -0.008388632879851084 0.0020065073576083434 0.007819738002985311 0.000514258399039234 0.0071807405708818 -0.0025135548330583847 -0.004617999447055874 -0.008638998825279309 3.475850684728568e-05 0.006097972469851389 0.0021639909577704924 0.008842034846076137 -0.00899605181256637 -0.008231323221727996 0.006139419416827911 -0.007727239653258699 -0.001694644171540232 -0.004128443146941681 -0.0029314365690900094 -0.00958465095555805 0.007935875347133118 0.0016052816563885946 0.005110985137766155 -0.0017245310120766275 -2.0443879791713637e-05 0.006192428912467159 0.005955156182528591 -0.0021741512605933846 0.006088637917334135 -0.0017745545764008708 0.009518923128865908 -0.0001678577659543802 0.001342822260613186 -0.0072544507826028636 0.0018614873775557525 0.0006035648882376562 -0.009291631147699183 0.002576046052555776 -0.009696320876431685 -0.009438401082150756 -0.003629657940631235 0.007941600389181581 -0.0075581378461158245 -0.006781775463649358 0.009395794905200322 0.0060026293370049316 0.00801396862526448 -0.0055319871728890255 0.004047175613902852 0.006521788909093355 0.009312831447966111 -0.006300480728130187 0.004919806657641515 0.0008802225142090017 -0.0014324372603336313 0.0012390884365955385 -0.004429375875540267 0.007277970105055922 0.009110539987748691 -0.005840646894167709 -0.009745774758142605 0.004913577711501763 0.0038149143137280947 -0.00967685244974756 -0.008281219419518988 -0.009826988222582449 -0.0024567388018960547 -0.0060548250909566 0.008183464426742159 -0.006292151718146213 0.006773171550597775 0.004083754179397886 0.0016679956436359642 0.000544753544683781 -0.008998078055374203 0.009224937265438443 0.0019434774513889894 0.006072992080024689 0.0014006671812338781 0.0020110803314175602 -0.009194298607562285 0.007434282030879246 -0.003106550862639226 0.0005844683972570444 0.006962459561873831 0.00982946639134709 0.0007717409051892429 -0.0046563833395675824 0.009040731040479403 0.0052116014189883195 -0.004581332548946353 -0.00431059997982818 -0.006336750785888204 -0.009096582323507305 -0.002369473891348046 -0.006313771885099477 -0.009385821602017284 0.0019540061526348435 0.00014013744102704846 0.0037619196297262944 -0.004130403501345865 0.004333168016807706 8.018625443990957e-05 0.007167478628582883 0.007058920852298296 0.007037064002678216 -0.0017596730417604664 -0.007899022096419208 0.0049640924407999745 0.00414869722372465 0.004841004989204225 0.007968604169055515 0.00012460291950576984 0.008729873809487409 0.000568861170671375 -0.004365306511800058 -0.0005500640953565311 -0.009817102459573816 0.0014039759805628254 0.004467808697247904 0.006657893891336962 0.0074951775263189645 -0.006394834625541273 0.008990845285779056 -0.0071541300353436706 -0.0051099643013680016 0.0038821750301947233 0.002500299453515353 -0.0007183244043137416 -0.007948179152033889 -0.0007141175022879233 0.008185083415136971 0.006632582543922504 0.0070552039249653035 0.0028336709254966792 -0.006513921618667063 0.009865830110677489 0.0025883355640056987 -0.003193734247782687 -0.009136176365414582 -0.00929574381648126 0.0030065554359688003 0.004136191576775257 -0.0020429519223369545 0.004023154638150063 0.009278019422441471 -0.009009495593680101 0.0015727517075860703 0.0005226311806149735 -0.0034094890576380262 -0.004387550446409394 -0.005288474124514859 0.000947287585541013 0.0032203139701105932 0.001305139058892863 0.0054261265737827555 0.0064975808704521906 -0.006788905929637075 -0.00012725439223892042 -0.008874494548812131 0.009196965396840123 -0.006854563724459185 -0.007163510039374321 0.0015783122073274487 -0.006068196047828898 -0.00948673787275175 -0.004651179056500976 -0.0010346676249070354 -0.005153641598191019 0.005434046895208275 -0.007749961570503479 -0.004809587689411465 0.008506737938811139 0.0005538384769298871 0.0012143096287081413 -0.00029968283287134904 -0.008868645044774685 -0.0032641565961963014 -0.0063355073852471196 -0.008033133662977976 -0.009204272008202428 -0.00844332216904673 -0.001435179472606532 -0.00047114057145316787 0.003156945022057161 0.00364406016917008 0.0037991347817419394 -0.002969556033876393 -0.0026329327754837763 -0.008897182748847854 0.008921762717638492 -0.006024464502299431 0.00703258873077312 -0.0032412059390240526 0.005718734309834198 0.0011894462346056772 0.00457856856058287 -0.008116612131442696 0.0012646670995542768 0.007285530396876462 -0.00592229060123034 0.008516570681763766 0.004257696144475253 -0.008470042189432574 0.00925431967703409 -0.006322421749060645 -0.000802131682871075 0.0067256214295413775 -0.006668987266426871 0.0009826446354979437 -0.0018849690230785063 -3.1552667294192788e-06 -0.0017477636412517074 0.00690073380820422 0.002785390871999211 0.001640083065310844 -0.005648185011851576 0.002041720942833187 -0.0045815298020645615 0.005361667736206435 0.00722534399158113 -0.002552002541933009 0.008052679275449585 0.0012605118612995167 0.007732891994794261 -0.004359609066560886 0.002484426980200292 -0.008080655697639591 0.00917429322544004 0.006931408706209298 -0.00040924912142340647 -0.007038865822743963 -0.009095439096094006 0.0021231736957742497 -0.007197221359061524 0.0005037424708060918 -0.009816994050251562 -0.00014920427789512532 0.009511918044535274 -0.009856479109785115 0.009146317557876859 0.007579119982142101 0.00464904777990857 0.005986349326717268 0.00019374624558919466 0.008528115747630021 -0.007945591645116956 0.006546111729445974 0.006484094324028423 -0.006905269426180527 -0.008432259629456046 0.002561959746356767 -0.0002194805674688438 -0.008773331803075182 -0.0005768402013780188 0.004970167164412807 -0.004445696365606844 -0.00241654840734407 -0.0035696054229710783 0.001339189391909159 -0.008211334077371388 0.00993736751827136 0.0005249412702517161 -0.006979012697047151 0.0008707700383711256 0.006570785376661283 -0.008852524986437021 -0.009905093337004907 0.0008215716594424192 0.009481416971638493 0.00943857597680151 0.0020714328008356545 -0.007077801713833081 -0.0010926807896995561 -0.005139294780966835 -0.0036294790460065472 0.000929950701179549 -0.002220916786170808 -0.007445262653165874 -0.0055795777594363875 0.009135937891193662 -0.0015472317834755948 0.006518454778300658 0.0014750099642560285 0.0012894223031118205 -0.007831186078020368 -0.0009767173624493 0.00617458948980309 -0.0010741465865354155 -0.009737331558840424 0.008894053072813405 -0.009270274434079184 -0.006430086335878098 -0.0029335177848578047 -0.002708239706525086 -0.004891791146921818 0.002532744352581504 0.004564064805007886 0.00755931747061611 0.006026802994277878 0.009901928261144317 0.008869560693456685 -0.005097441851201128 -0.009313650682660829 0.0017005139975301616 0.0034366434285085998 -0.0031179044747285858 -0.009260586571034877 -0.002381788331095631 0.003250195402416032 -0.0044593368236083 0.008784418085451154 0.0026999354375408947 0.0019493822500976487 0.008663952171167137 -0.0005216989583371415 0.008575576320398367 0.005546230937259868 0.009609629827699593 -0.009317158390183773 -0.0034938796028955174 0.00946378271105004 0.008306367655448196 0.0021204237222242836 -0.005775463996043653 0.007809820316568553 0.007990598431294576 0.008824456385789098 0.004443482224466656 -5.074129625685757e-05 -0.008925926969203768 -0.00043265360352204817 -0.009760323603659192 0.004364584720388703 -0.0013280750621329183 0.0011097540223064476 0.005038972424725192 -0.009574122635217635 0.007777153826410534 0.004517504169531696 0.001990706393174599 -0.00366867133272361 -0.0047621273883776925 -0.0010820560013706931 -0.009334566160762706 -0.003047745408772844 0.0010239502237813052 0.003753900079943015 0.006505190510070322 0.009829520820879014 0.009070647858588505 -0.0047645949995254976 0.0030414435638813943 0.009718805288017768 -0.00779843750349515 -0.002990537164346492 -0.005951739813119397 -0.0033188763279247318 -0.00872242327073232 0.004330638167894045 0.009114415033542886 -0.00415023134127923 0.00485158206083834 0.007027762339823744 0.0034106298444412427 -0.008182662394204464 0.007600033500402318 -0.005208293220654115 0.008548706520937538 0.0044643493275482535 0.008348077466713759 -0.006806389677708073 -0.008210265744423524 -0.003319809264831688 -0.005668031945551107 -0.004674692459291387 0.0034748781913928033 0.0064913327481408625 -0.008450461830902478 0.0023416849977927374 -0.003293819234700706 0.004591347543858506 -0.007604293113930403 0.00834948509278337 -0.002965878358157474 -0.005815348207092417 -0.0016403925669759185 0.009506468598865463 0.0021672067670864964 0.009590733645334937 0.0007074896237002793 -0.0025089350054623757 -0.0028292712670137093 -0.009266416870096364 -0.006490342276805692 0.004850686832074038 -0.0037189382943176065 0.00023598113014217277 -0.006215120632287508 -0.006733991883207183 0.004598388214006417 0.0007001555320541829 0.0066455576030627125 0.008784500838799994 -0.005025946079245904 0.0028225989646142383 0.00707385972041631 -0.002999391698107645 -0.005139305398421676 0.006967870150398342 -0.0001749774529340043 -0.0002389671978063855 0.007959818907680856 0.004175824364798382 0.0032553961820897 -0.001774157222792637 0.004638254440344916 0.0067853098038238285 -0.002680907846679295 0.002378354191668708 -0.002390274330135074 0.0023653901203732636 0.008692474717906394 0.00638344742766459 0.006200143222759783 -0.008984898974740214 -0.007471551225874564 0.000782788900576559 -0.005199624655823429 -0.007566400987205308 0.0011953028939061406 -0.0024638136936165813 0.004288535917935146 -0.00851859948577162 -0.002422632920793131 0.0052881171168867695 0.0065091930089304795 0.005044335331214171 0.00841152605122048 -0.0017916227217203897 -0.0068089401186840065 0.009009945449756406 0.00291008156237298 -0.008828361038640072 -0.0073521335059614865 -0.006138853570330754 0.000311076153632104 -0.00479034288739374 0.009026433210468117 -0.008154518297080684 0.0035093480180187625 0.0034359859631532923 -0.0021982159534121616 -0.002182459233487916 -0.0013605932693970743 -0.0036847720968947 0.0057738103422433785 -2.424176219046302e-05 -0.006760800038359303 0.003675882717795202 0.0020272600387832677 0.005894443473413712 0.008567633433150536 0.0035483380289250376 0.00751693231599109 0.008657468582473104 -0.009517757162262113 0.003461069385305233 -0.005800168271902464 0.007085907126959138 0.0012049429075699815 -0.00419527441857275 0.0023703034651241066 0.0043645600840495295 -0.00015601024378129533 -0.006652326835083888 0.00489079228278704 -0.0059190575762208784 0.007392636996282209 0.003928636418741397 0.002063847786621038 0.00872327623248311 -0.0010795970373979995 0.0043263089429780004 -0.0071688792284144605 0.006329281334893832 -0.0028211831549931213 -0.008422615238295603 0.005475014376853745 0.009927286197636607 -0.009239591947807935 -0.004459160716370953 -0.003540357763496236 -0.009520942527403358 -0.008576003571349737 0.00899248837544807 -0.008729808187006456 0.000714607525332478 0.004330791472208294 -0.0070256958547335316 -0.006877151768188155 -0.006232548944891041 0.004445798655611495 0.003036644014921432 -0.00018588053047530716 0.0016921614553448115 0.009131711607389964 -0.0029023264530988 0.007017286884992995 2.7668571716623486e-05 0.0069618428597554936 0.0018175006705357828 -0.0018987526997750089 0.009811000342288644 0.008608514034243614 0.0009598969632879633 0.0029250186551800037 -0.008008998488624446 0.006424490393799604 0.0057137990212866915 -0.006915364849849089 0.007368970832844357 0.005321930513649698 0.003229459723673913 0.007800220956466047 0.006861337167557121 0.006092421174724876 0.0003088884939201342 